<?xml version="1.0"?>
<opencv_storage>
<cascade>
  <stageType>BOOST</stageType>
  <featureType>LBP</featureType>
  <height>60</height>
  <width>60</width>
  <stageParams>
    <boostType>GAB</boostType>
    <minHitRate>9.9900001287460327e-01</minHitRate>
    <maxFalseAlarm>2.0000000298023224e-01</maxFalseAlarm>
    <weightTrimRate>9.4999998807907104e-01</weightTrimRate>
    <maxDepth>1</maxDepth>
    <maxWeakCount>100</maxWeakCount></stageParams>
  <featureParams>
    <maxCatCount>256</maxCatCount>
    <featSize>1</featSize></featureParams>
  <stageNum>5</stageNum>
  <stages>
    <!-- stage 0 -->
    <_>
      <maxWeakCount>1</maxWeakCount>
      <stageThreshold>-7.8062556418956319e-17</stageThreshold>
      <weakClassifiers>
        <_>
          <internalNodes>
            0 -1 5 -2147467120 128 16809989 -2147475456 8422536
            -2147450880 137 -1937735544</internalNodes>
          <leafValues>
            -1. -7.8062556418956319e-17</leafValues></_></weakClassifiers></_>
    <!-- stage 1 -->
    <_>
      <maxWeakCount>1</maxWeakCount>
      <stageThreshold>-7.8062556418956319e-17</stageThreshold>
      <weakClassifiers>
        <_>
          <internalNodes>
            0 -1 4 1360060497 -754909184 4160 1359020040 -2147483648 0
            4194432 -1979547494</internalNodes>
          <leafValues>
            -1. -7.8062556418956319e-17</leafValues></_></weakClassifiers></_>
    <!-- stage 2 -->
    <_>
      <maxWeakCount>100</maxWeakCount>
      <stageThreshold>-1.3195286989212036e+00</stageThreshold>
      <weakClassifiers>
        <_>
          <internalNodes>
            0 -1 0 0 0 0 0 0 0 0 -2147483648</internalNodes>
          <leafValues>
            -8.6666667461395264e-01 -8.6666667461395264e-01</leafValues></_>
        <_>
          <internalNodes>
            0 -1 0 0 0 0 0 0 0 33554432 0</internalNodes>
          <leafValues>
            -4.2424872517585754e-01 -4.2424872517585754e-01</leafValues></_>
        <_>
          <internalNodes>
            0 -1 0 0 0 0 0 0 0 0 -2147483648</internalNodes>
          <leafValues>
            -2.8605464845895767e-02 -2.8605464845895767e-02</leafValues></_>
        <_>
          <internalNodes>
            0 -1 0 0 0 0 0 0 0 0 -2147483648</internalNodes>
          <leafValues>
            -7.8061884778435342e-06 -7.8061884778435342e-06</leafValues></_>
        <_>
          <internalNodes>
            0 -1 0 0 0 0 0 0 0 33554432 0</internalNodes>
          <leafValues>
            -4.5970172113385388e-16 5.6595353403743331e-16</leafValues></_>
        <_>
          <internalNodes>
            0 -1 0 0 0 0 0 0 0 0 -2147483648</internalNodes>
          <leafValues>
            -4.9873299934333204e-16 -6.0715321659188248e-17</leafValues></_>
        <_>
          <internalNodes>
            0 -1 3 -1 -1 -1 -1 -1 -1 -9 -129</internalNodes>
          <leafValues>
            6.0715321659188248e-17 2.1033522146218786e-16</leafValues></_>
        <_>
          <internalNodes>
            0 -1 1 0 0 0 0 0 0 0 -2147483648</internalNodes>
          <leafValues>
            -3.7079714299004252e-16 1.1275702593849246e-16</leafValues></_>
        <_>
          <internalNodes>
            0 -1 2 0 0 0 0 0 0 0 -2147483648</internalNodes>
          <leafValues>
            -2.5153490401663703e-16 1.3010426069826053e-17</leafValues></_>
        <_>
          <internalNodes>
            0 -1 2 -1 -1 -1 -1 -1 -1 -129 -8421505</internalNodes>
          <leafValues>
            2.5153490401663703e-16 1.3010426069826053e-17</leafValues></_>
        <_>
          <internalNodes>
            0 -1 2 0 0 0 0 0 0 0 -2147483648</internalNodes>
          <leafValues>
            -2.5153490401663703e-16 1.3010426069826053e-17</leafValues></_>
        <_>
          <internalNodes>
            0 -1 2 -1 -1 -1 -1 -1 -1 -129 -8421505</internalNodes>
          <leafValues>
            2.5153490401663703e-16 1.3010426069826053e-17</leafValues></_>
        <_>
          <internalNodes>
            0 -1 2 0 0 0 0 0 0 0 -2147483648</internalNodes>
          <leafValues>
            -2.5153490401663703e-16 1.3010426069826053e-17</leafValues></_>
        <_>
          <internalNodes>
            0 -1 2 -1 -1 -1 -1 -1 -1 -129 -8421505</internalNodes>
          <leafValues>
            2.5153490401663703e-16 1.3010426069826053e-17</leafValues></_>
        <_>
          <internalNodes>
            0 -1 2 0 0 0 0 0 0 0 -2147483648</internalNodes>
          <leafValues>
            -2.5153490401663703e-16 1.3010426069826053e-17</leafValues></_>
        <_>
          <internalNodes>
            0 -1 2 -1 -1 -1 -1 -1 -1 -129 -8421505</internalNodes>
          <leafValues>
            2.5153490401663703e-16 1.3010426069826053e-17</leafValues></_>
        <_>
          <internalNodes>
            0 -1 2 0 0 0 0 0 0 0 -2147483648</internalNodes>
          <leafValues>
            -2.5153490401663703e-16 1.3010426069826053e-17</leafValues></_>
        <_>
          <internalNodes>
            0 -1 2 -1 -1 -1 -1 -1 -1 -129 -8421505</internalNodes>
          <leafValues>
            2.5153490401663703e-16 1.3010426069826053e-17</leafValues></_>
        <_>
          <internalNodes>
            0 -1 2 0 0 0 0 0 0 0 -2147483648</internalNodes>
          <leafValues>
            -2.5153490401663703e-16 1.3010426069826053e-17</leafValues></_>
        <_>
          <internalNodes>
            0 -1 2 -1 -1 -1 -1 -1 -1 -129 -8421505</internalNodes>
          <leafValues>
            2.5153490401663703e-16 1.3010426069826053e-17</leafValues></_>
        <_>
          <internalNodes>
            0 -1 2 0 0 0 0 0 0 0 -2147483648</internalNodes>
          <leafValues>
            -2.5153490401663703e-16 1.3010426069826053e-17</leafValues></_>
        <_>
          <internalNodes>
            0 -1 2 -1 -1 -1 -1 -1 -1 -129 -8421505</internalNodes>
          <leafValues>
            2.5153490401663703e-16 1.3010426069826053e-17</leafValues></_>
        <_>
          <internalNodes>
            0 -1 2 0 0 0 0 0 0 0 -2147483648</internalNodes>
          <leafValues>
            -2.5153490401663703e-16 1.3010426069826053e-17</leafValues></_>
        <_>
          <internalNodes>
            0 -1 2 -1 -1 -1 -1 -1 -1 -129 -8421505</internalNodes>
          <leafValues>
            2.5153490401663703e-16 1.3010426069826053e-17</leafValues></_>
        <_>
          <internalNodes>
            0 -1 2 0 0 0 0 0 0 0 -2147483648</internalNodes>
          <leafValues>
            -2.5153490401663703e-16 1.3010426069826053e-17</leafValues></_>
        <_>
          <internalNodes>
            0 -1 2 -1 -1 -1 -1 -1 -1 -129 -8421505</internalNodes>
          <leafValues>
            2.5153490401663703e-16 1.3010426069826053e-17</leafValues></_>
        <_>
          <internalNodes>
            0 -1 2 0 0 0 0 0 0 0 -2147483648</internalNodes>
          <leafValues>
            -2.5153490401663703e-16 1.3010426069826053e-17</leafValues></_>
        <_>
          <internalNodes>
            0 -1 2 -1 -1 -1 -1 -1 -1 -129 -8421505</internalNodes>
          <leafValues>
            2.5153490401663703e-16 1.3010426069826053e-17</leafValues></_>
        <_>
          <internalNodes>
            0 -1 2 0 0 0 0 0 0 0 -2147483648</internalNodes>
          <leafValues>
            -2.5153490401663703e-16 1.3010426069826053e-17</leafValues></_>
        <_>
          <internalNodes>
            0 -1 2 -1 -1 -1 -1 -1 -1 -129 -8421505</internalNodes>
          <leafValues>
            2.5153490401663703e-16 1.3010426069826053e-17</leafValues></_>
        <_>
          <internalNodes>
            0 -1 2 0 0 0 0 0 0 0 -2147483648</internalNodes>
          <leafValues>
            -2.5153490401663703e-16 1.3010426069826053e-17</leafValues></_>
        <_>
          <internalNodes>
            0 -1 2 -1 -1 -1 -1 -1 -1 -129 -8421505</internalNodes>
          <leafValues>
            2.5153490401663703e-16 1.3010426069826053e-17</leafValues></_>
        <_>
          <internalNodes>
            0 -1 2 0 0 0 0 0 0 0 -2147483648</internalNodes>
          <leafValues>
            -2.5153490401663703e-16 1.3010426069826053e-17</leafValues></_>
        <_>
          <internalNodes>
            0 -1 2 -1 -1 -1 -1 -1 -1 -129 -8421505</internalNodes>
          <leafValues>
            2.5153490401663703e-16 1.3010426069826053e-17</leafValues></_>
        <_>
          <internalNodes>
            0 -1 2 0 0 0 0 0 0 0 -2147483648</internalNodes>
          <leafValues>
            -2.5153490401663703e-16 1.3010426069826053e-17</leafValues></_>
        <_>
          <internalNodes>
            0 -1 2 -1 -1 -1 -1 -1 -1 -129 -8421505</internalNodes>
          <leafValues>
            2.5153490401663703e-16 1.3010426069826053e-17</leafValues></_>
        <_>
          <internalNodes>
            0 -1 2 0 0 0 0 0 0 0 -2147483648</internalNodes>
          <leafValues>
            -2.5153490401663703e-16 1.3010426069826053e-17</leafValues></_>
        <_>
          <internalNodes>
            0 -1 2 -1 -1 -1 -1 -1 -1 -129 -8421505</internalNodes>
          <leafValues>
            2.5153490401663703e-16 1.3010426069826053e-17</leafValues></_>
        <_>
          <internalNodes>
            0 -1 2 0 0 0 0 0 0 0 -2147483648</internalNodes>
          <leafValues>
            -2.5153490401663703e-16 1.3010426069826053e-17</leafValues></_>
        <_>
          <internalNodes>
            0 -1 2 -1 -1 -1 -1 -1 -1 -129 -8421505</internalNodes>
          <leafValues>
            2.5153490401663703e-16 1.3010426069826053e-17</leafValues></_>
        <_>
          <internalNodes>
            0 -1 2 0 0 0 0 0 0 0 -2147483648</internalNodes>
          <leafValues>
            -2.5153490401663703e-16 1.3010426069826053e-17</leafValues></_>
        <_>
          <internalNodes>
            0 -1 2 -1 -1 -1 -1 -1 -1 -129 -8421505</internalNodes>
          <leafValues>
            2.5153490401663703e-16 1.3010426069826053e-17</leafValues></_>
        <_>
          <internalNodes>
            0 -1 2 0 0 0 0 0 0 0 -2147483648</internalNodes>
          <leafValues>
            -2.5153490401663703e-16 1.3010426069826053e-17</leafValues></_>
        <_>
          <internalNodes>
            0 -1 2 -1 -1 -1 -1 -1 -1 -129 -8421505</internalNodes>
          <leafValues>
            2.5153490401663703e-16 1.3010426069826053e-17</leafValues></_>
        <_>
          <internalNodes>
            0 -1 2 0 0 0 0 0 0 0 -2147483648</internalNodes>
          <leafValues>
            -2.5153490401663703e-16 1.3010426069826053e-17</leafValues></_>
        <_>
          <internalNodes>
            0 -1 2 -1 -1 -1 -1 -1 -1 -129 -8421505</internalNodes>
          <leafValues>
            2.5153490401663703e-16 1.3010426069826053e-17</leafValues></_>
        <_>
          <internalNodes>
            0 -1 2 0 0 0 0 0 0 0 -2147483648</internalNodes>
          <leafValues>
            -2.5153490401663703e-16 1.3010426069826053e-17</leafValues></_>
        <_>
          <internalNodes>
            0 -1 2 -1 -1 -1 -1 -1 -1 -129 -8421505</internalNodes>
          <leafValues>
            2.5153490401663703e-16 1.3010426069826053e-17</leafValues></_>
        <_>
          <internalNodes>
            0 -1 2 0 0 0 0 0 0 0 -2147483648</internalNodes>
          <leafValues>
            -2.5153490401663703e-16 1.3010426069826053e-17</leafValues></_>
        <_>
          <internalNodes>
            0 -1 2 -1 -1 -1 -1 -1 -1 -129 -8421505</internalNodes>
          <leafValues>
            2.5153490401663703e-16 1.3010426069826053e-17</leafValues></_>
        <_>
          <internalNodes>
            0 -1 2 0 0 0 0 0 0 0 -2147483648</internalNodes>
          <leafValues>
            -2.5153490401663703e-16 1.3010426069826053e-17</leafValues></_>
        <_>
          <internalNodes>
            0 -1 2 -1 -1 -1 -1 -1 -1 -129 -8421505</internalNodes>
          <leafValues>
            2.5153490401663703e-16 1.3010426069826053e-17</leafValues></_>
        <_>
          <internalNodes>
            0 -1 2 0 0 0 0 0 0 0 -2147483648</internalNodes>
          <leafValues>
            -2.5153490401663703e-16 1.3010426069826053e-17</leafValues></_>
        <_>
          <internalNodes>
            0 -1 2 -1 -1 -1 -1 -1 -1 -129 -8421505</internalNodes>
          <leafValues>
            2.5153490401663703e-16 1.3010426069826053e-17</leafValues></_>
        <_>
          <internalNodes>
            0 -1 2 0 0 0 0 0 0 0 -2147483648</internalNodes>
          <leafValues>
            -2.5153490401663703e-16 1.3010426069826053e-17</leafValues></_>
        <_>
          <internalNodes>
            0 -1 2 -1 -1 -1 -1 -1 -1 -129 -8421505</internalNodes>
          <leafValues>
            2.5153490401663703e-16 1.3010426069826053e-17</leafValues></_>
        <_>
          <internalNodes>
            0 -1 2 0 0 0 0 0 0 0 -2147483648</internalNodes>
          <leafValues>
            -2.5153490401663703e-16 1.3010426069826053e-17</leafValues></_>
        <_>
          <internalNodes>
            0 -1 2 -1 -1 -1 -1 -1 -1 -129 -8421505</internalNodes>
          <leafValues>
            2.5153490401663703e-16 1.3010426069826053e-17</leafValues></_>
        <_>
          <internalNodes>
            0 -1 2 0 0 0 0 0 0 0 -2147483648</internalNodes>
          <leafValues>
            -2.5153490401663703e-16 1.3010426069826053e-17</leafValues></_>
        <_>
          <internalNodes>
            0 -1 2 -1 -1 -1 -1 -1 -1 -129 -8421505</internalNodes>
          <leafValues>
            2.5153490401663703e-16 1.3010426069826053e-17</leafValues></_>
        <_>
          <internalNodes>
            0 -1 2 0 0 0 0 0 0 0 -2147483648</internalNodes>
          <leafValues>
            -2.5153490401663703e-16 1.3010426069826053e-17</leafValues></_>
        <_>
          <internalNodes>
            0 -1 2 -1 -1 -1 -1 -1 -1 -129 -8421505</internalNodes>
          <leafValues>
            2.5153490401663703e-16 1.3010426069826053e-17</leafValues></_>
        <_>
          <internalNodes>
            0 -1 2 0 0 0 0 0 0 0 -2147483648</internalNodes>
          <leafValues>
            -2.5153490401663703e-16 1.3010426069826053e-17</leafValues></_>
        <_>
          <internalNodes>
            0 -1 2 -1 -1 -1 -1 -1 -1 -129 -8421505</internalNodes>
          <leafValues>
            2.5153490401663703e-16 1.3010426069826053e-17</leafValues></_>
        <_>
          <internalNodes>
            0 -1 2 0 0 0 0 0 0 0 -2147483648</internalNodes>
          <leafValues>
            -2.5153490401663703e-16 1.3010426069826053e-17</leafValues></_>
        <_>
          <internalNodes>
            0 -1 2 -1 -1 -1 -1 -1 -1 -129 -8421505</internalNodes>
          <leafValues>
            2.5153490401663703e-16 1.3010426069826053e-17</leafValues></_>
        <_>
          <internalNodes>
            0 -1 2 0 0 0 0 0 0 0 -2147483648</internalNodes>
          <leafValues>
            -2.5153490401663703e-16 1.3010426069826053e-17</leafValues></_>
        <_>
          <internalNodes>
            0 -1 2 -1 -1 -1 -1 -1 -1 -129 -8421505</internalNodes>
          <leafValues>
            2.5153490401663703e-16 1.3010426069826053e-17</leafValues></_>
        <_>
          <internalNodes>
            0 -1 2 0 0 0 0 0 0 0 -2147483648</internalNodes>
          <leafValues>
            -2.5153490401663703e-16 1.3010426069826053e-17</leafValues></_>
        <_>
          <internalNodes>
            0 -1 2 -1 -1 -1 -1 -1 -1 -129 -8421505</internalNodes>
          <leafValues>
            2.5153490401663703e-16 1.3010426069826053e-17</leafValues></_>
        <_>
          <internalNodes>
            0 -1 2 0 0 0 0 0 0 0 -2147483648</internalNodes>
          <leafValues>
            -2.5153490401663703e-16 1.3010426069826053e-17</leafValues></_>
        <_>
          <internalNodes>
            0 -1 2 -1 -1 -1 -1 -1 -1 -129 -8421505</internalNodes>
          <leafValues>
            2.5153490401663703e-16 1.3010426069826053e-17</leafValues></_>
        <_>
          <internalNodes>
            0 -1 2 0 0 0 0 0 0 0 -2147483648</internalNodes>
          <leafValues>
            -2.5153490401663703e-16 1.3010426069826053e-17</leafValues></_>
        <_>
          <internalNodes>
            0 -1 2 -1 -1 -1 -1 -1 -1 -129 -8421505</internalNodes>
          <leafValues>
            2.5153490401663703e-16 1.3010426069826053e-17</leafValues></_>
        <_>
          <internalNodes>
            0 -1 2 0 0 0 0 0 0 0 -2147483648</internalNodes>
          <leafValues>
            -2.5153490401663703e-16 1.3010426069826053e-17</leafValues></_>
        <_>
          <internalNodes>
            0 -1 2 -1 -1 -1 -1 -1 -1 -129 -8421505</internalNodes>
          <leafValues>
            2.5153490401663703e-16 1.3010426069826053e-17</leafValues></_>
        <_>
          <internalNodes>
            0 -1 2 0 0 0 0 0 0 0 -2147483648</internalNodes>
          <leafValues>
            -2.5153490401663703e-16 1.3010426069826053e-17</leafValues></_>
        <_>
          <internalNodes>
            0 -1 2 -1 -1 -1 -1 -1 -1 -129 -8421505</internalNodes>
          <leafValues>
            2.5153490401663703e-16 1.3010426069826053e-17</leafValues></_>
        <_>
          <internalNodes>
            0 -1 2 0 0 0 0 0 0 0 -2147483648</internalNodes>
          <leafValues>
            -2.5153490401663703e-16 1.3010426069826053e-17</leafValues></_>
        <_>
          <internalNodes>
            0 -1 2 -1 -1 -1 -1 -1 -1 -129 -8421505</internalNodes>
          <leafValues>
            2.5153490401663703e-16 1.3010426069826053e-17</leafValues></_>
        <_>
          <internalNodes>
            0 -1 2 0 0 0 0 0 0 0 -2147483648</internalNodes>
          <leafValues>
            -2.5153490401663703e-16 1.3010426069826053e-17</leafValues></_>
        <_>
          <internalNodes>
            0 -1 2 -1 -1 -1 -1 -1 -1 -129 -8421505</internalNodes>
          <leafValues>
            2.5153490401663703e-16 1.3010426069826053e-17</leafValues></_>
        <_>
          <internalNodes>
            0 -1 2 0 0 0 0 0 0 0 -2147483648</internalNodes>
          <leafValues>
            -2.5153490401663703e-16 1.3010426069826053e-17</leafValues></_>
        <_>
          <internalNodes>
            0 -1 2 -1 -1 -1 -1 -1 -1 -129 -8421505</internalNodes>
          <leafValues>
            2.5153490401663703e-16 1.3010426069826053e-17</leafValues></_>
        <_>
          <internalNodes>
            0 -1 2 0 0 0 0 0 0 0 -2147483648</internalNodes>
          <leafValues>
            -2.5153490401663703e-16 1.3010426069826053e-17</leafValues></_>
        <_>
          <internalNodes>
            0 -1 2 -1 -1 -1 -1 -1 -1 -129 -8421505</internalNodes>
          <leafValues>
            2.5153490401663703e-16 1.3010426069826053e-17</leafValues></_>
        <_>
          <internalNodes>
            0 -1 2 0 0 0 0 0 0 0 -2147483648</internalNodes>
          <leafValues>
            -2.5153490401663703e-16 1.3010426069826053e-17</leafValues></_>
        <_>
          <internalNodes>
            0 -1 2 -1 -1 -1 -1 -1 -1 -129 -8421505</internalNodes>
          <leafValues>
            2.5153490401663703e-16 1.3010426069826053e-17</leafValues></_>
        <_>
          <internalNodes>
            0 -1 2 0 0 0 0 0 0 0 -2147483648</internalNodes>
          <leafValues>
            -2.5153490401663703e-16 1.3010426069826053e-17</leafValues></_>
        <_>
          <internalNodes>
            0 -1 2 -1 -1 -1 -1 -1 -1 -129 -8421505</internalNodes>
          <leafValues>
            2.5153490401663703e-16 1.3010426069826053e-17</leafValues></_>
        <_>
          <internalNodes>
            0 -1 2 0 0 0 0 0 0 0 -2147483648</internalNodes>
          <leafValues>
            -2.5153490401663703e-16 1.3010426069826053e-17</leafValues></_>
        <_>
          <internalNodes>
            0 -1 2 -1 -1 -1 -1 -1 -1 -129 -8421505</internalNodes>
          <leafValues>
            2.5153490401663703e-16 1.3010426069826053e-17</leafValues></_>
        <_>
          <internalNodes>
            0 -1 2 0 0 0 0 0 0 0 -2147483648</internalNodes>
          <leafValues>
            -2.5153490401663703e-16 1.3010426069826053e-17</leafValues></_>
        <_>
          <internalNodes>
            0 -1 2 -1 -1 -1 -1 -1 -1 -129 -8421505</internalNodes>
          <leafValues>
            2.5153490401663703e-16 1.3010426069826053e-17</leafValues></_>
        <_>
          <internalNodes>
            0 -1 2 0 0 0 0 0 0 0 -2147483648</internalNodes>
          <leafValues>
            -2.5153490401663703e-16 1.3010426069826053e-17</leafValues></_>
        <_>
          <internalNodes>
            0 -1 2 -1 -1 -1 -1 -1 -1 -129 -8421505</internalNodes>
          <leafValues>
            2.5153490401663703e-16 1.3010426069826053e-17</leafValues></_>
        <_>
          <internalNodes>
            0 -1 2 0 0 0 0 0 0 0 -2147483648</internalNodes>
          <leafValues>
            -2.5153490401663703e-16 1.3010426069826053e-17</leafValues></_>
        <_>
          <internalNodes>
            0 -1 2 -1 -1 -1 -1 -1 -1 -129 -8421505</internalNodes>
          <leafValues>
            2.5153490401663703e-16 1.3010426069826053e-17</leafValues></_>
        <_>
          <internalNodes>
            0 -1 2 0 0 0 0 0 0 0 -2147483648</internalNodes>
          <leafValues>
            -2.5153490401663703e-16 1.3010426069826053e-17</leafValues></_>
        <_>
          <internalNodes>
            0 -1 2 -1 -1 -1 -1 -1 -1 -129 -8421505</internalNodes>
          <leafValues>
            2.5153490401663703e-16 1.3010426069826053e-17</leafValues></_></weakClassifiers></_>
    <!-- stage 3 -->
    <_>
      <maxWeakCount>100</maxWeakCount>
      <stageThreshold>-1.3195286989212036e+00</stageThreshold>
      <weakClassifiers>
        <_>
          <internalNodes>
            0 -1 0 0 0 0 0 0 0 0 -2147483648</internalNodes>
          <leafValues>
            -8.6666667461395264e-01 -8.6666667461395264e-01</leafValues></_>
        <_>
          <internalNodes>
            0 -1 0 0 0 0 0 0 0 33554432 0</internalNodes>
          <leafValues>
            -4.2424872517585754e-01 -4.2424872517585754e-01</leafValues></_>
        <_>
          <internalNodes>
            0 -1 0 0 0 0 0 0 0 0 -2147483648</internalNodes>
          <leafValues>
            -2.8605464845895767e-02 -2.8605464845895767e-02</leafValues></_>
        <_>
          <internalNodes>
            0 -1 0 0 0 0 0 0 0 0 -2147483648</internalNodes>
          <leafValues>
            -7.8061884778435342e-06 -7.8061884778435342e-06</leafValues></_>
        <_>
          <internalNodes>
            0 -1 0 0 0 0 0 0 0 33554432 0</internalNodes>
          <leafValues>
            -4.5970172113385388e-16 5.6595353403743331e-16</leafValues></_>
        <_>
          <internalNodes>
            0 -1 0 0 0 0 0 0 0 0 -2147483648</internalNodes>
          <leafValues>
            -4.9873299934333204e-16 -6.0715321659188248e-17</leafValues></_>
        <_>
          <internalNodes>
            0 -1 3 -1 -1 -1 -1 -1 -1 -9 -129</internalNodes>
          <leafValues>
            6.0715321659188248e-17 2.1033522146218786e-16</leafValues></_>
        <_>
          <internalNodes>
            0 -1 1 0 0 0 0 0 0 0 -2147483648</internalNodes>
          <leafValues>
            -3.7079714299004252e-16 1.1275702593849246e-16</leafValues></_>
        <_>
          <internalNodes>
            0 -1 2 0 0 0 0 0 0 0 -2147483648</internalNodes>
          <leafValues>
            -2.5153490401663703e-16 1.3010426069826053e-17</leafValues></_>
        <_>
          <internalNodes>
            0 -1 2 -1 -1 -1 -1 -1 -1 -129 -8421505</internalNodes>
          <leafValues>
            2.5153490401663703e-16 1.3010426069826053e-17</leafValues></_>
        <_>
          <internalNodes>
            0 -1 2 0 0 0 0 0 0 0 -2147483648</internalNodes>
          <leafValues>
            -2.5153490401663703e-16 1.3010426069826053e-17</leafValues></_>
        <_>
          <internalNodes>
            0 -1 2 -1 -1 -1 -1 -1 -1 -129 -8421505</internalNodes>
          <leafValues>
            2.5153490401663703e-16 1.3010426069826053e-17</leafValues></_>
        <_>
          <internalNodes>
            0 -1 2 0 0 0 0 0 0 0 -2147483648</internalNodes>
          <leafValues>
            -2.5153490401663703e-16 1.3010426069826053e-17</leafValues></_>
        <_>
          <internalNodes>
            0 -1 2 -1 -1 -1 -1 -1 -1 -129 -8421505</internalNodes>
          <leafValues>
            2.5153490401663703e-16 1.3010426069826053e-17</leafValues></_>
        <_>
          <internalNodes>
            0 -1 2 0 0 0 0 0 0 0 -2147483648</internalNodes>
          <leafValues>
            -2.5153490401663703e-16 1.3010426069826053e-17</leafValues></_>
        <_>
          <internalNodes>
            0 -1 2 -1 -1 -1 -1 -1 -1 -129 -8421505</internalNodes>
          <leafValues>
            2.5153490401663703e-16 1.3010426069826053e-17</leafValues></_>
        <_>
          <internalNodes>
            0 -1 2 0 0 0 0 0 0 0 -2147483648</internalNodes>
          <leafValues>
            -2.5153490401663703e-16 1.3010426069826053e-17</leafValues></_>
        <_>
          <internalNodes>
            0 -1 2 -1 -1 -1 -1 -1 -1 -129 -8421505</internalNodes>
          <leafValues>
            2.5153490401663703e-16 1.3010426069826053e-17</leafValues></_>
        <_>
          <internalNodes>
            0 -1 2 0 0 0 0 0 0 0 -2147483648</internalNodes>
          <leafValues>
            -2.5153490401663703e-16 1.3010426069826053e-17</leafValues></_>
        <_>
          <internalNodes>
            0 -1 2 -1 -1 -1 -1 -1 -1 -129 -8421505</internalNodes>
          <leafValues>
            2.5153490401663703e-16 1.3010426069826053e-17</leafValues></_>
        <_>
          <internalNodes>
            0 -1 2 0 0 0 0 0 0 0 -2147483648</internalNodes>
          <leafValues>
            -2.5153490401663703e-16 1.3010426069826053e-17</leafValues></_>
        <_>
          <internalNodes>
            0 -1 2 -1 -1 -1 -1 -1 -1 -129 -8421505</internalNodes>
          <leafValues>
            2.5153490401663703e-16 1.3010426069826053e-17</leafValues></_>
        <_>
          <internalNodes>
            0 -1 2 0 0 0 0 0 0 0 -2147483648</internalNodes>
          <leafValues>
            -2.5153490401663703e-16 1.3010426069826053e-17</leafValues></_>
        <_>
          <internalNodes>
            0 -1 2 -1 -1 -1 -1 -1 -1 -129 -8421505</internalNodes>
          <leafValues>
            2.5153490401663703e-16 1.3010426069826053e-17</leafValues></_>
        <_>
          <internalNodes>
            0 -1 2 0 0 0 0 0 0 0 -2147483648</internalNodes>
          <leafValues>
            -2.5153490401663703e-16 1.3010426069826053e-17</leafValues></_>
        <_>
          <internalNodes>
            0 -1 2 -1 -1 -1 -1 -1 -1 -129 -8421505</internalNodes>
          <leafValues>
            2.5153490401663703e-16 1.3010426069826053e-17</leafValues></_>
        <_>
          <internalNodes>
            0 -1 2 0 0 0 0 0 0 0 -2147483648</internalNodes>
          <leafValues>
            -2.5153490401663703e-16 1.3010426069826053e-17</leafValues></_>
        <_>
          <internalNodes>
            0 -1 2 -1 -1 -1 -1 -1 -1 -129 -8421505</internalNodes>
          <leafValues>
            2.5153490401663703e-16 1.3010426069826053e-17</leafValues></_>
        <_>
          <internalNodes>
            0 -1 2 0 0 0 0 0 0 0 -2147483648</internalNodes>
          <leafValues>
            -2.5153490401663703e-16 1.3010426069826053e-17</leafValues></_>
        <_>
          <internalNodes>
            0 -1 2 -1 -1 -1 -1 -1 -1 -129 -8421505</internalNodes>
          <leafValues>
            2.5153490401663703e-16 1.3010426069826053e-17</leafValues></_>
        <_>
          <internalNodes>
            0 -1 2 0 0 0 0 0 0 0 -2147483648</internalNodes>
          <leafValues>
            -2.5153490401663703e-16 1.3010426069826053e-17</leafValues></_>
        <_>
          <internalNodes>
            0 -1 2 -1 -1 -1 -1 -1 -1 -129 -8421505</internalNodes>
          <leafValues>
            2.5153490401663703e-16 1.3010426069826053e-17</leafValues></_>
        <_>
          <internalNodes>
            0 -1 2 0 0 0 0 0 0 0 -2147483648</internalNodes>
          <leafValues>
            -2.5153490401663703e-16 1.3010426069826053e-17</leafValues></_>
        <_>
          <internalNodes>
            0 -1 2 -1 -1 -1 -1 -1 -1 -129 -8421505</internalNodes>
          <leafValues>
            2.5153490401663703e-16 1.3010426069826053e-17</leafValues></_>
        <_>
          <internalNodes>
            0 -1 2 0 0 0 0 0 0 0 -2147483648</internalNodes>
          <leafValues>
            -2.5153490401663703e-16 1.3010426069826053e-17</leafValues></_>
        <_>
          <internalNodes>
            0 -1 2 -1 -1 -1 -1 -1 -1 -129 -8421505</internalNodes>
          <leafValues>
            2.5153490401663703e-16 1.3010426069826053e-17</leafValues></_>
        <_>
          <internalNodes>
            0 -1 2 0 0 0 0 0 0 0 -2147483648</internalNodes>
          <leafValues>
            -2.5153490401663703e-16 1.3010426069826053e-17</leafValues></_>
        <_>
          <internalNodes>
            0 -1 2 -1 -1 -1 -1 -1 -1 -129 -8421505</internalNodes>
          <leafValues>
            2.5153490401663703e-16 1.3010426069826053e-17</leafValues></_>
        <_>
          <internalNodes>
            0 -1 2 0 0 0 0 0 0 0 -2147483648</internalNodes>
          <leafValues>
            -2.5153490401663703e-16 1.3010426069826053e-17</leafValues></_>
        <_>
          <internalNodes>
            0 -1 2 -1 -1 -1 -1 -1 -1 -129 -8421505</internalNodes>
          <leafValues>
            2.5153490401663703e-16 1.3010426069826053e-17</leafValues></_>
        <_>
          <internalNodes>
            0 -1 2 0 0 0 0 0 0 0 -2147483648</internalNodes>
          <leafValues>
            -2.5153490401663703e-16 1.3010426069826053e-17</leafValues></_>
        <_>
          <internalNodes>
            0 -1 2 -1 -1 -1 -1 -1 -1 -129 -8421505</internalNodes>
          <leafValues>
            2.5153490401663703e-16 1.3010426069826053e-17</leafValues></_>
        <_>
          <internalNodes>
            0 -1 2 0 0 0 0 0 0 0 -2147483648</internalNodes>
          <leafValues>
            -2.5153490401663703e-16 1.3010426069826053e-17</leafValues></_>
        <_>
          <internalNodes>
            0 -1 2 -1 -1 -1 -1 -1 -1 -129 -8421505</internalNodes>
          <leafValues>
            2.5153490401663703e-16 1.3010426069826053e-17</leafValues></_>
        <_>
          <internalNodes>
            0 -1 2 0 0 0 0 0 0 0 -2147483648</internalNodes>
          <leafValues>
            -2.5153490401663703e-16 1.3010426069826053e-17</leafValues></_>
        <_>
          <internalNodes>
            0 -1 2 -1 -1 -1 -1 -1 -1 -129 -8421505</internalNodes>
          <leafValues>
            2.5153490401663703e-16 1.3010426069826053e-17</leafValues></_>
        <_>
          <internalNodes>
            0 -1 2 0 0 0 0 0 0 0 -2147483648</internalNodes>
          <leafValues>
            -2.5153490401663703e-16 1.3010426069826053e-17</leafValues></_>
        <_>
          <internalNodes>
            0 -1 2 -1 -1 -1 -1 -1 -1 -129 -8421505</internalNodes>
          <leafValues>
            2.5153490401663703e-16 1.3010426069826053e-17</leafValues></_>
        <_>
          <internalNodes>
            0 -1 2 0 0 0 0 0 0 0 -2147483648</internalNodes>
          <leafValues>
            -2.5153490401663703e-16 1.3010426069826053e-17</leafValues></_>
        <_>
          <internalNodes>
            0 -1 2 -1 -1 -1 -1 -1 -1 -129 -8421505</internalNodes>
          <leafValues>
            2.5153490401663703e-16 1.3010426069826053e-17</leafValues></_>
        <_>
          <internalNodes>
            0 -1 2 0 0 0 0 0 0 0 -2147483648</internalNodes>
          <leafValues>
            -2.5153490401663703e-16 1.3010426069826053e-17</leafValues></_>
        <_>
          <internalNodes>
            0 -1 2 -1 -1 -1 -1 -1 -1 -129 -8421505</internalNodes>
          <leafValues>
            2.5153490401663703e-16 1.3010426069826053e-17</leafValues></_>
        <_>
          <internalNodes>
            0 -1 2 0 0 0 0 0 0 0 -2147483648</internalNodes>
          <leafValues>
            -2.5153490401663703e-16 1.3010426069826053e-17</leafValues></_>
        <_>
          <internalNodes>
            0 -1 2 -1 -1 -1 -1 -1 -1 -129 -8421505</internalNodes>
          <leafValues>
            2.5153490401663703e-16 1.3010426069826053e-17</leafValues></_>
        <_>
          <internalNodes>
            0 -1 2 0 0 0 0 0 0 0 -2147483648</internalNodes>
          <leafValues>
            -2.5153490401663703e-16 1.3010426069826053e-17</leafValues></_>
        <_>
          <internalNodes>
            0 -1 2 -1 -1 -1 -1 -1 -1 -129 -8421505</internalNodes>
          <leafValues>
            2.5153490401663703e-16 1.3010426069826053e-17</leafValues></_>
        <_>
          <internalNodes>
            0 -1 2 0 0 0 0 0 0 0 -2147483648</internalNodes>
          <leafValues>
            -2.5153490401663703e-16 1.3010426069826053e-17</leafValues></_>
        <_>
          <internalNodes>
            0 -1 2 -1 -1 -1 -1 -1 -1 -129 -8421505</internalNodes>
          <leafValues>
            2.5153490401663703e-16 1.3010426069826053e-17</leafValues></_>
        <_>
          <internalNodes>
            0 -1 2 0 0 0 0 0 0 0 -2147483648</internalNodes>
          <leafValues>
            -2.5153490401663703e-16 1.3010426069826053e-17</leafValues></_>
        <_>
          <internalNodes>
            0 -1 2 -1 -1 -1 -1 -1 -1 -129 -8421505</internalNodes>
          <leafValues>
            2.5153490401663703e-16 1.3010426069826053e-17</leafValues></_>
        <_>
          <internalNodes>
            0 -1 2 0 0 0 0 0 0 0 -2147483648</internalNodes>
          <leafValues>
            -2.5153490401663703e-16 1.3010426069826053e-17</leafValues></_>
        <_>
          <internalNodes>
            0 -1 2 -1 -1 -1 -1 -1 -1 -129 -8421505</internalNodes>
          <leafValues>
            2.5153490401663703e-16 1.3010426069826053e-17</leafValues></_>
        <_>
          <internalNodes>
            0 -1 2 0 0 0 0 0 0 0 -2147483648</internalNodes>
          <leafValues>
            -2.5153490401663703e-16 1.3010426069826053e-17</leafValues></_>
        <_>
          <internalNodes>
            0 -1 2 -1 -1 -1 -1 -1 -1 -129 -8421505</internalNodes>
          <leafValues>
            2.5153490401663703e-16 1.3010426069826053e-17</leafValues></_>
        <_>
          <internalNodes>
            0 -1 2 0 0 0 0 0 0 0 -2147483648</internalNodes>
          <leafValues>
            -2.5153490401663703e-16 1.3010426069826053e-17</leafValues></_>
        <_>
          <internalNodes>
            0 -1 2 -1 -1 -1 -1 -1 -1 -129 -8421505</internalNodes>
          <leafValues>
            2.5153490401663703e-16 1.3010426069826053e-17</leafValues></_>
        <_>
          <internalNodes>
            0 -1 2 0 0 0 0 0 0 0 -2147483648</internalNodes>
          <leafValues>
            -2.5153490401663703e-16 1.3010426069826053e-17</leafValues></_>
        <_>
          <internalNodes>
            0 -1 2 -1 -1 -1 -1 -1 -1 -129 -8421505</internalNodes>
          <leafValues>
            2.5153490401663703e-16 1.3010426069826053e-17</leafValues></_>
        <_>
          <internalNodes>
            0 -1 2 0 0 0 0 0 0 0 -2147483648</internalNodes>
          <leafValues>
            -2.5153490401663703e-16 1.3010426069826053e-17</leafValues></_>
        <_>
          <internalNodes>
            0 -1 2 -1 -1 -1 -1 -1 -1 -129 -8421505</internalNodes>
          <leafValues>
            2.5153490401663703e-16 1.3010426069826053e-17</leafValues></_>
        <_>
          <internalNodes>
            0 -1 2 0 0 0 0 0 0 0 -2147483648</internalNodes>
          <leafValues>
            -2.5153490401663703e-16 1.3010426069826053e-17</leafValues></_>
        <_>
          <internalNodes>
            0 -1 2 -1 -1 -1 -1 -1 -1 -129 -8421505</internalNodes>
          <leafValues>
            2.5153490401663703e-16 1.3010426069826053e-17</leafValues></_>
        <_>
          <internalNodes>
            0 -1 2 0 0 0 0 0 0 0 -2147483648</internalNodes>
          <leafValues>
            -2.5153490401663703e-16 1.3010426069826053e-17</leafValues></_>
        <_>
          <internalNodes>
            0 -1 2 -1 -1 -1 -1 -1 -1 -129 -8421505</internalNodes>
          <leafValues>
            2.5153490401663703e-16 1.3010426069826053e-17</leafValues></_>
        <_>
          <internalNodes>
            0 -1 2 0 0 0 0 0 0 0 -2147483648</internalNodes>
          <leafValues>
            -2.5153490401663703e-16 1.3010426069826053e-17</leafValues></_>
        <_>
          <internalNodes>
            0 -1 2 -1 -1 -1 -1 -1 -1 -129 -8421505</internalNodes>
          <leafValues>
            2.5153490401663703e-16 1.3010426069826053e-17</leafValues></_>
        <_>
          <internalNodes>
            0 -1 2 0 0 0 0 0 0 0 -2147483648</internalNodes>
          <leafValues>
            -2.5153490401663703e-16 1.3010426069826053e-17</leafValues></_>
        <_>
          <internalNodes>
            0 -1 2 -1 -1 -1 -1 -1 -1 -129 -8421505</internalNodes>
          <leafValues>
            2.5153490401663703e-16 1.3010426069826053e-17</leafValues></_>
        <_>
          <internalNodes>
            0 -1 2 0 0 0 0 0 0 0 -2147483648</internalNodes>
          <leafValues>
            -2.5153490401663703e-16 1.3010426069826053e-17</leafValues></_>
        <_>
          <internalNodes>
            0 -1 2 -1 -1 -1 -1 -1 -1 -129 -8421505</internalNodes>
          <leafValues>
            2.5153490401663703e-16 1.3010426069826053e-17</leafValues></_>
        <_>
          <internalNodes>
            0 -1 2 0 0 0 0 0 0 0 -2147483648</internalNodes>
          <leafValues>
            -2.5153490401663703e-16 1.3010426069826053e-17</leafValues></_>
        <_>
          <internalNodes>
            0 -1 2 -1 -1 -1 -1 -1 -1 -129 -8421505</internalNodes>
          <leafValues>
            2.5153490401663703e-16 1.3010426069826053e-17</leafValues></_>
        <_>
          <internalNodes>
            0 -1 2 0 0 0 0 0 0 0 -2147483648</internalNodes>
          <leafValues>
            -2.5153490401663703e-16 1.3010426069826053e-17</leafValues></_>
        <_>
          <internalNodes>
            0 -1 2 -1 -1 -1 -1 -1 -1 -129 -8421505</internalNodes>
          <leafValues>
            2.5153490401663703e-16 1.3010426069826053e-17</leafValues></_>
        <_>
          <internalNodes>
            0 -1 2 0 0 0 0 0 0 0 -2147483648</internalNodes>
          <leafValues>
            -2.5153490401663703e-16 1.3010426069826053e-17</leafValues></_>
        <_>
          <internalNodes>
            0 -1 2 -1 -1 -1 -1 -1 -1 -129 -8421505</internalNodes>
          <leafValues>
            2.5153490401663703e-16 1.3010426069826053e-17</leafValues></_>
        <_>
          <internalNodes>
            0 -1 2 0 0 0 0 0 0 0 -2147483648</internalNodes>
          <leafValues>
            -2.5153490401663703e-16 1.3010426069826053e-17</leafValues></_>
        <_>
          <internalNodes>
            0 -1 2 -1 -1 -1 -1 -1 -1 -129 -8421505</internalNodes>
          <leafValues>
            2.5153490401663703e-16 1.3010426069826053e-17</leafValues></_>
        <_>
          <internalNodes>
            0 -1 2 0 0 0 0 0 0 0 -2147483648</internalNodes>
          <leafValues>
            -2.5153490401663703e-16 1.3010426069826053e-17</leafValues></_>
        <_>
          <internalNodes>
            0 -1 2 -1 -1 -1 -1 -1 -1 -129 -8421505</internalNodes>
          <leafValues>
            2.5153490401663703e-16 1.3010426069826053e-17</leafValues></_>
        <_>
          <internalNodes>
            0 -1 2 0 0 0 0 0 0 0 -2147483648</internalNodes>
          <leafValues>
            -2.5153490401663703e-16 1.3010426069826053e-17</leafValues></_>
        <_>
          <internalNodes>
            0 -1 2 -1 -1 -1 -1 -1 -1 -129 -8421505</internalNodes>
          <leafValues>
            2.5153490401663703e-16 1.3010426069826053e-17</leafValues></_>
        <_>
          <internalNodes>
            0 -1 2 0 0 0 0 0 0 0 -2147483648</internalNodes>
          <leafValues>
            -2.5153490401663703e-16 1.3010426069826053e-17</leafValues></_>
        <_>
          <internalNodes>
            0 -1 2 -1 -1 -1 -1 -1 -1 -129 -8421505</internalNodes>
          <leafValues>
            2.5153490401663703e-16 1.3010426069826053e-17</leafValues></_>
        <_>
          <internalNodes>
            0 -1 2 0 0 0 0 0 0 0 -2147483648</internalNodes>
          <leafValues>
            -2.5153490401663703e-16 1.3010426069826053e-17</leafValues></_>
        <_>
          <internalNodes>
            0 -1 2 -1 -1 -1 -1 -1 -1 -129 -8421505</internalNodes>
          <leafValues>
            2.5153490401663703e-16 1.3010426069826053e-17</leafValues></_>
        <_>
          <internalNodes>
            0 -1 2 0 0 0 0 0 0 0 -2147483648</internalNodes>
          <leafValues>
            -2.5153490401663703e-16 1.3010426069826053e-17</leafValues></_>
        <_>
          <internalNodes>
            0 -1 2 -1 -1 -1 -1 -1 -1 -129 -8421505</internalNodes>
          <leafValues>
            2.5153490401663703e-16 1.3010426069826053e-17</leafValues></_>
        <_>
          <internalNodes>
            0 -1 2 0 0 0 0 0 0 0 -2147483648</internalNodes>
          <leafValues>
            -2.5153490401663703e-16 1.3010426069826053e-17</leafValues></_>
        <_>
          <internalNodes>
            0 -1 2 -1 -1 -1 -1 -1 -1 -129 -8421505</internalNodes>
          <leafValues>
            2.5153490401663703e-16 1.3010426069826053e-17</leafValues></_></weakClassifiers></_>
    <!-- stage 4 -->
    <_>
      <maxWeakCount>100</maxWeakCount>
      <stageThreshold>-1.3195286989212036e+00</stageThreshold>
      <weakClassifiers>
        <_>
          <internalNodes>
            0 -1 0 0 0 0 0 0 0 0 -2147483648</internalNodes>
          <leafValues>
            -8.6666667461395264e-01 -8.6666667461395264e-01</leafValues></_>
        <_>
          <internalNodes>
            0 -1 0 0 0 0 0 0 0 33554432 0</internalNodes>
          <leafValues>
            -4.2424872517585754e-01 -4.2424872517585754e-01</leafValues></_>
        <_>
          <internalNodes>
            0 -1 0 0 0 0 0 0 0 0 -2147483648</internalNodes>
          <leafValues>
            -2.8605464845895767e-02 -2.8605464845895767e-02</leafValues></_>
        <_>
          <internalNodes>
            0 -1 0 0 0 0 0 0 0 0 -2147483648</internalNodes>
          <leafValues>
            -7.8061884778435342e-06 -7.8061884778435342e-06</leafValues></_>
        <_>
          <internalNodes>
            0 -1 0 0 0 0 0 0 0 33554432 0</internalNodes>
          <leafValues>
            -4.5970172113385388e-16 5.6595353403743331e-16</leafValues></_>
        <_>
          <internalNodes>
            0 -1 0 0 0 0 0 0 0 0 -2147483648</internalNodes>
          <leafValues>
            -4.9873299934333204e-16 -6.0715321659188248e-17</leafValues></_>
        <_>
          <internalNodes>
            0 -1 3 -1 -1 -1 -1 -1 -1 -9 -129</internalNodes>
          <leafValues>
            6.0715321659188248e-17 2.1033522146218786e-16</leafValues></_>
        <_>
          <internalNodes>
            0 -1 1 0 0 0 0 0 0 0 -2147483648</internalNodes>
          <leafValues>
            -3.7079714299004252e-16 1.1275702593849246e-16</leafValues></_>
        <_>
          <internalNodes>
            0 -1 2 0 0 0 0 0 0 0 -2147483648</internalNodes>
          <leafValues>
            -2.5153490401663703e-16 1.3010426069826053e-17</leafValues></_>
        <_>
          <internalNodes>
            0 -1 2 -1 -1 -1 -1 -1 -1 -129 -8421505</internalNodes>
          <leafValues>
            2.5153490401663703e-16 1.3010426069826053e-17</leafValues></_>
        <_>
          <internalNodes>
            0 -1 2 0 0 0 0 0 0 0 -2147483648</internalNodes>
          <leafValues>
            -2.5153490401663703e-16 1.3010426069826053e-17</leafValues></_>
        <_>
          <internalNodes>
            0 -1 2 -1 -1 -1 -1 -1 -1 -129 -8421505</internalNodes>
          <leafValues>
            2.5153490401663703e-16 1.3010426069826053e-17</leafValues></_>
        <_>
          <internalNodes>
            0 -1 2 0 0 0 0 0 0 0 -2147483648</internalNodes>
          <leafValues>
            -2.5153490401663703e-16 1.3010426069826053e-17</leafValues></_>
        <_>
          <internalNodes>
            0 -1 2 -1 -1 -1 -1 -1 -1 -129 -8421505</internalNodes>
          <leafValues>
            2.5153490401663703e-16 1.3010426069826053e-17</leafValues></_>
        <_>
          <internalNodes>
            0 -1 2 0 0 0 0 0 0 0 -2147483648</internalNodes>
          <leafValues>
            -2.5153490401663703e-16 1.3010426069826053e-17</leafValues></_>
        <_>
          <internalNodes>
            0 -1 2 -1 -1 -1 -1 -1 -1 -129 -8421505</internalNodes>
          <leafValues>
            2.5153490401663703e-16 1.3010426069826053e-17</leafValues></_>
        <_>
          <internalNodes>
            0 -1 2 0 0 0 0 0 0 0 -2147483648</internalNodes>
          <leafValues>
            -2.5153490401663703e-16 1.3010426069826053e-17</leafValues></_>
        <_>
          <internalNodes>
            0 -1 2 -1 -1 -1 -1 -1 -1 -129 -8421505</internalNodes>
          <leafValues>
            2.5153490401663703e-16 1.3010426069826053e-17</leafValues></_>
        <_>
          <internalNodes>
            0 -1 2 0 0 0 0 0 0 0 -2147483648</internalNodes>
          <leafValues>
            -2.5153490401663703e-16 1.3010426069826053e-17</leafValues></_>
        <_>
          <internalNodes>
            0 -1 2 -1 -1 -1 -1 -1 -1 -129 -8421505</internalNodes>
          <leafValues>
            2.5153490401663703e-16 1.3010426069826053e-17</leafValues></_>
        <_>
          <internalNodes>
            0 -1 2 0 0 0 0 0 0 0 -2147483648</internalNodes>
          <leafValues>
            -2.5153490401663703e-16 1.3010426069826053e-17</leafValues></_>
        <_>
          <internalNodes>
            0 -1 2 -1 -1 -1 -1 -1 -1 -129 -8421505</internalNodes>
          <leafValues>
            2.5153490401663703e-16 1.3010426069826053e-17</leafValues></_>
        <_>
          <internalNodes>
            0 -1 2 0 0 0 0 0 0 0 -2147483648</internalNodes>
          <leafValues>
            -2.5153490401663703e-16 1.3010426069826053e-17</leafValues></_>
        <_>
          <internalNodes>
            0 -1 2 -1 -1 -1 -1 -1 -1 -129 -8421505</internalNodes>
          <leafValues>
            2.5153490401663703e-16 1.3010426069826053e-17</leafValues></_>
        <_>
          <internalNodes>
            0 -1 2 0 0 0 0 0 0 0 -2147483648</internalNodes>
          <leafValues>
            -2.5153490401663703e-16 1.3010426069826053e-17</leafValues></_>
        <_>
          <internalNodes>
            0 -1 2 -1 -1 -1 -1 -1 -1 -129 -8421505</internalNodes>
          <leafValues>
            2.5153490401663703e-16 1.3010426069826053e-17</leafValues></_>
        <_>
          <internalNodes>
            0 -1 2 0 0 0 0 0 0 0 -2147483648</internalNodes>
          <leafValues>
            -2.5153490401663703e-16 1.3010426069826053e-17</leafValues></_>
        <_>
          <internalNodes>
            0 -1 2 -1 -1 -1 -1 -1 -1 -129 -8421505</internalNodes>
          <leafValues>
            2.5153490401663703e-16 1.3010426069826053e-17</leafValues></_>
        <_>
          <internalNodes>
            0 -1 2 0 0 0 0 0 0 0 -2147483648</internalNodes>
          <leafValues>
            -2.5153490401663703e-16 1.3010426069826053e-17</leafValues></_>
        <_>
          <internalNodes>
            0 -1 2 -1 -1 -1 -1 -1 -1 -129 -8421505</internalNodes>
          <leafValues>
            2.5153490401663703e-16 1.3010426069826053e-17</leafValues></_>
        <_>
          <internalNodes>
            0 -1 2 0 0 0 0 0 0 0 -2147483648</internalNodes>
          <leafValues>
            -2.5153490401663703e-16 1.3010426069826053e-17</leafValues></_>
        <_>
          <internalNodes>
            0 -1 2 -1 -1 -1 -1 -1 -1 -129 -8421505</internalNodes>
          <leafValues>
            2.5153490401663703e-16 1.3010426069826053e-17</leafValues></_>
        <_>
          <internalNodes>
            0 -1 2 0 0 0 0 0 0 0 -2147483648</internalNodes>
          <leafValues>
            -2.5153490401663703e-16 1.3010426069826053e-17</leafValues></_>
        <_>
          <internalNodes>
            0 -1 2 -1 -1 -1 -1 -1 -1 -129 -8421505</internalNodes>
          <leafValues>
            2.5153490401663703e-16 1.3010426069826053e-17</leafValues></_>
        <_>
          <internalNodes>
            0 -1 2 0 0 0 0 0 0 0 -2147483648</internalNodes>
          <leafValues>
            -2.5153490401663703e-16 1.3010426069826053e-17</leafValues></_>
        <_>
          <internalNodes>
            0 -1 2 -1 -1 -1 -1 -1 -1 -129 -8421505</internalNodes>
          <leafValues>
            2.5153490401663703e-16 1.3010426069826053e-17</leafValues></_>
        <_>
          <internalNodes>
            0 -1 2 0 0 0 0 0 0 0 -2147483648</internalNodes>
          <leafValues>
            -2.5153490401663703e-16 1.3010426069826053e-17</leafValues></_>
        <_>
          <internalNodes>
            0 -1 2 -1 -1 -1 -1 -1 -1 -129 -8421505</internalNodes>
          <leafValues>
            2.5153490401663703e-16 1.3010426069826053e-17</leafValues></_>
        <_>
          <internalNodes>
            0 -1 2 0 0 0 0 0 0 0 -2147483648</internalNodes>
          <leafValues>
            -2.5153490401663703e-16 1.3010426069826053e-17</leafValues></_>
        <_>
          <internalNodes>
            0 -1 2 -1 -1 -1 -1 -1 -1 -129 -8421505</internalNodes>
          <leafValues>
            2.5153490401663703e-16 1.3010426069826053e-17</leafValues></_>
        <_>
          <internalNodes>
            0 -1 2 0 0 0 0 0 0 0 -2147483648</internalNodes>
          <leafValues>
            -2.5153490401663703e-16 1.3010426069826053e-17</leafValues></_>
        <_>
          <internalNodes>
            0 -1 2 -1 -1 -1 -1 -1 -1 -129 -8421505</internalNodes>
          <leafValues>
            2.5153490401663703e-16 1.3010426069826053e-17</leafValues></_>
        <_>
          <internalNodes>
            0 -1 2 0 0 0 0 0 0 0 -2147483648</internalNodes>
          <leafValues>
            -2.5153490401663703e-16 1.3010426069826053e-17</leafValues></_>
        <_>
          <internalNodes>
            0 -1 2 -1 -1 -1 -1 -1 -1 -129 -8421505</internalNodes>
          <leafValues>
            2.5153490401663703e-16 1.3010426069826053e-17</leafValues></_>
        <_>
          <internalNodes>
            0 -1 2 0 0 0 0 0 0 0 -2147483648</internalNodes>
          <leafValues>
            -2.5153490401663703e-16 1.3010426069826053e-17</leafValues></_>
        <_>
          <internalNodes>
            0 -1 2 -1 -1 -1 -1 -1 -1 -129 -8421505</internalNodes>
          <leafValues>
            2.5153490401663703e-16 1.3010426069826053e-17</leafValues></_>
        <_>
          <internalNodes>
            0 -1 2 0 0 0 0 0 0 0 -2147483648</internalNodes>
          <leafValues>
            -2.5153490401663703e-16 1.3010426069826053e-17</leafValues></_>
        <_>
          <internalNodes>
            0 -1 2 -1 -1 -1 -1 -1 -1 -129 -8421505</internalNodes>
          <leafValues>
            2.5153490401663703e-16 1.3010426069826053e-17</leafValues></_>
        <_>
          <internalNodes>
            0 -1 2 0 0 0 0 0 0 0 -2147483648</internalNodes>
          <leafValues>
            -2.5153490401663703e-16 1.3010426069826053e-17</leafValues></_>
        <_>
          <internalNodes>
            0 -1 2 -1 -1 -1 -1 -1 -1 -129 -8421505</internalNodes>
          <leafValues>
            2.5153490401663703e-16 1.3010426069826053e-17</leafValues></_>
        <_>
          <internalNodes>
            0 -1 2 0 0 0 0 0 0 0 -2147483648</internalNodes>
          <leafValues>
            -2.5153490401663703e-16 1.3010426069826053e-17</leafValues></_>
        <_>
          <internalNodes>
            0 -1 2 -1 -1 -1 -1 -1 -1 -129 -8421505</internalNodes>
          <leafValues>
            2.5153490401663703e-16 1.3010426069826053e-17</leafValues></_>
        <_>
          <internalNodes>
            0 -1 2 0 0 0 0 0 0 0 -2147483648</internalNodes>
          <leafValues>
            -2.5153490401663703e-16 1.3010426069826053e-17</leafValues></_>
        <_>
          <internalNodes>
            0 -1 2 -1 -1 -1 -1 -1 -1 -129 -8421505</internalNodes>
          <leafValues>
            2.5153490401663703e-16 1.3010426069826053e-17</leafValues></_>
        <_>
          <internalNodes>
            0 -1 2 0 0 0 0 0 0 0 -2147483648</internalNodes>
          <leafValues>
            -2.5153490401663703e-16 1.3010426069826053e-17</leafValues></_>
        <_>
          <internalNodes>
            0 -1 2 -1 -1 -1 -1 -1 -1 -129 -8421505</internalNodes>
          <leafValues>
            2.5153490401663703e-16 1.3010426069826053e-17</leafValues></_>
        <_>
          <internalNodes>
            0 -1 2 0 0 0 0 0 0 0 -2147483648</internalNodes>
          <leafValues>
            -2.5153490401663703e-16 1.3010426069826053e-17</leafValues></_>
        <_>
          <internalNodes>
            0 -1 2 -1 -1 -1 -1 -1 -1 -129 -8421505</internalNodes>
          <leafValues>
            2.5153490401663703e-16 1.3010426069826053e-17</leafValues></_>
        <_>
          <internalNodes>
            0 -1 2 0 0 0 0 0 0 0 -2147483648</internalNodes>
          <leafValues>
            -2.5153490401663703e-16 1.3010426069826053e-17</leafValues></_>
        <_>
          <internalNodes>
            0 -1 2 -1 -1 -1 -1 -1 -1 -129 -8421505</internalNodes>
          <leafValues>
            2.5153490401663703e-16 1.3010426069826053e-17</leafValues></_>
        <_>
          <internalNodes>
            0 -1 2 0 0 0 0 0 0 0 -2147483648</internalNodes>
          <leafValues>
            -2.5153490401663703e-16 1.3010426069826053e-17</leafValues></_>
        <_>
          <internalNodes>
            0 -1 2 -1 -1 -1 -1 -1 -1 -129 -8421505</internalNodes>
          <leafValues>
            2.5153490401663703e-16 1.3010426069826053e-17</leafValues></_>
        <_>
          <internalNodes>
            0 -1 2 0 0 0 0 0 0 0 -2147483648</internalNodes>
          <leafValues>
            -2.5153490401663703e-16 1.3010426069826053e-17</leafValues></_>
        <_>
          <internalNodes>
            0 -1 2 -1 -1 -1 -1 -1 -1 -129 -8421505</internalNodes>
          <leafValues>
            2.5153490401663703e-16 1.3010426069826053e-17</leafValues></_>
        <_>
          <internalNodes>
            0 -1 2 0 0 0 0 0 0 0 -2147483648</internalNodes>
          <leafValues>
            -2.5153490401663703e-16 1.3010426069826053e-17</leafValues></_>
        <_>
          <internalNodes>
            0 -1 2 -1 -1 -1 -1 -1 -1 -129 -8421505</internalNodes>
          <leafValues>
            2.5153490401663703e-16 1.3010426069826053e-17</leafValues></_>
        <_>
          <internalNodes>
            0 -1 2 0 0 0 0 0 0 0 -2147483648</internalNodes>
          <leafValues>
            -2.5153490401663703e-16 1.3010426069826053e-17</leafValues></_>
        <_>
          <internalNodes>
            0 -1 2 -1 -1 -1 -1 -1 -1 -129 -8421505</internalNodes>
          <leafValues>
            2.5153490401663703e-16 1.3010426069826053e-17</leafValues></_>
        <_>
          <internalNodes>
            0 -1 2 0 0 0 0 0 0 0 -2147483648</internalNodes>
          <leafValues>
            -2.5153490401663703e-16 1.3010426069826053e-17</leafValues></_>
        <_>
          <internalNodes>
            0 -1 2 -1 -1 -1 -1 -1 -1 -129 -8421505</internalNodes>
          <leafValues>
            2.5153490401663703e-16 1.3010426069826053e-17</leafValues></_>
        <_>
          <internalNodes>
            0 -1 2 0 0 0 0 0 0 0 -2147483648</internalNodes>
          <leafValues>
            -2.5153490401663703e-16 1.3010426069826053e-17</leafValues></_>
        <_>
          <internalNodes>
            0 -1 2 -1 -1 -1 -1 -1 -1 -129 -8421505</internalNodes>
          <leafValues>
            2.5153490401663703e-16 1.3010426069826053e-17</leafValues></_>
        <_>
          <internalNodes>
            0 -1 2 0 0 0 0 0 0 0 -2147483648</internalNodes>
          <leafValues>
            -2.5153490401663703e-16 1.3010426069826053e-17</leafValues></_>
        <_>
          <internalNodes>
            0 -1 2 -1 -1 -1 -1 -1 -1 -129 -8421505</internalNodes>
          <leafValues>
            2.5153490401663703e-16 1.3010426069826053e-17</leafValues></_>
        <_>
          <internalNodes>
            0 -1 2 0 0 0 0 0 0 0 -2147483648</internalNodes>
          <leafValues>
            -2.5153490401663703e-16 1.3010426069826053e-17</leafValues></_>
        <_>
          <internalNodes>
            0 -1 2 -1 -1 -1 -1 -1 -1 -129 -8421505</internalNodes>
          <leafValues>
            2.5153490401663703e-16 1.3010426069826053e-17</leafValues></_>
        <_>
          <internalNodes>
            0 -1 2 0 0 0 0 0 0 0 -2147483648</internalNodes>
          <leafValues>
            -2.5153490401663703e-16 1.3010426069826053e-17</leafValues></_>
        <_>
          <internalNodes>
            0 -1 2 -1 -1 -1 -1 -1 -1 -129 -8421505</internalNodes>
          <leafValues>
            2.5153490401663703e-16 1.3010426069826053e-17</leafValues></_>
        <_>
          <internalNodes>
            0 -1 2 0 0 0 0 0 0 0 -2147483648</internalNodes>
          <leafValues>
            -2.5153490401663703e-16 1.3010426069826053e-17</leafValues></_>
        <_>
          <internalNodes>
            0 -1 2 -1 -1 -1 -1 -1 -1 -129 -8421505</internalNodes>
          <leafValues>
            2.5153490401663703e-16 1.3010426069826053e-17</leafValues></_>
        <_>
          <internalNodes>
            0 -1 2 0 0 0 0 0 0 0 -2147483648</internalNodes>
          <leafValues>
            -2.5153490401663703e-16 1.3010426069826053e-17</leafValues></_>
        <_>
          <internalNodes>
            0 -1 2 -1 -1 -1 -1 -1 -1 -129 -8421505</internalNodes>
          <leafValues>
            2.5153490401663703e-16 1.3010426069826053e-17</leafValues></_>
        <_>
          <internalNodes>
            0 -1 2 0 0 0 0 0 0 0 -2147483648</internalNodes>
          <leafValues>
            -2.5153490401663703e-16 1.3010426069826053e-17</leafValues></_>
        <_>
          <internalNodes>
            0 -1 2 -1 -1 -1 -1 -1 -1 -129 -8421505</internalNodes>
          <leafValues>
            2.5153490401663703e-16 1.3010426069826053e-17</leafValues></_>
        <_>
          <internalNodes>
            0 -1 2 0 0 0 0 0 0 0 -2147483648</internalNodes>
          <leafValues>
            -2.5153490401663703e-16 1.3010426069826053e-17</leafValues></_>
        <_>
          <internalNodes>
            0 -1 2 -1 -1 -1 -1 -1 -1 -129 -8421505</internalNodes>
          <leafValues>
            2.5153490401663703e-16 1.3010426069826053e-17</leafValues></_>
        <_>
          <internalNodes>
            0 -1 2 0 0 0 0 0 0 0 -2147483648</internalNodes>
          <leafValues>
            -2.5153490401663703e-16 1.3010426069826053e-17</leafValues></_>
        <_>
          <internalNodes>
            0 -1 2 -1 -1 -1 -1 -1 -1 -129 -8421505</internalNodes>
          <leafValues>
            2.5153490401663703e-16 1.3010426069826053e-17</leafValues></_>
        <_>
          <internalNodes>
            0 -1 2 0 0 0 0 0 0 0 -2147483648</internalNodes>
          <leafValues>
            -2.5153490401663703e-16 1.3010426069826053e-17</leafValues></_>
        <_>
          <internalNodes>
            0 -1 2 -1 -1 -1 -1 -1 -1 -129 -8421505</internalNodes>
          <leafValues>
            2.5153490401663703e-16 1.3010426069826053e-17</leafValues></_>
        <_>
          <internalNodes>
            0 -1 2 0 0 0 0 0 0 0 -2147483648</internalNodes>
          <leafValues>
            -2.5153490401663703e-16 1.3010426069826053e-17</leafValues></_>
        <_>
          <internalNodes>
            0 -1 2 -1 -1 -1 -1 -1 -1 -129 -8421505</internalNodes>
          <leafValues>
            2.5153490401663703e-16 1.3010426069826053e-17</leafValues></_>
        <_>
          <internalNodes>
            0 -1 2 0 0 0 0 0 0 0 -2147483648</internalNodes>
          <leafValues>
            -2.5153490401663703e-16 1.3010426069826053e-17</leafValues></_>
        <_>
          <internalNodes>
            0 -1 2 -1 -1 -1 -1 -1 -1 -129 -8421505</internalNodes>
          <leafValues>
            2.5153490401663703e-16 1.3010426069826053e-17</leafValues></_>
        <_>
          <internalNodes>
            0 -1 2 0 0 0 0 0 0 0 -2147483648</internalNodes>
          <leafValues>
            -2.5153490401663703e-16 1.3010426069826053e-17</leafValues></_>
        <_>
          <internalNodes>
            0 -1 2 -1 -1 -1 -1 -1 -1 -129 -8421505</internalNodes>
          <leafValues>
            2.5153490401663703e-16 1.3010426069826053e-17</leafValues></_>
        <_>
          <internalNodes>
            0 -1 2 0 0 0 0 0 0 0 -2147483648</internalNodes>
          <leafValues>
            -2.5153490401663703e-16 1.3010426069826053e-17</leafValues></_>
        <_>
          <internalNodes>
            0 -1 2 -1 -1 -1 -1 -1 -1 -129 -8421505</internalNodes>
          <leafValues>
            2.5153490401663703e-16 1.3010426069826053e-17</leafValues></_>
        <_>
          <internalNodes>
            0 -1 2 0 0 0 0 0 0 0 -2147483648</internalNodes>
          <leafValues>
            -2.5153490401663703e-16 1.3010426069826053e-17</leafValues></_>
        <_>
          <internalNodes>
            0 -1 2 -1 -1 -1 -1 -1 -1 -129 -8421505</internalNodes>
          <leafValues>
            2.5153490401663703e-16 1.3010426069826053e-17</leafValues></_></weakClassifiers></_></stages>
  <features>
    <_>
      <rect>
        0 0 1 1</rect></_>
    <_>
      <rect>
        0 0 1 6</rect></_>
    <_>
      <rect>
        0 0 3 16</rect></_>
    <_>
      <rect>
        0 0 7 17</rect></_>
    <_>
      <rect>
        0 0 10 4</rect></_>
    <_>
      <rect>
        5 23 3 3</rect></_></features></cascade>
</opencv_storage>
