<?xml version="1.0"?>
<opencv_storage>
<cascade>
  <stageType>BOOST</stageType>
  <featureType>LBP</featureType>
  <height>60</height>
  <width>60</width>
  <stageParams>
    <boostType>GAB</boostType>
    <minHitRate>9.9900001287460327e-01</minHitRate>
    <maxFalseAlarm>2.0000000298023224e-01</maxFalseAlarm>
    <weightTrimRate>9.4999998807907104e-01</weightTrimRate>
    <maxDepth>1</maxDepth>
    <maxWeakCount>100</maxWeakCount></stageParams>
  <featureParams>
    <maxCatCount>256</maxCatCount>
    <featSize>1</featSize></featureParams>
  <stageNum>5</stageNum>
  <stages>
    <!-- stage 0 -->
    <_>
      <maxWeakCount>1</maxWeakCount>
      <stageThreshold>1.</stageThreshold>
      <weakClassifiers>
        <_>
          <internalNodes>
            0 -1 3 16945225 16777216 0 1090584576 8 6 138 -1073643381</internalNodes>
          <leafValues>
            -1. 1.</leafValues></_></weakClassifiers></_>
    <!-- stage 1 -->
    <_>
      <maxWeakCount>1</maxWeakCount>
      <stageThreshold>-1.6666667163372040e-01</stageThreshold>
      <weakClassifiers>
        <_>
          <internalNodes>
            0 -1 2 -792608502 822083584 0 -805306368 0 -2147483648
            33587328 -2130176630</internalNodes>
          <leafValues>
            -1. -1.6666667163372040e-01</leafValues></_></weakClassifiers></_>
    <!-- stage 2 -->
    <_>
      <maxWeakCount>100</maxWeakCount>
      <stageThreshold>-1.3195286989212036e+00</stageThreshold>
      <weakClassifiers>
        <_>
          <internalNodes>
            0 -1 0 0 0 0 0 0 -2147483648 0 -2147483648</internalNodes>
          <leafValues>
            -8.6666667461395264e-01 -8.6666667461395264e-01</leafValues></_>
        <_>
          <internalNodes>
            0 -1 0 1 0 0 0 0 -2147483648 0 0</internalNodes>
          <leafValues>
            -4.2424872517585754e-01 -4.2424872517585754e-01</leafValues></_>
        <_>
          <internalNodes>
            0 -1 0 1 0 0 0 0 0 0 -2147483648</internalNodes>
          <leafValues>
            -2.8605464845895767e-02 -2.8605464845895767e-02</leafValues></_>
        <_>
          <internalNodes>
            0 -1 0 0 0 0 0 0 -2147483648 0 0</internalNodes>
          <leafValues>
            -7.8061884778435342e-06 -7.8061884778435342e-06</leafValues></_>
        <_>
          <internalNodes>
            0 -1 5 0 0 0 0 0 0 0 201326592</internalNodes>
          <leafValues>
            -4.5391929190074479e-16 -4.7488055154865094e-16</leafValues></_>
        <_>
          <internalNodes>
            0 -1 8 0 0 0 0 0 0 0 -2147483648</internalNodes>
          <leafValues>
            -5.3017486234541167e-16 3.9031278209478160e-16</leafValues></_>
        <_>
          <internalNodes>
            0 -1 6 0 0 0 0 0 -2147483648 0 0</internalNodes>
          <leafValues>
            -2.6020852139652106e-17 1.4636729328554310e-16</leafValues></_>
        <_>
          <internalNodes>
            0 -1 7 0 0 0 0 0 0 0 134217728</internalNodes>
          <leafValues>
            -3.5128150388530344e-16 4.7704895589362195e-16</leafValues></_>
        <_>
          <internalNodes>
            0 -1 1 268435456 0 0 0 0 0 0 0</internalNodes>
          <leafValues>
            -1.1275702593849246e-16 -6.2883726004159257e-17</leafValues></_>
        <_>
          <internalNodes>
            0 -1 1 -1 -1 -1 -1 -268435457 -1 -32769 2147483647</internalNodes>
          <leafValues>
            1.3660947373317356e-16 1.1275702593849246e-16</leafValues></_>
        <_>
          <internalNodes>
            0 -1 4 0 0 0 0 0 0 0 134217728</internalNodes>
          <leafValues>
            -9.3241386833753381e-17 -3.1803264829148947e-17</leafValues></_>
        <_>
          <internalNodes>
            0 -1 1 -2 -1 -1 -1 -268435457 -1 -32769 2147483647</internalNodes>
          <leafValues>
            9.5409791178724390e-17 -9.3241386833753381e-17</leafValues></_>
        <_>
          <internalNodes>
            0 -1 1 268435456 0 0 0 0 0 0 0</internalNodes>
          <leafValues>
            -1.1275702593849246e-16 -4.5536491244391186e-17</leafValues></_>
        <_>
          <internalNodes>
            0 -1 1 -2 -1 -1 -1 -268435457 -1 -32769 2147483647</internalNodes>
          <leafValues>
            3.4694469519536142e-17 -4.5536491244391186e-17</leafValues></_>
        <_>
          <internalNodes>
            0 -1 1 -2 -1 -1 -1 -268435457 -1 -32769 2147483647</internalNodes>
          <leafValues>
            3.4694469519536142e-17 -4.5536491244391186e-17</leafValues></_>
        <_>
          <internalNodes>
            0 -1 1 -2 -1 -1 -1 -268435457 -1 -32769 2147483647</internalNodes>
          <leafValues>
            3.4694469519536142e-17 -4.5536491244391186e-17</leafValues></_>
        <_>
          <internalNodes>
            0 -1 1 -2 -1 -1 -1 -268435457 -1 -32769 2147483647</internalNodes>
          <leafValues>
            3.4694469519536142e-17 -4.5536491244391186e-17</leafValues></_>
        <_>
          <internalNodes>
            0 -1 1 -2 -1 -1 -1 -268435457 -1 -32769 2147483647</internalNodes>
          <leafValues>
            3.4694469519536142e-17 -4.5536491244391186e-17</leafValues></_>
        <_>
          <internalNodes>
            0 -1 1 -2 -1 -1 -1 -268435457 -1 -32769 2147483647</internalNodes>
          <leafValues>
            3.4694469519536142e-17 -4.5536491244391186e-17</leafValues></_>
        <_>
          <internalNodes>
            0 -1 1 -2 -1 -1 -1 -268435457 -1 -32769 2147483647</internalNodes>
          <leafValues>
            3.4694469519536142e-17 -4.5536491244391186e-17</leafValues></_>
        <_>
          <internalNodes>
            0 -1 1 -2 -1 -1 -1 -268435457 -1 -32769 2147483647</internalNodes>
          <leafValues>
            3.4694469519536142e-17 -4.5536491244391186e-17</leafValues></_>
        <_>
          <internalNodes>
            0 -1 1 -2 -1 -1 -1 -268435457 -1 -32769 2147483647</internalNodes>
          <leafValues>
            3.4694469519536142e-17 -4.5536491244391186e-17</leafValues></_>
        <_>
          <internalNodes>
            0 -1 1 -2 -1 -1 -1 -268435457 -1 -32769 2147483647</internalNodes>
          <leafValues>
            3.4694469519536142e-17 -4.5536491244391186e-17</leafValues></_>
        <_>
          <internalNodes>
            0 -1 1 -2 -1 -1 -1 -268435457 -1 -32769 2147483647</internalNodes>
          <leafValues>
            3.4694469519536142e-17 -4.5536491244391186e-17</leafValues></_>
        <_>
          <internalNodes>
            0 -1 1 -2 -1 -1 -1 -268435457 -1 -32769 2147483647</internalNodes>
          <leafValues>
            3.4694469519536142e-17 -4.5536491244391186e-17</leafValues></_>
        <_>
          <internalNodes>
            0 -1 1 -2 -1 -1 -1 -268435457 -1 -32769 2147483647</internalNodes>
          <leafValues>
            3.4694469519536142e-17 -4.5536491244391186e-17</leafValues></_>
        <_>
          <internalNodes>
            0 -1 1 -2 -1 -1 -1 -268435457 -1 -32769 2147483647</internalNodes>
          <leafValues>
            3.4694469519536142e-17 -4.5536491244391186e-17</leafValues></_>
        <_>
          <internalNodes>
            0 -1 1 -2 -1 -1 -1 -268435457 -1 -32769 2147483647</internalNodes>
          <leafValues>
            3.4694469519536142e-17 -4.5536491244391186e-17</leafValues></_>
        <_>
          <internalNodes>
            0 -1 1 -2 -1 -1 -1 -268435457 -1 -32769 2147483647</internalNodes>
          <leafValues>
            3.4694469519536142e-17 -4.5536491244391186e-17</leafValues></_>
        <_>
          <internalNodes>
            0 -1 1 -2 -1 -1 -1 -268435457 -1 -32769 2147483647</internalNodes>
          <leafValues>
            3.4694469519536142e-17 -4.5536491244391186e-17</leafValues></_>
        <_>
          <internalNodes>
            0 -1 1 -2 -1 -1 -1 -268435457 -1 -32769 2147483647</internalNodes>
          <leafValues>
            3.4694469519536142e-17 -4.5536491244391186e-17</leafValues></_>
        <_>
          <internalNodes>
            0 -1 1 -2 -1 -1 -1 -268435457 -1 -32769 2147483647</internalNodes>
          <leafValues>
            3.4694469519536142e-17 -4.5536491244391186e-17</leafValues></_>
        <_>
          <internalNodes>
            0 -1 1 -2 -1 -1 -1 -268435457 -1 -32769 2147483647</internalNodes>
          <leafValues>
            3.4694469519536142e-17 -4.5536491244391186e-17</leafValues></_>
        <_>
          <internalNodes>
            0 -1 1 -2 -1 -1 -1 -268435457 -1 -32769 2147483647</internalNodes>
          <leafValues>
            3.4694469519536142e-17 -4.5536491244391186e-17</leafValues></_>
        <_>
          <internalNodes>
            0 -1 1 -2 -1 -1 -1 -268435457 -1 -32769 2147483647</internalNodes>
          <leafValues>
            3.4694469519536142e-17 -4.5536491244391186e-17</leafValues></_>
        <_>
          <internalNodes>
            0 -1 1 -2 -1 -1 -1 -268435457 -1 -32769 2147483647</internalNodes>
          <leafValues>
            3.4694469519536142e-17 -4.5536491244391186e-17</leafValues></_>
        <_>
          <internalNodes>
            0 -1 1 -2 -1 -1 -1 -268435457 -1 -32769 2147483647</internalNodes>
          <leafValues>
            3.4694469519536142e-17 -4.5536491244391186e-17</leafValues></_>
        <_>
          <internalNodes>
            0 -1 1 -2 -1 -1 -1 -268435457 -1 -32769 2147483647</internalNodes>
          <leafValues>
            3.4694469519536142e-17 -4.5536491244391186e-17</leafValues></_>
        <_>
          <internalNodes>
            0 -1 1 -2 -1 -1 -1 -268435457 -1 -32769 2147483647</internalNodes>
          <leafValues>
            3.4694469519536142e-17 -4.5536491244391186e-17</leafValues></_>
        <_>
          <internalNodes>
            0 -1 1 -2 -1 -1 -1 -268435457 -1 -32769 2147483647</internalNodes>
          <leafValues>
            3.4694469519536142e-17 -4.5536491244391186e-17</leafValues></_>
        <_>
          <internalNodes>
            0 -1 1 -2 -1 -1 -1 -268435457 -1 -32769 2147483647</internalNodes>
          <leafValues>
            3.4694469519536142e-17 -4.5536491244391186e-17</leafValues></_>
        <_>
          <internalNodes>
            0 -1 1 -2 -1 -1 -1 -268435457 -1 -32769 2147483647</internalNodes>
          <leafValues>
            3.4694469519536142e-17 -4.5536491244391186e-17</leafValues></_>
        <_>
          <internalNodes>
            0 -1 1 -2 -1 -1 -1 -268435457 -1 -32769 2147483647</internalNodes>
          <leafValues>
            3.4694469519536142e-17 -4.5536491244391186e-17</leafValues></_>
        <_>
          <internalNodes>
            0 -1 1 -2 -1 -1 -1 -268435457 -1 -32769 2147483647</internalNodes>
          <leafValues>
            3.4694469519536142e-17 -4.5536491244391186e-17</leafValues></_>
        <_>
          <internalNodes>
            0 -1 1 -2 -1 -1 -1 -268435457 -1 -32769 2147483647</internalNodes>
          <leafValues>
            3.4694469519536142e-17 -4.5536491244391186e-17</leafValues></_>
        <_>
          <internalNodes>
            0 -1 1 -2 -1 -1 -1 -268435457 -1 -32769 2147483647</internalNodes>
          <leafValues>
            3.4694469519536142e-17 -4.5536491244391186e-17</leafValues></_>
        <_>
          <internalNodes>
            0 -1 1 -2 -1 -1 -1 -268435457 -1 -32769 2147483647</internalNodes>
          <leafValues>
            3.4694469519536142e-17 -4.5536491244391186e-17</leafValues></_>
        <_>
          <internalNodes>
            0 -1 1 -2 -1 -1 -1 -268435457 -1 -32769 2147483647</internalNodes>
          <leafValues>
            3.4694469519536142e-17 -4.5536491244391186e-17</leafValues></_>
        <_>
          <internalNodes>
            0 -1 1 -2 -1 -1 -1 -268435457 -1 -32769 2147483647</internalNodes>
          <leafValues>
            3.4694469519536142e-17 -4.5536491244391186e-17</leafValues></_>
        <_>
          <internalNodes>
            0 -1 1 -2 -1 -1 -1 -268435457 -1 -32769 2147483647</internalNodes>
          <leafValues>
            3.4694469519536142e-17 -4.5536491244391186e-17</leafValues></_>
        <_>
          <internalNodes>
            0 -1 1 -2 -1 -1 -1 -268435457 -1 -32769 2147483647</internalNodes>
          <leafValues>
            3.4694469519536142e-17 -4.5536491244391186e-17</leafValues></_>
        <_>
          <internalNodes>
            0 -1 1 -2 -1 -1 -1 -268435457 -1 -32769 2147483647</internalNodes>
          <leafValues>
            3.4694469519536142e-17 -4.5536491244391186e-17</leafValues></_>
        <_>
          <internalNodes>
            0 -1 1 -2 -1 -1 -1 -268435457 -1 -32769 2147483647</internalNodes>
          <leafValues>
            3.4694469519536142e-17 -4.5536491244391186e-17</leafValues></_>
        <_>
          <internalNodes>
            0 -1 1 -2 -1 -1 -1 -268435457 -1 -32769 2147483647</internalNodes>
          <leafValues>
            3.4694469519536142e-17 -4.5536491244391186e-17</leafValues></_>
        <_>
          <internalNodes>
            0 -1 1 -2 -1 -1 -1 -268435457 -1 -32769 2147483647</internalNodes>
          <leafValues>
            3.4694469519536142e-17 -4.5536491244391186e-17</leafValues></_>
        <_>
          <internalNodes>
            0 -1 1 -2 -1 -1 -1 -268435457 -1 -32769 2147483647</internalNodes>
          <leafValues>
            3.4694469519536142e-17 -4.5536491244391186e-17</leafValues></_>
        <_>
          <internalNodes>
            0 -1 1 -2 -1 -1 -1 -268435457 -1 -32769 2147483647</internalNodes>
          <leafValues>
            3.4694469519536142e-17 -4.5536491244391186e-17</leafValues></_>
        <_>
          <internalNodes>
            0 -1 1 -2 -1 -1 -1 -268435457 -1 -32769 2147483647</internalNodes>
          <leafValues>
            3.4694469519536142e-17 -4.5536491244391186e-17</leafValues></_>
        <_>
          <internalNodes>
            0 -1 1 -2 -1 -1 -1 -268435457 -1 -32769 2147483647</internalNodes>
          <leafValues>
            3.4694469519536142e-17 -4.5536491244391186e-17</leafValues></_>
        <_>
          <internalNodes>
            0 -1 1 -2 -1 -1 -1 -268435457 -1 -32769 2147483647</internalNodes>
          <leafValues>
            3.4694469519536142e-17 -4.5536491244391186e-17</leafValues></_>
        <_>
          <internalNodes>
            0 -1 1 -2 -1 -1 -1 -268435457 -1 -32769 2147483647</internalNodes>
          <leafValues>
            3.4694469519536142e-17 -4.5536491244391186e-17</leafValues></_>
        <_>
          <internalNodes>
            0 -1 1 -2 -1 -1 -1 -268435457 -1 -32769 2147483647</internalNodes>
          <leafValues>
            3.4694469519536142e-17 -4.5536491244391186e-17</leafValues></_>
        <_>
          <internalNodes>
            0 -1 1 -2 -1 -1 -1 -268435457 -1 -32769 2147483647</internalNodes>
          <leafValues>
            3.4694469519536142e-17 -4.5536491244391186e-17</leafValues></_>
        <_>
          <internalNodes>
            0 -1 1 -2 -1 -1 -1 -268435457 -1 -32769 2147483647</internalNodes>
          <leafValues>
            3.4694469519536142e-17 -4.5536491244391186e-17</leafValues></_>
        <_>
          <internalNodes>
            0 -1 1 -2 -1 -1 -1 -268435457 -1 -32769 2147483647</internalNodes>
          <leafValues>
            3.4694469519536142e-17 -4.5536491244391186e-17</leafValues></_>
        <_>
          <internalNodes>
            0 -1 1 -2 -1 -1 -1 -268435457 -1 -32769 2147483647</internalNodes>
          <leafValues>
            3.4694469519536142e-17 -4.5536491244391186e-17</leafValues></_>
        <_>
          <internalNodes>
            0 -1 1 -2 -1 -1 -1 -268435457 -1 -32769 2147483647</internalNodes>
          <leafValues>
            3.4694469519536142e-17 -4.5536491244391186e-17</leafValues></_>
        <_>
          <internalNodes>
            0 -1 1 -2 -1 -1 -1 -268435457 -1 -32769 2147483647</internalNodes>
          <leafValues>
            3.4694469519536142e-17 -4.5536491244391186e-17</leafValues></_>
        <_>
          <internalNodes>
            0 -1 1 -2 -1 -1 -1 -268435457 -1 -32769 2147483647</internalNodes>
          <leafValues>
            3.4694469519536142e-17 -4.5536491244391186e-17</leafValues></_>
        <_>
          <internalNodes>
            0 -1 1 -2 -1 -1 -1 -268435457 -1 -32769 2147483647</internalNodes>
          <leafValues>
            3.4694469519536142e-17 -4.5536491244391186e-17</leafValues></_>
        <_>
          <internalNodes>
            0 -1 1 -2 -1 -1 -1 -268435457 -1 -32769 2147483647</internalNodes>
          <leafValues>
            3.4694469519536142e-17 -4.5536491244391186e-17</leafValues></_>
        <_>
          <internalNodes>
            0 -1 1 -2 -1 -1 -1 -268435457 -1 -32769 2147483647</internalNodes>
          <leafValues>
            3.4694469519536142e-17 -4.5536491244391186e-17</leafValues></_>
        <_>
          <internalNodes>
            0 -1 1 -2 -1 -1 -1 -268435457 -1 -32769 2147483647</internalNodes>
          <leafValues>
            3.4694469519536142e-17 -4.5536491244391186e-17</leafValues></_>
        <_>
          <internalNodes>
            0 -1 1 -2 -1 -1 -1 -268435457 -1 -32769 2147483647</internalNodes>
          <leafValues>
            3.4694469519536142e-17 -4.5536491244391186e-17</leafValues></_>
        <_>
          <internalNodes>
            0 -1 1 -2 -1 -1 -1 -268435457 -1 -32769 2147483647</internalNodes>
          <leafValues>
            3.4694469519536142e-17 -4.5536491244391186e-17</leafValues></_>
        <_>
          <internalNodes>
            0 -1 1 -2 -1 -1 -1 -268435457 -1 -32769 2147483647</internalNodes>
          <leafValues>
            3.4694469519536142e-17 -4.5536491244391186e-17</leafValues></_>
        <_>
          <internalNodes>
            0 -1 1 -2 -1 -1 -1 -268435457 -1 -32769 2147483647</internalNodes>
          <leafValues>
            3.4694469519536142e-17 -4.5536491244391186e-17</leafValues></_>
        <_>
          <internalNodes>
            0 -1 1 -2 -1 -1 -1 -268435457 -1 -32769 2147483647</internalNodes>
          <leafValues>
            3.4694469519536142e-17 -4.5536491244391186e-17</leafValues></_>
        <_>
          <internalNodes>
            0 -1 1 -2 -1 -1 -1 -268435457 -1 -32769 2147483647</internalNodes>
          <leafValues>
            3.4694469519536142e-17 -4.5536491244391186e-17</leafValues></_>
        <_>
          <internalNodes>
            0 -1 1 -2 -1 -1 -1 -268435457 -1 -32769 2147483647</internalNodes>
          <leafValues>
            3.4694469519536142e-17 -4.5536491244391186e-17</leafValues></_>
        <_>
          <internalNodes>
            0 -1 1 -2 -1 -1 -1 -268435457 -1 -32769 2147483647</internalNodes>
          <leafValues>
            3.4694469519536142e-17 -4.5536491244391186e-17</leafValues></_>
        <_>
          <internalNodes>
            0 -1 1 -2 -1 -1 -1 -268435457 -1 -32769 2147483647</internalNodes>
          <leafValues>
            3.4694469519536142e-17 -4.5536491244391186e-17</leafValues></_>
        <_>
          <internalNodes>
            0 -1 1 -2 -1 -1 -1 -268435457 -1 -32769 2147483647</internalNodes>
          <leafValues>
            3.4694469519536142e-17 -4.5536491244391186e-17</leafValues></_>
        <_>
          <internalNodes>
            0 -1 1 -2 -1 -1 -1 -268435457 -1 -32769 2147483647</internalNodes>
          <leafValues>
            3.4694469519536142e-17 -4.5536491244391186e-17</leafValues></_>
        <_>
          <internalNodes>
            0 -1 1 -2 -1 -1 -1 -268435457 -1 -32769 2147483647</internalNodes>
          <leafValues>
            3.4694469519536142e-17 -4.5536491244391186e-17</leafValues></_>
        <_>
          <internalNodes>
            0 -1 1 -2 -1 -1 -1 -268435457 -1 -32769 2147483647</internalNodes>
          <leafValues>
            3.4694469519536142e-17 -4.5536491244391186e-17</leafValues></_>
        <_>
          <internalNodes>
            0 -1 1 -2 -1 -1 -1 -268435457 -1 -32769 2147483647</internalNodes>
          <leafValues>
            3.4694469519536142e-17 -4.5536491244391186e-17</leafValues></_>
        <_>
          <internalNodes>
            0 -1 1 -2 -1 -1 -1 -268435457 -1 -32769 2147483647</internalNodes>
          <leafValues>
            3.4694469519536142e-17 -4.5536491244391186e-17</leafValues></_>
        <_>
          <internalNodes>
            0 -1 1 -2 -1 -1 -1 -268435457 -1 -32769 2147483647</internalNodes>
          <leafValues>
            3.4694469519536142e-17 -4.5536491244391186e-17</leafValues></_>
        <_>
          <internalNodes>
            0 -1 1 -2 -1 -1 -1 -268435457 -1 -32769 2147483647</internalNodes>
          <leafValues>
            3.4694469519536142e-17 -4.5536491244391186e-17</leafValues></_>
        <_>
          <internalNodes>
            0 -1 1 -2 -1 -1 -1 -268435457 -1 -32769 2147483647</internalNodes>
          <leafValues>
            3.4694469519536142e-17 -4.5536491244391186e-17</leafValues></_>
        <_>
          <internalNodes>
            0 -1 1 -2 -1 -1 -1 -268435457 -1 -32769 2147483647</internalNodes>
          <leafValues>
            3.4694469519536142e-17 -4.5536491244391186e-17</leafValues></_>
        <_>
          <internalNodes>
            0 -1 1 -2 -1 -1 -1 -268435457 -1 -32769 2147483647</internalNodes>
          <leafValues>
            3.4694469519536142e-17 -4.5536491244391186e-17</leafValues></_>
        <_>
          <internalNodes>
            0 -1 1 -2 -1 -1 -1 -268435457 -1 -32769 2147483647</internalNodes>
          <leafValues>
            3.4694469519536142e-17 -4.5536491244391186e-17</leafValues></_>
        <_>
          <internalNodes>
            0 -1 1 -2 -1 -1 -1 -268435457 -1 -32769 2147483647</internalNodes>
          <leafValues>
            3.4694469519536142e-17 -4.5536491244391186e-17</leafValues></_>
        <_>
          <internalNodes>
            0 -1 1 -2 -1 -1 -1 -268435457 -1 -32769 2147483647</internalNodes>
          <leafValues>
            3.4694469519536142e-17 -4.5536491244391186e-17</leafValues></_>
        <_>
          <internalNodes>
            0 -1 1 -2 -1 -1 -1 -268435457 -1 -32769 2147483647</internalNodes>
          <leafValues>
            3.4694469519536142e-17 -4.5536491244391186e-17</leafValues></_>
        <_>
          <internalNodes>
            0 -1 1 -2 -1 -1 -1 -268435457 -1 -32769 2147483647</internalNodes>
          <leafValues>
            3.4694469519536142e-17 -4.5536491244391186e-17</leafValues></_>
        <_>
          <internalNodes>
            0 -1 1 -2 -1 -1 -1 -268435457 -1 -32769 2147483647</internalNodes>
          <leafValues>
            3.4694469519536142e-17 -4.5536491244391186e-17</leafValues></_>
        <_>
          <internalNodes>
            0 -1 1 -2 -1 -1 -1 -268435457 -1 -32769 2147483647</internalNodes>
          <leafValues>
            3.4694469519536142e-17 -4.5536491244391186e-17</leafValues></_></weakClassifiers></_>
    <!-- stage 3 -->
    <_>
      <maxWeakCount>100</maxWeakCount>
      <stageThreshold>-1.3195286989212036e+00</stageThreshold>
      <weakClassifiers>
        <_>
          <internalNodes>
            0 -1 0 0 0 0 0 0 -2147483648 0 -2147483648</internalNodes>
          <leafValues>
            -8.6666667461395264e-01 -8.6666667461395264e-01</leafValues></_>
        <_>
          <internalNodes>
            0 -1 0 1 0 0 0 0 -2147483648 0 0</internalNodes>
          <leafValues>
            -4.2424872517585754e-01 -4.2424872517585754e-01</leafValues></_>
        <_>
          <internalNodes>
            0 -1 0 1 0 0 0 0 0 0 -2147483648</internalNodes>
          <leafValues>
            -2.8605464845895767e-02 -2.8605464845895767e-02</leafValues></_>
        <_>
          <internalNodes>
            0 -1 0 0 0 0 0 0 -2147483648 0 0</internalNodes>
          <leafValues>
            -7.8061884778435342e-06 -7.8061884778435342e-06</leafValues></_>
        <_>
          <internalNodes>
            0 -1 5 0 0 0 0 0 0 0 201326592</internalNodes>
          <leafValues>
            -4.5391929190074479e-16 -4.7488055154865094e-16</leafValues></_>
        <_>
          <internalNodes>
            0 -1 8 0 0 0 0 0 0 0 -2147483648</internalNodes>
          <leafValues>
            -5.3017486234541167e-16 3.9031278209478160e-16</leafValues></_>
        <_>
          <internalNodes>
            0 -1 6 0 0 0 0 0 -2147483648 0 0</internalNodes>
          <leafValues>
            -2.6020852139652106e-17 1.4636729328554310e-16</leafValues></_>
        <_>
          <internalNodes>
            0 -1 7 0 0 0 0 0 0 0 134217728</internalNodes>
          <leafValues>
            -3.5128150388530344e-16 4.7704895589362195e-16</leafValues></_>
        <_>
          <internalNodes>
            0 -1 1 268435456 0 0 0 0 0 0 0</internalNodes>
          <leafValues>
            -1.1275702593849246e-16 -6.2883726004159257e-17</leafValues></_>
        <_>
          <internalNodes>
            0 -1 1 -1 -1 -1 -1 -268435457 -1 -32769 2147483647</internalNodes>
          <leafValues>
            1.3660947373317356e-16 1.1275702593849246e-16</leafValues></_>
        <_>
          <internalNodes>
            0 -1 4 0 0 0 0 0 0 0 134217728</internalNodes>
          <leafValues>
            -9.3241386833753381e-17 -3.1803264829148947e-17</leafValues></_>
        <_>
          <internalNodes>
            0 -1 1 -2 -1 -1 -1 -268435457 -1 -32769 2147483647</internalNodes>
          <leafValues>
            9.5409791178724390e-17 -9.3241386833753381e-17</leafValues></_>
        <_>
          <internalNodes>
            0 -1 1 268435456 0 0 0 0 0 0 0</internalNodes>
          <leafValues>
            -1.1275702593849246e-16 -4.5536491244391186e-17</leafValues></_>
        <_>
          <internalNodes>
            0 -1 1 -2 -1 -1 -1 -268435457 -1 -32769 2147483647</internalNodes>
          <leafValues>
            3.4694469519536142e-17 -4.5536491244391186e-17</leafValues></_>
        <_>
          <internalNodes>
            0 -1 1 -2 -1 -1 -1 -268435457 -1 -32769 2147483647</internalNodes>
          <leafValues>
            3.4694469519536142e-17 -4.5536491244391186e-17</leafValues></_>
        <_>
          <internalNodes>
            0 -1 1 -2 -1 -1 -1 -268435457 -1 -32769 2147483647</internalNodes>
          <leafValues>
            3.4694469519536142e-17 -4.5536491244391186e-17</leafValues></_>
        <_>
          <internalNodes>
            0 -1 1 -2 -1 -1 -1 -268435457 -1 -32769 2147483647</internalNodes>
          <leafValues>
            3.4694469519536142e-17 -4.5536491244391186e-17</leafValues></_>
        <_>
          <internalNodes>
            0 -1 1 -2 -1 -1 -1 -268435457 -1 -32769 2147483647</internalNodes>
          <leafValues>
            3.4694469519536142e-17 -4.5536491244391186e-17</leafValues></_>
        <_>
          <internalNodes>
            0 -1 1 -2 -1 -1 -1 -268435457 -1 -32769 2147483647</internalNodes>
          <leafValues>
            3.4694469519536142e-17 -4.5536491244391186e-17</leafValues></_>
        <_>
          <internalNodes>
            0 -1 1 -2 -1 -1 -1 -268435457 -1 -32769 2147483647</internalNodes>
          <leafValues>
            3.4694469519536142e-17 -4.5536491244391186e-17</leafValues></_>
        <_>
          <internalNodes>
            0 -1 1 -2 -1 -1 -1 -268435457 -1 -32769 2147483647</internalNodes>
          <leafValues>
            3.4694469519536142e-17 -4.5536491244391186e-17</leafValues></_>
        <_>
          <internalNodes>
            0 -1 1 -2 -1 -1 -1 -268435457 -1 -32769 2147483647</internalNodes>
          <leafValues>
            3.4694469519536142e-17 -4.5536491244391186e-17</leafValues></_>
        <_>
          <internalNodes>
            0 -1 1 -2 -1 -1 -1 -268435457 -1 -32769 2147483647</internalNodes>
          <leafValues>
            3.4694469519536142e-17 -4.5536491244391186e-17</leafValues></_>
        <_>
          <internalNodes>
            0 -1 1 -2 -1 -1 -1 -268435457 -1 -32769 2147483647</internalNodes>
          <leafValues>
            3.4694469519536142e-17 -4.5536491244391186e-17</leafValues></_>
        <_>
          <internalNodes>
            0 -1 1 -2 -1 -1 -1 -268435457 -1 -32769 2147483647</internalNodes>
          <leafValues>
            3.4694469519536142e-17 -4.5536491244391186e-17</leafValues></_>
        <_>
          <internalNodes>
            0 -1 1 -2 -1 -1 -1 -268435457 -1 -32769 2147483647</internalNodes>
          <leafValues>
            3.4694469519536142e-17 -4.5536491244391186e-17</leafValues></_>
        <_>
          <internalNodes>
            0 -1 1 -2 -1 -1 -1 -268435457 -1 -32769 2147483647</internalNodes>
          <leafValues>
            3.4694469519536142e-17 -4.5536491244391186e-17</leafValues></_>
        <_>
          <internalNodes>
            0 -1 1 -2 -1 -1 -1 -268435457 -1 -32769 2147483647</internalNodes>
          <leafValues>
            3.4694469519536142e-17 -4.5536491244391186e-17</leafValues></_>
        <_>
          <internalNodes>
            0 -1 1 -2 -1 -1 -1 -268435457 -1 -32769 2147483647</internalNodes>
          <leafValues>
            3.4694469519536142e-17 -4.5536491244391186e-17</leafValues></_>
        <_>
          <internalNodes>
            0 -1 1 -2 -1 -1 -1 -268435457 -1 -32769 2147483647</internalNodes>
          <leafValues>
            3.4694469519536142e-17 -4.5536491244391186e-17</leafValues></_>
        <_>
          <internalNodes>
            0 -1 1 -2 -1 -1 -1 -268435457 -1 -32769 2147483647</internalNodes>
          <leafValues>
            3.4694469519536142e-17 -4.5536491244391186e-17</leafValues></_>
        <_>
          <internalNodes>
            0 -1 1 -2 -1 -1 -1 -268435457 -1 -32769 2147483647</internalNodes>
          <leafValues>
            3.4694469519536142e-17 -4.5536491244391186e-17</leafValues></_>
        <_>
          <internalNodes>
            0 -1 1 -2 -1 -1 -1 -268435457 -1 -32769 2147483647</internalNodes>
          <leafValues>
            3.4694469519536142e-17 -4.5536491244391186e-17</leafValues></_>
        <_>
          <internalNodes>
            0 -1 1 -2 -1 -1 -1 -268435457 -1 -32769 2147483647</internalNodes>
          <leafValues>
            3.4694469519536142e-17 -4.5536491244391186e-17</leafValues></_>
        <_>
          <internalNodes>
            0 -1 1 -2 -1 -1 -1 -268435457 -1 -32769 2147483647</internalNodes>
          <leafValues>
            3.4694469519536142e-17 -4.5536491244391186e-17</leafValues></_>
        <_>
          <internalNodes>
            0 -1 1 -2 -1 -1 -1 -268435457 -1 -32769 2147483647</internalNodes>
          <leafValues>
            3.4694469519536142e-17 -4.5536491244391186e-17</leafValues></_>
        <_>
          <internalNodes>
            0 -1 1 -2 -1 -1 -1 -268435457 -1 -32769 2147483647</internalNodes>
          <leafValues>
            3.4694469519536142e-17 -4.5536491244391186e-17</leafValues></_>
        <_>
          <internalNodes>
            0 -1 1 -2 -1 -1 -1 -268435457 -1 -32769 2147483647</internalNodes>
          <leafValues>
            3.4694469519536142e-17 -4.5536491244391186e-17</leafValues></_>
        <_>
          <internalNodes>
            0 -1 1 -2 -1 -1 -1 -268435457 -1 -32769 2147483647</internalNodes>
          <leafValues>
            3.4694469519536142e-17 -4.5536491244391186e-17</leafValues></_>
        <_>
          <internalNodes>
            0 -1 1 -2 -1 -1 -1 -268435457 -1 -32769 2147483647</internalNodes>
          <leafValues>
            3.4694469519536142e-17 -4.5536491244391186e-17</leafValues></_>
        <_>
          <internalNodes>
            0 -1 1 -2 -1 -1 -1 -268435457 -1 -32769 2147483647</internalNodes>
          <leafValues>
            3.4694469519536142e-17 -4.5536491244391186e-17</leafValues></_>
        <_>
          <internalNodes>
            0 -1 1 -2 -1 -1 -1 -268435457 -1 -32769 2147483647</internalNodes>
          <leafValues>
            3.4694469519536142e-17 -4.5536491244391186e-17</leafValues></_>
        <_>
          <internalNodes>
            0 -1 1 -2 -1 -1 -1 -268435457 -1 -32769 2147483647</internalNodes>
          <leafValues>
            3.4694469519536142e-17 -4.5536491244391186e-17</leafValues></_>
        <_>
          <internalNodes>
            0 -1 1 -2 -1 -1 -1 -268435457 -1 -32769 2147483647</internalNodes>
          <leafValues>
            3.4694469519536142e-17 -4.5536491244391186e-17</leafValues></_>
        <_>
          <internalNodes>
            0 -1 1 -2 -1 -1 -1 -268435457 -1 -32769 2147483647</internalNodes>
          <leafValues>
            3.4694469519536142e-17 -4.5536491244391186e-17</leafValues></_>
        <_>
          <internalNodes>
            0 -1 1 -2 -1 -1 -1 -268435457 -1 -32769 2147483647</internalNodes>
          <leafValues>
            3.4694469519536142e-17 -4.5536491244391186e-17</leafValues></_>
        <_>
          <internalNodes>
            0 -1 1 -2 -1 -1 -1 -268435457 -1 -32769 2147483647</internalNodes>
          <leafValues>
            3.4694469519536142e-17 -4.5536491244391186e-17</leafValues></_>
        <_>
          <internalNodes>
            0 -1 1 -2 -1 -1 -1 -268435457 -1 -32769 2147483647</internalNodes>
          <leafValues>
            3.4694469519536142e-17 -4.5536491244391186e-17</leafValues></_>
        <_>
          <internalNodes>
            0 -1 1 -2 -1 -1 -1 -268435457 -1 -32769 2147483647</internalNodes>
          <leafValues>
            3.4694469519536142e-17 -4.5536491244391186e-17</leafValues></_>
        <_>
          <internalNodes>
            0 -1 1 -2 -1 -1 -1 -268435457 -1 -32769 2147483647</internalNodes>
          <leafValues>
            3.4694469519536142e-17 -4.5536491244391186e-17</leafValues></_>
        <_>
          <internalNodes>
            0 -1 1 -2 -1 -1 -1 -268435457 -1 -32769 2147483647</internalNodes>
          <leafValues>
            3.4694469519536142e-17 -4.5536491244391186e-17</leafValues></_>
        <_>
          <internalNodes>
            0 -1 1 -2 -1 -1 -1 -268435457 -1 -32769 2147483647</internalNodes>
          <leafValues>
            3.4694469519536142e-17 -4.5536491244391186e-17</leafValues></_>
        <_>
          <internalNodes>
            0 -1 1 -2 -1 -1 -1 -268435457 -1 -32769 2147483647</internalNodes>
          <leafValues>
            3.4694469519536142e-17 -4.5536491244391186e-17</leafValues></_>
        <_>
          <internalNodes>
            0 -1 1 -2 -1 -1 -1 -268435457 -1 -32769 2147483647</internalNodes>
          <leafValues>
            3.4694469519536142e-17 -4.5536491244391186e-17</leafValues></_>
        <_>
          <internalNodes>
            0 -1 1 -2 -1 -1 -1 -268435457 -1 -32769 2147483647</internalNodes>
          <leafValues>
            3.4694469519536142e-17 -4.5536491244391186e-17</leafValues></_>
        <_>
          <internalNodes>
            0 -1 1 -2 -1 -1 -1 -268435457 -1 -32769 2147483647</internalNodes>
          <leafValues>
            3.4694469519536142e-17 -4.5536491244391186e-17</leafValues></_>
        <_>
          <internalNodes>
            0 -1 1 -2 -1 -1 -1 -268435457 -1 -32769 2147483647</internalNodes>
          <leafValues>
            3.4694469519536142e-17 -4.5536491244391186e-17</leafValues></_>
        <_>
          <internalNodes>
            0 -1 1 -2 -1 -1 -1 -268435457 -1 -32769 2147483647</internalNodes>
          <leafValues>
            3.4694469519536142e-17 -4.5536491244391186e-17</leafValues></_>
        <_>
          <internalNodes>
            0 -1 1 -2 -1 -1 -1 -268435457 -1 -32769 2147483647</internalNodes>
          <leafValues>
            3.4694469519536142e-17 -4.5536491244391186e-17</leafValues></_>
        <_>
          <internalNodes>
            0 -1 1 -2 -1 -1 -1 -268435457 -1 -32769 2147483647</internalNodes>
          <leafValues>
            3.4694469519536142e-17 -4.5536491244391186e-17</leafValues></_>
        <_>
          <internalNodes>
            0 -1 1 -2 -1 -1 -1 -268435457 -1 -32769 2147483647</internalNodes>
          <leafValues>
            3.4694469519536142e-17 -4.5536491244391186e-17</leafValues></_>
        <_>
          <internalNodes>
            0 -1 1 -2 -1 -1 -1 -268435457 -1 -32769 2147483647</internalNodes>
          <leafValues>
            3.4694469519536142e-17 -4.5536491244391186e-17</leafValues></_>
        <_>
          <internalNodes>
            0 -1 1 -2 -1 -1 -1 -268435457 -1 -32769 2147483647</internalNodes>
          <leafValues>
            3.4694469519536142e-17 -4.5536491244391186e-17</leafValues></_>
        <_>
          <internalNodes>
            0 -1 1 -2 -1 -1 -1 -268435457 -1 -32769 2147483647</internalNodes>
          <leafValues>
            3.4694469519536142e-17 -4.5536491244391186e-17</leafValues></_>
        <_>
          <internalNodes>
            0 -1 1 -2 -1 -1 -1 -268435457 -1 -32769 2147483647</internalNodes>
          <leafValues>
            3.4694469519536142e-17 -4.5536491244391186e-17</leafValues></_>
        <_>
          <internalNodes>
            0 -1 1 -2 -1 -1 -1 -268435457 -1 -32769 2147483647</internalNodes>
          <leafValues>
            3.4694469519536142e-17 -4.5536491244391186e-17</leafValues></_>
        <_>
          <internalNodes>
            0 -1 1 -2 -1 -1 -1 -268435457 -1 -32769 2147483647</internalNodes>
          <leafValues>
            3.4694469519536142e-17 -4.5536491244391186e-17</leafValues></_>
        <_>
          <internalNodes>
            0 -1 1 -2 -1 -1 -1 -268435457 -1 -32769 2147483647</internalNodes>
          <leafValues>
            3.4694469519536142e-17 -4.5536491244391186e-17</leafValues></_>
        <_>
          <internalNodes>
            0 -1 1 -2 -1 -1 -1 -268435457 -1 -32769 2147483647</internalNodes>
          <leafValues>
            3.4694469519536142e-17 -4.5536491244391186e-17</leafValues></_>
        <_>
          <internalNodes>
            0 -1 1 -2 -1 -1 -1 -268435457 -1 -32769 2147483647</internalNodes>
          <leafValues>
            3.4694469519536142e-17 -4.5536491244391186e-17</leafValues></_>
        <_>
          <internalNodes>
            0 -1 1 -2 -1 -1 -1 -268435457 -1 -32769 2147483647</internalNodes>
          <leafValues>
            3.4694469519536142e-17 -4.5536491244391186e-17</leafValues></_>
        <_>
          <internalNodes>
            0 -1 1 -2 -1 -1 -1 -268435457 -1 -32769 2147483647</internalNodes>
          <leafValues>
            3.4694469519536142e-17 -4.5536491244391186e-17</leafValues></_>
        <_>
          <internalNodes>
            0 -1 1 -2 -1 -1 -1 -268435457 -1 -32769 2147483647</internalNodes>
          <leafValues>
            3.4694469519536142e-17 -4.5536491244391186e-17</leafValues></_>
        <_>
          <internalNodes>
            0 -1 1 -2 -1 -1 -1 -268435457 -1 -32769 2147483647</internalNodes>
          <leafValues>
            3.4694469519536142e-17 -4.5536491244391186e-17</leafValues></_>
        <_>
          <internalNodes>
            0 -1 1 -2 -1 -1 -1 -268435457 -1 -32769 2147483647</internalNodes>
          <leafValues>
            3.4694469519536142e-17 -4.5536491244391186e-17</leafValues></_>
        <_>
          <internalNodes>
            0 -1 1 -2 -1 -1 -1 -268435457 -1 -32769 2147483647</internalNodes>
          <leafValues>
            3.4694469519536142e-17 -4.5536491244391186e-17</leafValues></_>
        <_>
          <internalNodes>
            0 -1 1 -2 -1 -1 -1 -268435457 -1 -32769 2147483647</internalNodes>
          <leafValues>
            3.4694469519536142e-17 -4.5536491244391186e-17</leafValues></_>
        <_>
          <internalNodes>
            0 -1 1 -2 -1 -1 -1 -268435457 -1 -32769 2147483647</internalNodes>
          <leafValues>
            3.4694469519536142e-17 -4.5536491244391186e-17</leafValues></_>
        <_>
          <internalNodes>
            0 -1 1 -2 -1 -1 -1 -268435457 -1 -32769 2147483647</internalNodes>
          <leafValues>
            3.4694469519536142e-17 -4.5536491244391186e-17</leafValues></_>
        <_>
          <internalNodes>
            0 -1 1 -2 -1 -1 -1 -268435457 -1 -32769 2147483647</internalNodes>
          <leafValues>
            3.4694469519536142e-17 -4.5536491244391186e-17</leafValues></_>
        <_>
          <internalNodes>
            0 -1 1 -2 -1 -1 -1 -268435457 -1 -32769 2147483647</internalNodes>
          <leafValues>
            3.4694469519536142e-17 -4.5536491244391186e-17</leafValues></_>
        <_>
          <internalNodes>
            0 -1 1 -2 -1 -1 -1 -268435457 -1 -32769 2147483647</internalNodes>
          <leafValues>
            3.4694469519536142e-17 -4.5536491244391186e-17</leafValues></_>
        <_>
          <internalNodes>
            0 -1 1 -2 -1 -1 -1 -268435457 -1 -32769 2147483647</internalNodes>
          <leafValues>
            3.4694469519536142e-17 -4.5536491244391186e-17</leafValues></_>
        <_>
          <internalNodes>
            0 -1 1 -2 -1 -1 -1 -268435457 -1 -32769 2147483647</internalNodes>
          <leafValues>
            3.4694469519536142e-17 -4.5536491244391186e-17</leafValues></_>
        <_>
          <internalNodes>
            0 -1 1 -2 -1 -1 -1 -268435457 -1 -32769 2147483647</internalNodes>
          <leafValues>
            3.4694469519536142e-17 -4.5536491244391186e-17</leafValues></_>
        <_>
          <internalNodes>
            0 -1 1 -2 -1 -1 -1 -268435457 -1 -32769 2147483647</internalNodes>
          <leafValues>
            3.4694469519536142e-17 -4.5536491244391186e-17</leafValues></_>
        <_>
          <internalNodes>
            0 -1 1 -2 -1 -1 -1 -268435457 -1 -32769 2147483647</internalNodes>
          <leafValues>
            3.4694469519536142e-17 -4.5536491244391186e-17</leafValues></_>
        <_>
          <internalNodes>
            0 -1 1 -2 -1 -1 -1 -268435457 -1 -32769 2147483647</internalNodes>
          <leafValues>
            3.4694469519536142e-17 -4.5536491244391186e-17</leafValues></_>
        <_>
          <internalNodes>
            0 -1 1 -2 -1 -1 -1 -268435457 -1 -32769 2147483647</internalNodes>
          <leafValues>
            3.4694469519536142e-17 -4.5536491244391186e-17</leafValues></_>
        <_>
          <internalNodes>
            0 -1 1 -2 -1 -1 -1 -268435457 -1 -32769 2147483647</internalNodes>
          <leafValues>
            3.4694469519536142e-17 -4.5536491244391186e-17</leafValues></_>
        <_>
          <internalNodes>
            0 -1 1 -2 -1 -1 -1 -268435457 -1 -32769 2147483647</internalNodes>
          <leafValues>
            3.4694469519536142e-17 -4.5536491244391186e-17</leafValues></_>
        <_>
          <internalNodes>
            0 -1 1 -2 -1 -1 -1 -268435457 -1 -32769 2147483647</internalNodes>
          <leafValues>
            3.4694469519536142e-17 -4.5536491244391186e-17</leafValues></_>
        <_>
          <internalNodes>
            0 -1 1 -2 -1 -1 -1 -268435457 -1 -32769 2147483647</internalNodes>
          <leafValues>
            3.4694469519536142e-17 -4.5536491244391186e-17</leafValues></_>
        <_>
          <internalNodes>
            0 -1 1 -2 -1 -1 -1 -268435457 -1 -32769 2147483647</internalNodes>
          <leafValues>
            3.4694469519536142e-17 -4.5536491244391186e-17</leafValues></_>
        <_>
          <internalNodes>
            0 -1 1 -2 -1 -1 -1 -268435457 -1 -32769 2147483647</internalNodes>
          <leafValues>
            3.4694469519536142e-17 -4.5536491244391186e-17</leafValues></_>
        <_>
          <internalNodes>
            0 -1 1 -2 -1 -1 -1 -268435457 -1 -32769 2147483647</internalNodes>
          <leafValues>
            3.4694469519536142e-17 -4.5536491244391186e-17</leafValues></_>
        <_>
          <internalNodes>
            0 -1 1 -2 -1 -1 -1 -268435457 -1 -32769 2147483647</internalNodes>
          <leafValues>
            3.4694469519536142e-17 -4.5536491244391186e-17</leafValues></_>
        <_>
          <internalNodes>
            0 -1 1 -2 -1 -1 -1 -268435457 -1 -32769 2147483647</internalNodes>
          <leafValues>
            3.4694469519536142e-17 -4.5536491244391186e-17</leafValues></_>
        <_>
          <internalNodes>
            0 -1 1 -2 -1 -1 -1 -268435457 -1 -32769 2147483647</internalNodes>
          <leafValues>
            3.4694469519536142e-17 -4.5536491244391186e-17</leafValues></_>
        <_>
          <internalNodes>
            0 -1 1 -2 -1 -1 -1 -268435457 -1 -32769 2147483647</internalNodes>
          <leafValues>
            3.4694469519536142e-17 -4.5536491244391186e-17</leafValues></_></weakClassifiers></_>
    <!-- stage 4 -->
    <_>
      <maxWeakCount>100</maxWeakCount>
      <stageThreshold>-1.3195286989212036e+00</stageThreshold>
      <weakClassifiers>
        <_>
          <internalNodes>
            0 -1 0 0 0 0 0 0 -2147483648 0 -2147483648</internalNodes>
          <leafValues>
            -8.6666667461395264e-01 -8.6666667461395264e-01</leafValues></_>
        <_>
          <internalNodes>
            0 -1 0 1 0 0 0 0 -2147483648 0 0</internalNodes>
          <leafValues>
            -4.2424872517585754e-01 -4.2424872517585754e-01</leafValues></_>
        <_>
          <internalNodes>
            0 -1 0 1 0 0 0 0 0 0 -2147483648</internalNodes>
          <leafValues>
            -2.8605464845895767e-02 -2.8605464845895767e-02</leafValues></_>
        <_>
          <internalNodes>
            0 -1 0 0 0 0 0 0 -2147483648 0 0</internalNodes>
          <leafValues>
            -7.8061884778435342e-06 -7.8061884778435342e-06</leafValues></_>
        <_>
          <internalNodes>
            0 -1 5 0 0 0 0 0 0 0 201326592</internalNodes>
          <leafValues>
            -4.5391929190074479e-16 -4.7488055154865094e-16</leafValues></_>
        <_>
          <internalNodes>
            0 -1 8 0 0 0 0 0 0 0 -2147483648</internalNodes>
          <leafValues>
            -5.3017486234541167e-16 3.9031278209478160e-16</leafValues></_>
        <_>
          <internalNodes>
            0 -1 6 0 0 0 0 0 -2147483648 0 0</internalNodes>
          <leafValues>
            -2.6020852139652106e-17 1.4636729328554310e-16</leafValues></_>
        <_>
          <internalNodes>
            0 -1 7 0 0 0 0 0 0 0 134217728</internalNodes>
          <leafValues>
            -3.5128150388530344e-16 4.7704895589362195e-16</leafValues></_>
        <_>
          <internalNodes>
            0 -1 1 268435456 0 0 0 0 0 0 0</internalNodes>
          <leafValues>
            -1.1275702593849246e-16 -6.2883726004159257e-17</leafValues></_>
        <_>
          <internalNodes>
            0 -1 1 -1 -1 -1 -1 -268435457 -1 -32769 2147483647</internalNodes>
          <leafValues>
            1.3660947373317356e-16 1.1275702593849246e-16</leafValues></_>
        <_>
          <internalNodes>
            0 -1 4 0 0 0 0 0 0 0 134217728</internalNodes>
          <leafValues>
            -9.3241386833753381e-17 -3.1803264829148947e-17</leafValues></_>
        <_>
          <internalNodes>
            0 -1 1 -2 -1 -1 -1 -268435457 -1 -32769 2147483647</internalNodes>
          <leafValues>
            9.5409791178724390e-17 -9.3241386833753381e-17</leafValues></_>
        <_>
          <internalNodes>
            0 -1 1 268435456 0 0 0 0 0 0 0</internalNodes>
          <leafValues>
            -1.1275702593849246e-16 -4.5536491244391186e-17</leafValues></_>
        <_>
          <internalNodes>
            0 -1 1 -2 -1 -1 -1 -268435457 -1 -32769 2147483647</internalNodes>
          <leafValues>
            3.4694469519536142e-17 -4.5536491244391186e-17</leafValues></_>
        <_>
          <internalNodes>
            0 -1 1 -2 -1 -1 -1 -268435457 -1 -32769 2147483647</internalNodes>
          <leafValues>
            3.4694469519536142e-17 -4.5536491244391186e-17</leafValues></_>
        <_>
          <internalNodes>
            0 -1 1 -2 -1 -1 -1 -268435457 -1 -32769 2147483647</internalNodes>
          <leafValues>
            3.4694469519536142e-17 -4.5536491244391186e-17</leafValues></_>
        <_>
          <internalNodes>
            0 -1 1 -2 -1 -1 -1 -268435457 -1 -32769 2147483647</internalNodes>
          <leafValues>
            3.4694469519536142e-17 -4.5536491244391186e-17</leafValues></_>
        <_>
          <internalNodes>
            0 -1 1 -2 -1 -1 -1 -268435457 -1 -32769 2147483647</internalNodes>
          <leafValues>
            3.4694469519536142e-17 -4.5536491244391186e-17</leafValues></_>
        <_>
          <internalNodes>
            0 -1 1 -2 -1 -1 -1 -268435457 -1 -32769 2147483647</internalNodes>
          <leafValues>
            3.4694469519536142e-17 -4.5536491244391186e-17</leafValues></_>
        <_>
          <internalNodes>
            0 -1 1 -2 -1 -1 -1 -268435457 -1 -32769 2147483647</internalNodes>
          <leafValues>
            3.4694469519536142e-17 -4.5536491244391186e-17</leafValues></_>
        <_>
          <internalNodes>
            0 -1 1 -2 -1 -1 -1 -268435457 -1 -32769 2147483647</internalNodes>
          <leafValues>
            3.4694469519536142e-17 -4.5536491244391186e-17</leafValues></_>
        <_>
          <internalNodes>
            0 -1 1 -2 -1 -1 -1 -268435457 -1 -32769 2147483647</internalNodes>
          <leafValues>
            3.4694469519536142e-17 -4.5536491244391186e-17</leafValues></_>
        <_>
          <internalNodes>
            0 -1 1 -2 -1 -1 -1 -268435457 -1 -32769 2147483647</internalNodes>
          <leafValues>
            3.4694469519536142e-17 -4.5536491244391186e-17</leafValues></_>
        <_>
          <internalNodes>
            0 -1 1 -2 -1 -1 -1 -268435457 -1 -32769 2147483647</internalNodes>
          <leafValues>
            3.4694469519536142e-17 -4.5536491244391186e-17</leafValues></_>
        <_>
          <internalNodes>
            0 -1 1 -2 -1 -1 -1 -268435457 -1 -32769 2147483647</internalNodes>
          <leafValues>
            3.4694469519536142e-17 -4.5536491244391186e-17</leafValues></_>
        <_>
          <internalNodes>
            0 -1 1 -2 -1 -1 -1 -268435457 -1 -32769 2147483647</internalNodes>
          <leafValues>
            3.4694469519536142e-17 -4.5536491244391186e-17</leafValues></_>
        <_>
          <internalNodes>
            0 -1 1 -2 -1 -1 -1 -268435457 -1 -32769 2147483647</internalNodes>
          <leafValues>
            3.4694469519536142e-17 -4.5536491244391186e-17</leafValues></_>
        <_>
          <internalNodes>
            0 -1 1 -2 -1 -1 -1 -268435457 -1 -32769 2147483647</internalNodes>
          <leafValues>
            3.4694469519536142e-17 -4.5536491244391186e-17</leafValues></_>
        <_>
          <internalNodes>
            0 -1 1 -2 -1 -1 -1 -268435457 -1 -32769 2147483647</internalNodes>
          <leafValues>
            3.4694469519536142e-17 -4.5536491244391186e-17</leafValues></_>
        <_>
          <internalNodes>
            0 -1 1 -2 -1 -1 -1 -268435457 -1 -32769 2147483647</internalNodes>
          <leafValues>
            3.4694469519536142e-17 -4.5536491244391186e-17</leafValues></_>
        <_>
          <internalNodes>
            0 -1 1 -2 -1 -1 -1 -268435457 -1 -32769 2147483647</internalNodes>
          <leafValues>
            3.4694469519536142e-17 -4.5536491244391186e-17</leafValues></_>
        <_>
          <internalNodes>
            0 -1 1 -2 -1 -1 -1 -268435457 -1 -32769 2147483647</internalNodes>
          <leafValues>
            3.4694469519536142e-17 -4.5536491244391186e-17</leafValues></_>
        <_>
          <internalNodes>
            0 -1 1 -2 -1 -1 -1 -268435457 -1 -32769 2147483647</internalNodes>
          <leafValues>
            3.4694469519536142e-17 -4.5536491244391186e-17</leafValues></_>
        <_>
          <internalNodes>
            0 -1 1 -2 -1 -1 -1 -268435457 -1 -32769 2147483647</internalNodes>
          <leafValues>
            3.4694469519536142e-17 -4.5536491244391186e-17</leafValues></_>
        <_>
          <internalNodes>
            0 -1 1 -2 -1 -1 -1 -268435457 -1 -32769 2147483647</internalNodes>
          <leafValues>
            3.4694469519536142e-17 -4.5536491244391186e-17</leafValues></_>
        <_>
          <internalNodes>
            0 -1 1 -2 -1 -1 -1 -268435457 -1 -32769 2147483647</internalNodes>
          <leafValues>
            3.4694469519536142e-17 -4.5536491244391186e-17</leafValues></_>
        <_>
          <internalNodes>
            0 -1 1 -2 -1 -1 -1 -268435457 -1 -32769 2147483647</internalNodes>
          <leafValues>
            3.4694469519536142e-17 -4.5536491244391186e-17</leafValues></_>
        <_>
          <internalNodes>
            0 -1 1 -2 -1 -1 -1 -268435457 -1 -32769 2147483647</internalNodes>
          <leafValues>
            3.4694469519536142e-17 -4.5536491244391186e-17</leafValues></_>
        <_>
          <internalNodes>
            0 -1 1 -2 -1 -1 -1 -268435457 -1 -32769 2147483647</internalNodes>
          <leafValues>
            3.4694469519536142e-17 -4.5536491244391186e-17</leafValues></_>
        <_>
          <internalNodes>
            0 -1 1 -2 -1 -1 -1 -268435457 -1 -32769 2147483647</internalNodes>
          <leafValues>
            3.4694469519536142e-17 -4.5536491244391186e-17</leafValues></_>
        <_>
          <internalNodes>
            0 -1 1 -2 -1 -1 -1 -268435457 -1 -32769 2147483647</internalNodes>
          <leafValues>
            3.4694469519536142e-17 -4.5536491244391186e-17</leafValues></_>
        <_>
          <internalNodes>
            0 -1 1 -2 -1 -1 -1 -268435457 -1 -32769 2147483647</internalNodes>
          <leafValues>
            3.4694469519536142e-17 -4.5536491244391186e-17</leafValues></_>
        <_>
          <internalNodes>
            0 -1 1 -2 -1 -1 -1 -268435457 -1 -32769 2147483647</internalNodes>
          <leafValues>
            3.4694469519536142e-17 -4.5536491244391186e-17</leafValues></_>
        <_>
          <internalNodes>
            0 -1 1 -2 -1 -1 -1 -268435457 -1 -32769 2147483647</internalNodes>
          <leafValues>
            3.4694469519536142e-17 -4.5536491244391186e-17</leafValues></_>
        <_>
          <internalNodes>
            0 -1 1 -2 -1 -1 -1 -268435457 -1 -32769 2147483647</internalNodes>
          <leafValues>
            3.4694469519536142e-17 -4.5536491244391186e-17</leafValues></_>
        <_>
          <internalNodes>
            0 -1 1 -2 -1 -1 -1 -268435457 -1 -32769 2147483647</internalNodes>
          <leafValues>
            3.4694469519536142e-17 -4.5536491244391186e-17</leafValues></_>
        <_>
          <internalNodes>
            0 -1 1 -2 -1 -1 -1 -268435457 -1 -32769 2147483647</internalNodes>
          <leafValues>
            3.4694469519536142e-17 -4.5536491244391186e-17</leafValues></_>
        <_>
          <internalNodes>
            0 -1 1 -2 -1 -1 -1 -268435457 -1 -32769 2147483647</internalNodes>
          <leafValues>
            3.4694469519536142e-17 -4.5536491244391186e-17</leafValues></_>
        <_>
          <internalNodes>
            0 -1 1 -2 -1 -1 -1 -268435457 -1 -32769 2147483647</internalNodes>
          <leafValues>
            3.4694469519536142e-17 -4.5536491244391186e-17</leafValues></_>
        <_>
          <internalNodes>
            0 -1 1 -2 -1 -1 -1 -268435457 -1 -32769 2147483647</internalNodes>
          <leafValues>
            3.4694469519536142e-17 -4.5536491244391186e-17</leafValues></_>
        <_>
          <internalNodes>
            0 -1 1 -2 -1 -1 -1 -268435457 -1 -32769 2147483647</internalNodes>
          <leafValues>
            3.4694469519536142e-17 -4.5536491244391186e-17</leafValues></_>
        <_>
          <internalNodes>
            0 -1 1 -2 -1 -1 -1 -268435457 -1 -32769 2147483647</internalNodes>
          <leafValues>
            3.4694469519536142e-17 -4.5536491244391186e-17</leafValues></_>
        <_>
          <internalNodes>
            0 -1 1 -2 -1 -1 -1 -268435457 -1 -32769 2147483647</internalNodes>
          <leafValues>
            3.4694469519536142e-17 -4.5536491244391186e-17</leafValues></_>
        <_>
          <internalNodes>
            0 -1 1 -2 -1 -1 -1 -268435457 -1 -32769 2147483647</internalNodes>
          <leafValues>
            3.4694469519536142e-17 -4.5536491244391186e-17</leafValues></_>
        <_>
          <internalNodes>
            0 -1 1 -2 -1 -1 -1 -268435457 -1 -32769 2147483647</internalNodes>
          <leafValues>
            3.4694469519536142e-17 -4.5536491244391186e-17</leafValues></_>
        <_>
          <internalNodes>
            0 -1 1 -2 -1 -1 -1 -268435457 -1 -32769 2147483647</internalNodes>
          <leafValues>
            3.4694469519536142e-17 -4.5536491244391186e-17</leafValues></_>
        <_>
          <internalNodes>
            0 -1 1 -2 -1 -1 -1 -268435457 -1 -32769 2147483647</internalNodes>
          <leafValues>
            3.4694469519536142e-17 -4.5536491244391186e-17</leafValues></_>
        <_>
          <internalNodes>
            0 -1 1 -2 -1 -1 -1 -268435457 -1 -32769 2147483647</internalNodes>
          <leafValues>
            3.4694469519536142e-17 -4.5536491244391186e-17</leafValues></_>
        <_>
          <internalNodes>
            0 -1 1 -2 -1 -1 -1 -268435457 -1 -32769 2147483647</internalNodes>
          <leafValues>
            3.4694469519536142e-17 -4.5536491244391186e-17</leafValues></_>
        <_>
          <internalNodes>
            0 -1 1 -2 -1 -1 -1 -268435457 -1 -32769 2147483647</internalNodes>
          <leafValues>
            3.4694469519536142e-17 -4.5536491244391186e-17</leafValues></_>
        <_>
          <internalNodes>
            0 -1 1 -2 -1 -1 -1 -268435457 -1 -32769 2147483647</internalNodes>
          <leafValues>
            3.4694469519536142e-17 -4.5536491244391186e-17</leafValues></_>
        <_>
          <internalNodes>
            0 -1 1 -2 -1 -1 -1 -268435457 -1 -32769 2147483647</internalNodes>
          <leafValues>
            3.4694469519536142e-17 -4.5536491244391186e-17</leafValues></_>
        <_>
          <internalNodes>
            0 -1 1 -2 -1 -1 -1 -268435457 -1 -32769 2147483647</internalNodes>
          <leafValues>
            3.4694469519536142e-17 -4.5536491244391186e-17</leafValues></_>
        <_>
          <internalNodes>
            0 -1 1 -2 -1 -1 -1 -268435457 -1 -32769 2147483647</internalNodes>
          <leafValues>
            3.4694469519536142e-17 -4.5536491244391186e-17</leafValues></_>
        <_>
          <internalNodes>
            0 -1 1 -2 -1 -1 -1 -268435457 -1 -32769 2147483647</internalNodes>
          <leafValues>
            3.4694469519536142e-17 -4.5536491244391186e-17</leafValues></_>
        <_>
          <internalNodes>
            0 -1 1 -2 -1 -1 -1 -268435457 -1 -32769 2147483647</internalNodes>
          <leafValues>
            3.4694469519536142e-17 -4.5536491244391186e-17</leafValues></_>
        <_>
          <internalNodes>
            0 -1 1 -2 -1 -1 -1 -268435457 -1 -32769 2147483647</internalNodes>
          <leafValues>
            3.4694469519536142e-17 -4.5536491244391186e-17</leafValues></_>
        <_>
          <internalNodes>
            0 -1 1 -2 -1 -1 -1 -268435457 -1 -32769 2147483647</internalNodes>
          <leafValues>
            3.4694469519536142e-17 -4.5536491244391186e-17</leafValues></_>
        <_>
          <internalNodes>
            0 -1 1 -2 -1 -1 -1 -268435457 -1 -32769 2147483647</internalNodes>
          <leafValues>
            3.4694469519536142e-17 -4.5536491244391186e-17</leafValues></_>
        <_>
          <internalNodes>
            0 -1 1 -2 -1 -1 -1 -268435457 -1 -32769 2147483647</internalNodes>
          <leafValues>
            3.4694469519536142e-17 -4.5536491244391186e-17</leafValues></_>
        <_>
          <internalNodes>
            0 -1 1 -2 -1 -1 -1 -268435457 -1 -32769 2147483647</internalNodes>
          <leafValues>
            3.4694469519536142e-17 -4.5536491244391186e-17</leafValues></_>
        <_>
          <internalNodes>
            0 -1 1 -2 -1 -1 -1 -268435457 -1 -32769 2147483647</internalNodes>
          <leafValues>
            3.4694469519536142e-17 -4.5536491244391186e-17</leafValues></_>
        <_>
          <internalNodes>
            0 -1 1 -2 -1 -1 -1 -268435457 -1 -32769 2147483647</internalNodes>
          <leafValues>
            3.4694469519536142e-17 -4.5536491244391186e-17</leafValues></_>
        <_>
          <internalNodes>
            0 -1 1 -2 -1 -1 -1 -268435457 -1 -32769 2147483647</internalNodes>
          <leafValues>
            3.4694469519536142e-17 -4.5536491244391186e-17</leafValues></_>
        <_>
          <internalNodes>
            0 -1 1 -2 -1 -1 -1 -268435457 -1 -32769 2147483647</internalNodes>
          <leafValues>
            3.4694469519536142e-17 -4.5536491244391186e-17</leafValues></_>
        <_>
          <internalNodes>
            0 -1 1 -2 -1 -1 -1 -268435457 -1 -32769 2147483647</internalNodes>
          <leafValues>
            3.4694469519536142e-17 -4.5536491244391186e-17</leafValues></_>
        <_>
          <internalNodes>
            0 -1 1 -2 -1 -1 -1 -268435457 -1 -32769 2147483647</internalNodes>
          <leafValues>
            3.4694469519536142e-17 -4.5536491244391186e-17</leafValues></_>
        <_>
          <internalNodes>
            0 -1 1 -2 -1 -1 -1 -268435457 -1 -32769 2147483647</internalNodes>
          <leafValues>
            3.4694469519536142e-17 -4.5536491244391186e-17</leafValues></_>
        <_>
          <internalNodes>
            0 -1 1 -2 -1 -1 -1 -268435457 -1 -32769 2147483647</internalNodes>
          <leafValues>
            3.4694469519536142e-17 -4.5536491244391186e-17</leafValues></_>
        <_>
          <internalNodes>
            0 -1 1 -2 -1 -1 -1 -268435457 -1 -32769 2147483647</internalNodes>
          <leafValues>
            3.4694469519536142e-17 -4.5536491244391186e-17</leafValues></_>
        <_>
          <internalNodes>
            0 -1 1 -2 -1 -1 -1 -268435457 -1 -32769 2147483647</internalNodes>
          <leafValues>
            3.4694469519536142e-17 -4.5536491244391186e-17</leafValues></_>
        <_>
          <internalNodes>
            0 -1 1 -2 -1 -1 -1 -268435457 -1 -32769 2147483647</internalNodes>
          <leafValues>
            3.4694469519536142e-17 -4.5536491244391186e-17</leafValues></_>
        <_>
          <internalNodes>
            0 -1 1 -2 -1 -1 -1 -268435457 -1 -32769 2147483647</internalNodes>
          <leafValues>
            3.4694469519536142e-17 -4.5536491244391186e-17</leafValues></_>
        <_>
          <internalNodes>
            0 -1 1 -2 -1 -1 -1 -268435457 -1 -32769 2147483647</internalNodes>
          <leafValues>
            3.4694469519536142e-17 -4.5536491244391186e-17</leafValues></_>
        <_>
          <internalNodes>
            0 -1 1 -2 -1 -1 -1 -268435457 -1 -32769 2147483647</internalNodes>
          <leafValues>
            3.4694469519536142e-17 -4.5536491244391186e-17</leafValues></_>
        <_>
          <internalNodes>
            0 -1 1 -2 -1 -1 -1 -268435457 -1 -32769 2147483647</internalNodes>
          <leafValues>
            3.4694469519536142e-17 -4.5536491244391186e-17</leafValues></_>
        <_>
          <internalNodes>
            0 -1 1 -2 -1 -1 -1 -268435457 -1 -32769 2147483647</internalNodes>
          <leafValues>
            3.4694469519536142e-17 -4.5536491244391186e-17</leafValues></_>
        <_>
          <internalNodes>
            0 -1 1 -2 -1 -1 -1 -268435457 -1 -32769 2147483647</internalNodes>
          <leafValues>
            3.4694469519536142e-17 -4.5536491244391186e-17</leafValues></_>
        <_>
          <internalNodes>
            0 -1 1 -2 -1 -1 -1 -268435457 -1 -32769 2147483647</internalNodes>
          <leafValues>
            3.4694469519536142e-17 -4.5536491244391186e-17</leafValues></_>
        <_>
          <internalNodes>
            0 -1 1 -2 -1 -1 -1 -268435457 -1 -32769 2147483647</internalNodes>
          <leafValues>
            3.4694469519536142e-17 -4.5536491244391186e-17</leafValues></_>
        <_>
          <internalNodes>
            0 -1 1 -2 -1 -1 -1 -268435457 -1 -32769 2147483647</internalNodes>
          <leafValues>
            3.4694469519536142e-17 -4.5536491244391186e-17</leafValues></_>
        <_>
          <internalNodes>
            0 -1 1 -2 -1 -1 -1 -268435457 -1 -32769 2147483647</internalNodes>
          <leafValues>
            3.4694469519536142e-17 -4.5536491244391186e-17</leafValues></_>
        <_>
          <internalNodes>
            0 -1 1 -2 -1 -1 -1 -268435457 -1 -32769 2147483647</internalNodes>
          <leafValues>
            3.4694469519536142e-17 -4.5536491244391186e-17</leafValues></_>
        <_>
          <internalNodes>
            0 -1 1 -2 -1 -1 -1 -268435457 -1 -32769 2147483647</internalNodes>
          <leafValues>
            3.4694469519536142e-17 -4.5536491244391186e-17</leafValues></_>
        <_>
          <internalNodes>
            0 -1 1 -2 -1 -1 -1 -268435457 -1 -32769 2147483647</internalNodes>
          <leafValues>
            3.4694469519536142e-17 -4.5536491244391186e-17</leafValues></_>
        <_>
          <internalNodes>
            0 -1 1 -2 -1 -1 -1 -268435457 -1 -32769 2147483647</internalNodes>
          <leafValues>
            3.4694469519536142e-17 -4.5536491244391186e-17</leafValues></_>
        <_>
          <internalNodes>
            0 -1 1 -2 -1 -1 -1 -268435457 -1 -32769 2147483647</internalNodes>
          <leafValues>
            3.4694469519536142e-17 -4.5536491244391186e-17</leafValues></_>
        <_>
          <internalNodes>
            0 -1 1 -2 -1 -1 -1 -268435457 -1 -32769 2147483647</internalNodes>
          <leafValues>
            3.4694469519536142e-17 -4.5536491244391186e-17</leafValues></_>
        <_>
          <internalNodes>
            0 -1 1 -2 -1 -1 -1 -268435457 -1 -32769 2147483647</internalNodes>
          <leafValues>
            3.4694469519536142e-17 -4.5536491244391186e-17</leafValues></_>
        <_>
          <internalNodes>
            0 -1 1 -2 -1 -1 -1 -268435457 -1 -32769 2147483647</internalNodes>
          <leafValues>
            3.4694469519536142e-17 -4.5536491244391186e-17</leafValues></_></weakClassifiers></_></stages>
  <features>
    <_>
      <rect>
        0 0 1 1</rect></_>
    <_>
      <rect>
        0 0 3 1</rect></_>
    <_>
      <rect>
        0 0 3 6</rect></_>
    <_>
      <rect>
        0 0 5 5</rect></_>
    <_>
      <rect>
        0 1 20 16</rect></_>
    <_>
      <rect>
        0 5 19 2</rect></_>
    <_>
      <rect>
        0 6 20 2</rect></_>
    <_>
      <rect>
        0 21 16 11</rect></_>
    <_>
      <rect>
        2 0 2 4</rect></_></features></cascade>
</opencv_storage>
