<?xml version="1.0"?>
<opencv_storage>
<cascade>
  <stageType>BOOST</stageType>
  <featureType>LBP</featureType>
  <height>60</height>
  <width>60</width>
  <stageParams>
    <boostType>GAB</boostType>
    <minHitRate>9.9900001287460327e-01</minHitRate>
    <maxFalseAlarm>2.0000000298023224e-01</maxFalseAlarm>
    <weightTrimRate>9.4999998807907104e-01</weightTrimRate>
    <maxDepth>1</maxDepth>
    <maxWeakCount>100</maxWeakCount></stageParams>
  <featureParams>
    <maxCatCount>256</maxCatCount>
    <featSize>1</featSize></featureParams>
  <stageNum>5</stageNum>
  <stages>
    <!-- stage 0 -->
    <_>
      <maxWeakCount>1</maxWeakCount>
      <stageThreshold>-7.8062556418956319e-17</stageThreshold>
      <weakClassifiers>
        <_>
          <internalNodes>
            0 -1 6 268435600 65536 5 1627389968 2184 0 8945801
            -2004844416</internalNodes>
          <leafValues>
            -1. -7.8062556418956319e-17</leafValues></_></weakClassifiers></_>
    <!-- stage 1 -->
    <_>
      <maxWeakCount>1</maxWeakCount>
      <stageThreshold>-7.8062556418956319e-17</stageThreshold>
      <weakClassifiers>
        <_>
          <internalNodes>
            0 -1 5 -796868589 84214017 1 1358954496 589952 1090519040
            139 -2146957175</internalNodes>
          <leafValues>
            -1. -7.8062556418956319e-17</leafValues></_></weakClassifiers></_>
    <!-- stage 2 -->
    <_>
      <maxWeakCount>100</maxWeakCount>
      <stageThreshold>-1.3195286989212036e+00</stageThreshold>
      <weakClassifiers>
        <_>
          <internalNodes>
            0 -1 0 0 0 0 0 0 0 0 -2147483648</internalNodes>
          <leafValues>
            -8.6666667461395264e-01 -8.6666667461395264e-01</leafValues></_>
        <_>
          <internalNodes>
            0 -1 0 0 1073741824 0 0 0 0 0 0</internalNodes>
          <leafValues>
            -4.2424872517585754e-01 -4.2424872517585754e-01</leafValues></_>
        <_>
          <internalNodes>
            0 -1 0 0 0 0 0 0 0 0 -2147483648</internalNodes>
          <leafValues>
            -2.8605464845895767e-02 -2.8605464845895767e-02</leafValues></_>
        <_>
          <internalNodes>
            0 -1 0 0 0 0 0 0 0 0 -2147483648</internalNodes>
          <leafValues>
            -7.8061884778435342e-06 -7.8061884778435342e-06</leafValues></_>
        <_>
          <internalNodes>
            0 -1 0 0 1073741824 0 0 0 0 0 0</internalNodes>
          <leafValues>
            -4.5970172113385388e-16 5.6595353403743331e-16</leafValues></_>
        <_>
          <internalNodes>
            0 -1 3 0 0 0 0 0 0 0 8</internalNodes>
          <leafValues>
            -4.7488055154865094e-16 -3.9898639947466563e-16</leafValues></_>
        <_>
          <internalNodes>
            0 -1 0 0 0 0 0 0 0 0 -2147483648</internalNodes>
          <leafValues>
            -5.2041704279304213e-16 3.0357660829594124e-16</leafValues></_>
        <_>
          <internalNodes>
            0 -1 1 -1 -1 -1 -1 -1 -1 -1 2147352575</internalNodes>
          <leafValues>
            2.5153490401663703e-16 5.6161672534749130e-16</leafValues></_>
        <_>
          <internalNodes>
            0 -1 4 0 0 0 0 0 0 0 8</internalNodes>
          <leafValues>
            -3.0249240612345574e-16 3.2092384305570931e-16</leafValues></_>
        <_>
          <internalNodes>
            0 -1 2 -1 -1 -1 -1 -1 -1 -9 2139095039</internalNodes>
          <leafValues>
            -4.1199682554449168e-17 1.1275702593849246e-16</leafValues></_>
        <_>
          <internalNodes>
            0 -1 2 0 0 0 0 0 0 0 65536</internalNodes>
          <leafValues>
            -1.1275702593849246e-16 -4.0115480381963664e-17</leafValues></_>
        <_>
          <internalNodes>
            0 -1 2 -1 -1 -1 -1 -1 -1 -9 2139095039</internalNodes>
          <leafValues>
            3.9031278209478160e-17 -3.1803264829148947e-17</leafValues></_>
        <_>
          <internalNodes>
            0 -1 2 -1073741825 -1 -1 -1 -1 -1 -9 2139095039</internalNodes>
          <leafValues>
            3.4694469519536142e-17 -4.0115480381963664e-17</leafValues></_>
        <_>
          <internalNodes>
            0 -1 2 -1 -1 -1 -1 -1 -1 -9 2139095039</internalNodes>
          <leafValues>
            3.9031278209478160e-17 -3.1803264829148947e-17</leafValues></_>
        <_>
          <internalNodes>
            0 -1 2 -1073741825 -1 -1 -1 -1 -1 -9 2139095039</internalNodes>
          <leafValues>
            3.4694469519536142e-17 -4.0115480381963664e-17</leafValues></_>
        <_>
          <internalNodes>
            0 -1 2 -1 -1 -1 -1 -1 -1 -9 2139095039</internalNodes>
          <leafValues>
            3.9031278209478160e-17 -3.1803264829148947e-17</leafValues></_>
        <_>
          <internalNodes>
            0 -1 2 -1073741825 -1 -1 -1 -1 -1 -9 2139095039</internalNodes>
          <leafValues>
            3.4694469519536142e-17 -4.0115480381963664e-17</leafValues></_>
        <_>
          <internalNodes>
            0 -1 2 -1 -1 -1 -1 -1 -1 -9 2139095039</internalNodes>
          <leafValues>
            3.9031278209478160e-17 -3.1803264829148947e-17</leafValues></_>
        <_>
          <internalNodes>
            0 -1 2 -1073741825 -1 -1 -1 -1 -1 -9 2139095039</internalNodes>
          <leafValues>
            3.4694469519536142e-17 -4.0115480381963664e-17</leafValues></_>
        <_>
          <internalNodes>
            0 -1 2 -1 -1 -1 -1 -1 -1 -9 2139095039</internalNodes>
          <leafValues>
            3.9031278209478160e-17 -3.1803264829148947e-17</leafValues></_>
        <_>
          <internalNodes>
            0 -1 2 -1073741825 -1 -1 -1 -1 -1 -9 2139095039</internalNodes>
          <leafValues>
            3.4694469519536142e-17 -4.0115480381963664e-17</leafValues></_>
        <_>
          <internalNodes>
            0 -1 2 -1 -1 -1 -1 -1 -1 -9 2139095039</internalNodes>
          <leafValues>
            3.9031278209478160e-17 -3.1803264829148947e-17</leafValues></_>
        <_>
          <internalNodes>
            0 -1 2 -1073741825 -1 -1 -1 -1 -1 -9 2139095039</internalNodes>
          <leafValues>
            3.4694469519536142e-17 -4.0115480381963664e-17</leafValues></_>
        <_>
          <internalNodes>
            0 -1 2 -1 -1 -1 -1 -1 -1 -9 2139095039</internalNodes>
          <leafValues>
            3.9031278209478160e-17 -3.1803264829148947e-17</leafValues></_>
        <_>
          <internalNodes>
            0 -1 2 -1073741825 -1 -1 -1 -1 -1 -9 2139095039</internalNodes>
          <leafValues>
            3.4694469519536142e-17 -4.0115480381963664e-17</leafValues></_>
        <_>
          <internalNodes>
            0 -1 2 -1 -1 -1 -1 -1 -1 -9 2139095039</internalNodes>
          <leafValues>
            3.9031278209478160e-17 -3.1803264829148947e-17</leafValues></_>
        <_>
          <internalNodes>
            0 -1 2 -1073741825 -1 -1 -1 -1 -1 -9 2139095039</internalNodes>
          <leafValues>
            3.4694469519536142e-17 -4.0115480381963664e-17</leafValues></_>
        <_>
          <internalNodes>
            0 -1 2 -1 -1 -1 -1 -1 -1 -9 2139095039</internalNodes>
          <leafValues>
            3.9031278209478160e-17 -3.1803264829148947e-17</leafValues></_>
        <_>
          <internalNodes>
            0 -1 2 -1073741825 -1 -1 -1 -1 -1 -9 2139095039</internalNodes>
          <leafValues>
            3.4694469519536142e-17 -4.0115480381963664e-17</leafValues></_>
        <_>
          <internalNodes>
            0 -1 2 -1 -1 -1 -1 -1 -1 -9 2139095039</internalNodes>
          <leafValues>
            3.9031278209478160e-17 -3.1803264829148947e-17</leafValues></_>
        <_>
          <internalNodes>
            0 -1 2 -1073741825 -1 -1 -1 -1 -1 -9 2139095039</internalNodes>
          <leafValues>
            3.4694469519536142e-17 -4.0115480381963664e-17</leafValues></_>
        <_>
          <internalNodes>
            0 -1 2 -1 -1 -1 -1 -1 -1 -9 2139095039</internalNodes>
          <leafValues>
            3.9031278209478160e-17 -3.1803264829148947e-17</leafValues></_>
        <_>
          <internalNodes>
            0 -1 2 -1073741825 -1 -1 -1 -1 -1 -9 2139095039</internalNodes>
          <leafValues>
            3.4694469519536142e-17 -4.0115480381963664e-17</leafValues></_>
        <_>
          <internalNodes>
            0 -1 2 -1 -1 -1 -1 -1 -1 -9 2139095039</internalNodes>
          <leafValues>
            3.9031278209478160e-17 -3.1803264829148947e-17</leafValues></_>
        <_>
          <internalNodes>
            0 -1 2 -1073741825 -1 -1 -1 -1 -1 -9 2139095039</internalNodes>
          <leafValues>
            3.4694469519536142e-17 -4.0115480381963664e-17</leafValues></_>
        <_>
          <internalNodes>
            0 -1 2 -1 -1 -1 -1 -1 -1 -9 2139095039</internalNodes>
          <leafValues>
            3.9031278209478160e-17 -3.1803264829148947e-17</leafValues></_>
        <_>
          <internalNodes>
            0 -1 2 -1073741825 -1 -1 -1 -1 -1 -9 2139095039</internalNodes>
          <leafValues>
            3.4694469519536142e-17 -4.0115480381963664e-17</leafValues></_>
        <_>
          <internalNodes>
            0 -1 2 -1 -1 -1 -1 -1 -1 -9 2139095039</internalNodes>
          <leafValues>
            3.9031278209478160e-17 -3.1803264829148947e-17</leafValues></_>
        <_>
          <internalNodes>
            0 -1 2 -1073741825 -1 -1 -1 -1 -1 -9 2139095039</internalNodes>
          <leafValues>
            3.4694469519536142e-17 -4.0115480381963664e-17</leafValues></_>
        <_>
          <internalNodes>
            0 -1 2 -1 -1 -1 -1 -1 -1 -9 2139095039</internalNodes>
          <leafValues>
            3.9031278209478160e-17 -3.1803264829148947e-17</leafValues></_>
        <_>
          <internalNodes>
            0 -1 2 -1073741825 -1 -1 -1 -1 -1 -9 2139095039</internalNodes>
          <leafValues>
            3.4694469519536142e-17 -4.0115480381963664e-17</leafValues></_>
        <_>
          <internalNodes>
            0 -1 2 -1 -1 -1 -1 -1 -1 -9 2139095039</internalNodes>
          <leafValues>
            3.9031278209478160e-17 -3.1803264829148947e-17</leafValues></_>
        <_>
          <internalNodes>
            0 -1 2 -1073741825 -1 -1 -1 -1 -1 -9 2139095039</internalNodes>
          <leafValues>
            3.4694469519536142e-17 -4.0115480381963664e-17</leafValues></_>
        <_>
          <internalNodes>
            0 -1 2 -1 -1 -1 -1 -1 -1 -9 2139095039</internalNodes>
          <leafValues>
            3.9031278209478160e-17 -3.1803264829148947e-17</leafValues></_>
        <_>
          <internalNodes>
            0 -1 2 -1073741825 -1 -1 -1 -1 -1 -9 2139095039</internalNodes>
          <leafValues>
            3.4694469519536142e-17 -4.0115480381963664e-17</leafValues></_>
        <_>
          <internalNodes>
            0 -1 2 -1 -1 -1 -1 -1 -1 -9 2139095039</internalNodes>
          <leafValues>
            3.9031278209478160e-17 -3.1803264829148947e-17</leafValues></_>
        <_>
          <internalNodes>
            0 -1 2 -1073741825 -1 -1 -1 -1 -1 -9 2139095039</internalNodes>
          <leafValues>
            3.4694469519536142e-17 -4.0115480381963664e-17</leafValues></_>
        <_>
          <internalNodes>
            0 -1 2 -1 -1 -1 -1 -1 -1 -9 2139095039</internalNodes>
          <leafValues>
            3.9031278209478160e-17 -3.1803264829148947e-17</leafValues></_>
        <_>
          <internalNodes>
            0 -1 2 -1073741825 -1 -1 -1 -1 -1 -9 2139095039</internalNodes>
          <leafValues>
            3.4694469519536142e-17 -4.0115480381963664e-17</leafValues></_>
        <_>
          <internalNodes>
            0 -1 2 -1 -1 -1 -1 -1 -1 -9 2139095039</internalNodes>
          <leafValues>
            3.9031278209478160e-17 -3.1803264829148947e-17</leafValues></_>
        <_>
          <internalNodes>
            0 -1 2 -1073741825 -1 -1 -1 -1 -1 -9 2139095039</internalNodes>
          <leafValues>
            3.4694469519536142e-17 -4.0115480381963664e-17</leafValues></_>
        <_>
          <internalNodes>
            0 -1 2 -1 -1 -1 -1 -1 -1 -9 2139095039</internalNodes>
          <leafValues>
            3.9031278209478160e-17 -3.1803264829148947e-17</leafValues></_>
        <_>
          <internalNodes>
            0 -1 2 -1073741825 -1 -1 -1 -1 -1 -9 2139095039</internalNodes>
          <leafValues>
            3.4694469519536142e-17 -4.0115480381963664e-17</leafValues></_>
        <_>
          <internalNodes>
            0 -1 2 -1 -1 -1 -1 -1 -1 -9 2139095039</internalNodes>
          <leafValues>
            3.9031278209478160e-17 -3.1803264829148947e-17</leafValues></_>
        <_>
          <internalNodes>
            0 -1 2 -1073741825 -1 -1 -1 -1 -1 -9 2139095039</internalNodes>
          <leafValues>
            3.4694469519536142e-17 -4.0115480381963664e-17</leafValues></_>
        <_>
          <internalNodes>
            0 -1 2 -1 -1 -1 -1 -1 -1 -9 2139095039</internalNodes>
          <leafValues>
            3.9031278209478160e-17 -3.1803264829148947e-17</leafValues></_>
        <_>
          <internalNodes>
            0 -1 2 -1073741825 -1 -1 -1 -1 -1 -9 2139095039</internalNodes>
          <leafValues>
            3.4694469519536142e-17 -4.0115480381963664e-17</leafValues></_>
        <_>
          <internalNodes>
            0 -1 2 -1 -1 -1 -1 -1 -1 -9 2139095039</internalNodes>
          <leafValues>
            3.9031278209478160e-17 -3.1803264829148947e-17</leafValues></_>
        <_>
          <internalNodes>
            0 -1 2 -1073741825 -1 -1 -1 -1 -1 -9 2139095039</internalNodes>
          <leafValues>
            3.4694469519536142e-17 -4.0115480381963664e-17</leafValues></_>
        <_>
          <internalNodes>
            0 -1 2 -1 -1 -1 -1 -1 -1 -9 2139095039</internalNodes>
          <leafValues>
            3.9031278209478160e-17 -3.1803264829148947e-17</leafValues></_>
        <_>
          <internalNodes>
            0 -1 2 -1073741825 -1 -1 -1 -1 -1 -9 2139095039</internalNodes>
          <leafValues>
            3.4694469519536142e-17 -4.0115480381963664e-17</leafValues></_>
        <_>
          <internalNodes>
            0 -1 2 -1 -1 -1 -1 -1 -1 -9 2139095039</internalNodes>
          <leafValues>
            3.9031278209478160e-17 -3.1803264829148947e-17</leafValues></_>
        <_>
          <internalNodes>
            0 -1 2 -1073741825 -1 -1 -1 -1 -1 -9 2139095039</internalNodes>
          <leafValues>
            3.4694469519536142e-17 -4.0115480381963664e-17</leafValues></_>
        <_>
          <internalNodes>
            0 -1 2 -1 -1 -1 -1 -1 -1 -9 2139095039</internalNodes>
          <leafValues>
            3.9031278209478160e-17 -3.1803264829148947e-17</leafValues></_>
        <_>
          <internalNodes>
            0 -1 2 -1073741825 -1 -1 -1 -1 -1 -9 2139095039</internalNodes>
          <leafValues>
            3.4694469519536142e-17 -4.0115480381963664e-17</leafValues></_>
        <_>
          <internalNodes>
            0 -1 2 -1 -1 -1 -1 -1 -1 -9 2139095039</internalNodes>
          <leafValues>
            3.9031278209478160e-17 -3.1803264829148947e-17</leafValues></_>
        <_>
          <internalNodes>
            0 -1 2 -1073741825 -1 -1 -1 -1 -1 -9 2139095039</internalNodes>
          <leafValues>
            3.4694469519536142e-17 -4.0115480381963664e-17</leafValues></_>
        <_>
          <internalNodes>
            0 -1 2 -1 -1 -1 -1 -1 -1 -9 2139095039</internalNodes>
          <leafValues>
            3.9031278209478160e-17 -3.1803264829148947e-17</leafValues></_>
        <_>
          <internalNodes>
            0 -1 2 -1073741825 -1 -1 -1 -1 -1 -9 2139095039</internalNodes>
          <leafValues>
            3.4694469519536142e-17 -4.0115480381963664e-17</leafValues></_>
        <_>
          <internalNodes>
            0 -1 2 -1 -1 -1 -1 -1 -1 -9 2139095039</internalNodes>
          <leafValues>
            3.9031278209478160e-17 -3.1803264829148947e-17</leafValues></_>
        <_>
          <internalNodes>
            0 -1 2 -1073741825 -1 -1 -1 -1 -1 -9 2139095039</internalNodes>
          <leafValues>
            3.4694469519536142e-17 -4.0115480381963664e-17</leafValues></_>
        <_>
          <internalNodes>
            0 -1 2 -1 -1 -1 -1 -1 -1 -9 2139095039</internalNodes>
          <leafValues>
            3.9031278209478160e-17 -3.1803264829148947e-17</leafValues></_>
        <_>
          <internalNodes>
            0 -1 2 -1073741825 -1 -1 -1 -1 -1 -9 2139095039</internalNodes>
          <leafValues>
            3.4694469519536142e-17 -4.0115480381963664e-17</leafValues></_>
        <_>
          <internalNodes>
            0 -1 2 -1 -1 -1 -1 -1 -1 -9 2139095039</internalNodes>
          <leafValues>
            3.9031278209478160e-17 -3.1803264829148947e-17</leafValues></_>
        <_>
          <internalNodes>
            0 -1 2 -1073741825 -1 -1 -1 -1 -1 -9 2139095039</internalNodes>
          <leafValues>
            3.4694469519536142e-17 -4.0115480381963664e-17</leafValues></_>
        <_>
          <internalNodes>
            0 -1 2 -1 -1 -1 -1 -1 -1 -9 2139095039</internalNodes>
          <leafValues>
            3.9031278209478160e-17 -3.1803264829148947e-17</leafValues></_>
        <_>
          <internalNodes>
            0 -1 2 -1073741825 -1 -1 -1 -1 -1 -9 2139095039</internalNodes>
          <leafValues>
            3.4694469519536142e-17 -4.0115480381963664e-17</leafValues></_>
        <_>
          <internalNodes>
            0 -1 2 -1 -1 -1 -1 -1 -1 -9 2139095039</internalNodes>
          <leafValues>
            3.9031278209478160e-17 -3.1803264829148947e-17</leafValues></_>
        <_>
          <internalNodes>
            0 -1 2 -1073741825 -1 -1 -1 -1 -1 -9 2139095039</internalNodes>
          <leafValues>
            3.4694469519536142e-17 -4.0115480381963664e-17</leafValues></_>
        <_>
          <internalNodes>
            0 -1 2 -1 -1 -1 -1 -1 -1 -9 2139095039</internalNodes>
          <leafValues>
            3.9031278209478160e-17 -3.1803264829148947e-17</leafValues></_>
        <_>
          <internalNodes>
            0 -1 2 -1073741825 -1 -1 -1 -1 -1 -9 2139095039</internalNodes>
          <leafValues>
            3.4694469519536142e-17 -4.0115480381963664e-17</leafValues></_>
        <_>
          <internalNodes>
            0 -1 2 -1 -1 -1 -1 -1 -1 -9 2139095039</internalNodes>
          <leafValues>
            3.9031278209478160e-17 -3.1803264829148947e-17</leafValues></_>
        <_>
          <internalNodes>
            0 -1 2 -1073741825 -1 -1 -1 -1 -1 -9 2139095039</internalNodes>
          <leafValues>
            3.4694469519536142e-17 -4.0115480381963664e-17</leafValues></_>
        <_>
          <internalNodes>
            0 -1 2 -1 -1 -1 -1 -1 -1 -9 2139095039</internalNodes>
          <leafValues>
            3.9031278209478160e-17 -3.1803264829148947e-17</leafValues></_>
        <_>
          <internalNodes>
            0 -1 2 -1073741825 -1 -1 -1 -1 -1 -9 2139095039</internalNodes>
          <leafValues>
            3.4694469519536142e-17 -4.0115480381963664e-17</leafValues></_>
        <_>
          <internalNodes>
            0 -1 2 -1 -1 -1 -1 -1 -1 -9 2139095039</internalNodes>
          <leafValues>
            3.9031278209478160e-17 -3.1803264829148947e-17</leafValues></_>
        <_>
          <internalNodes>
            0 -1 2 -1073741825 -1 -1 -1 -1 -1 -9 2139095039</internalNodes>
          <leafValues>
            3.4694469519536142e-17 -4.0115480381963664e-17</leafValues></_>
        <_>
          <internalNodes>
            0 -1 2 -1 -1 -1 -1 -1 -1 -9 2139095039</internalNodes>
          <leafValues>
            3.9031278209478160e-17 -3.1803264829148947e-17</leafValues></_>
        <_>
          <internalNodes>
            0 -1 2 -1073741825 -1 -1 -1 -1 -1 -9 2139095039</internalNodes>
          <leafValues>
            3.4694469519536142e-17 -4.0115480381963664e-17</leafValues></_>
        <_>
          <internalNodes>
            0 -1 2 -1 -1 -1 -1 -1 -1 -9 2139095039</internalNodes>
          <leafValues>
            3.9031278209478160e-17 -3.1803264829148947e-17</leafValues></_>
        <_>
          <internalNodes>
            0 -1 2 -1073741825 -1 -1 -1 -1 -1 -9 2139095039</internalNodes>
          <leafValues>
            3.4694469519536142e-17 -4.0115480381963664e-17</leafValues></_>
        <_>
          <internalNodes>
            0 -1 2 -1 -1 -1 -1 -1 -1 -9 2139095039</internalNodes>
          <leafValues>
            3.9031278209478160e-17 -3.1803264829148947e-17</leafValues></_>
        <_>
          <internalNodes>
            0 -1 2 -1073741825 -1 -1 -1 -1 -1 -9 2139095039</internalNodes>
          <leafValues>
            3.4694469519536142e-17 -4.0115480381963664e-17</leafValues></_>
        <_>
          <internalNodes>
            0 -1 2 -1 -1 -1 -1 -1 -1 -9 2139095039</internalNodes>
          <leafValues>
            3.9031278209478160e-17 -3.1803264829148947e-17</leafValues></_>
        <_>
          <internalNodes>
            0 -1 2 -1073741825 -1 -1 -1 -1 -1 -9 2139095039</internalNodes>
          <leafValues>
            3.4694469519536142e-17 -4.0115480381963664e-17</leafValues></_>
        <_>
          <internalNodes>
            0 -1 2 -1 -1 -1 -1 -1 -1 -9 2139095039</internalNodes>
          <leafValues>
            3.9031278209478160e-17 -3.1803264829148947e-17</leafValues></_>
        <_>
          <internalNodes>
            0 -1 2 -1073741825 -1 -1 -1 -1 -1 -9 2139095039</internalNodes>
          <leafValues>
            3.4694469519536142e-17 -4.0115480381963664e-17</leafValues></_>
        <_>
          <internalNodes>
            0 -1 2 -1 -1 -1 -1 -1 -1 -9 2139095039</internalNodes>
          <leafValues>
            3.9031278209478160e-17 -3.1803264829148947e-17</leafValues></_>
        <_>
          <internalNodes>
            0 -1 2 -1073741825 -1 -1 -1 -1 -1 -9 2139095039</internalNodes>
          <leafValues>
            3.4694469519536142e-17 -4.0115480381963664e-17</leafValues></_>
        <_>
          <internalNodes>
            0 -1 2 -1 -1 -1 -1 -1 -1 -9 2139095039</internalNodes>
          <leafValues>
            3.9031278209478160e-17 -3.1803264829148947e-17</leafValues></_></weakClassifiers></_>
    <!-- stage 3 -->
    <_>
      <maxWeakCount>100</maxWeakCount>
      <stageThreshold>-1.3195286989212036e+00</stageThreshold>
      <weakClassifiers>
        <_>
          <internalNodes>
            0 -1 0 0 0 0 0 0 0 0 -2147483648</internalNodes>
          <leafValues>
            -8.6666667461395264e-01 -8.6666667461395264e-01</leafValues></_>
        <_>
          <internalNodes>
            0 -1 0 0 1073741824 0 0 0 0 0 0</internalNodes>
          <leafValues>
            -4.2424872517585754e-01 -4.2424872517585754e-01</leafValues></_>
        <_>
          <internalNodes>
            0 -1 0 0 0 0 0 0 0 0 -2147483648</internalNodes>
          <leafValues>
            -2.8605464845895767e-02 -2.8605464845895767e-02</leafValues></_>
        <_>
          <internalNodes>
            0 -1 0 0 0 0 0 0 0 0 -2147483648</internalNodes>
          <leafValues>
            -7.8061884778435342e-06 -7.8061884778435342e-06</leafValues></_>
        <_>
          <internalNodes>
            0 -1 0 0 1073741824 0 0 0 0 0 0</internalNodes>
          <leafValues>
            -4.5970172113385388e-16 5.6595353403743331e-16</leafValues></_>
        <_>
          <internalNodes>
            0 -1 3 0 0 0 0 0 0 0 8</internalNodes>
          <leafValues>
            -4.7488055154865094e-16 -3.9898639947466563e-16</leafValues></_>
        <_>
          <internalNodes>
            0 -1 0 0 0 0 0 0 0 0 -2147483648</internalNodes>
          <leafValues>
            -5.2041704279304213e-16 3.0357660829594124e-16</leafValues></_>
        <_>
          <internalNodes>
            0 -1 1 -1 -1 -1 -1 -1 -1 -1 2147352575</internalNodes>
          <leafValues>
            2.5153490401663703e-16 5.6161672534749130e-16</leafValues></_>
        <_>
          <internalNodes>
            0 -1 4 0 0 0 0 0 0 0 8</internalNodes>
          <leafValues>
            -3.0249240612345574e-16 3.2092384305570931e-16</leafValues></_>
        <_>
          <internalNodes>
            0 -1 2 -1 -1 -1 -1 -1 -1 -9 2139095039</internalNodes>
          <leafValues>
            -4.1199682554449168e-17 1.1275702593849246e-16</leafValues></_>
        <_>
          <internalNodes>
            0 -1 2 0 0 0 0 0 0 0 65536</internalNodes>
          <leafValues>
            -1.1275702593849246e-16 -4.0115480381963664e-17</leafValues></_>
        <_>
          <internalNodes>
            0 -1 2 -1 -1 -1 -1 -1 -1 -9 2139095039</internalNodes>
          <leafValues>
            3.9031278209478160e-17 -3.1803264829148947e-17</leafValues></_>
        <_>
          <internalNodes>
            0 -1 2 -1073741825 -1 -1 -1 -1 -1 -9 2139095039</internalNodes>
          <leafValues>
            3.4694469519536142e-17 -4.0115480381963664e-17</leafValues></_>
        <_>
          <internalNodes>
            0 -1 2 -1 -1 -1 -1 -1 -1 -9 2139095039</internalNodes>
          <leafValues>
            3.9031278209478160e-17 -3.1803264829148947e-17</leafValues></_>
        <_>
          <internalNodes>
            0 -1 2 -1073741825 -1 -1 -1 -1 -1 -9 2139095039</internalNodes>
          <leafValues>
            3.4694469519536142e-17 -4.0115480381963664e-17</leafValues></_>
        <_>
          <internalNodes>
            0 -1 2 -1 -1 -1 -1 -1 -1 -9 2139095039</internalNodes>
          <leafValues>
            3.9031278209478160e-17 -3.1803264829148947e-17</leafValues></_>
        <_>
          <internalNodes>
            0 -1 2 -1073741825 -1 -1 -1 -1 -1 -9 2139095039</internalNodes>
          <leafValues>
            3.4694469519536142e-17 -4.0115480381963664e-17</leafValues></_>
        <_>
          <internalNodes>
            0 -1 2 -1 -1 -1 -1 -1 -1 -9 2139095039</internalNodes>
          <leafValues>
            3.9031278209478160e-17 -3.1803264829148947e-17</leafValues></_>
        <_>
          <internalNodes>
            0 -1 2 -1073741825 -1 -1 -1 -1 -1 -9 2139095039</internalNodes>
          <leafValues>
            3.4694469519536142e-17 -4.0115480381963664e-17</leafValues></_>
        <_>
          <internalNodes>
            0 -1 2 -1 -1 -1 -1 -1 -1 -9 2139095039</internalNodes>
          <leafValues>
            3.9031278209478160e-17 -3.1803264829148947e-17</leafValues></_>
        <_>
          <internalNodes>
            0 -1 2 -1073741825 -1 -1 -1 -1 -1 -9 2139095039</internalNodes>
          <leafValues>
            3.4694469519536142e-17 -4.0115480381963664e-17</leafValues></_>
        <_>
          <internalNodes>
            0 -1 2 -1 -1 -1 -1 -1 -1 -9 2139095039</internalNodes>
          <leafValues>
            3.9031278209478160e-17 -3.1803264829148947e-17</leafValues></_>
        <_>
          <internalNodes>
            0 -1 2 -1073741825 -1 -1 -1 -1 -1 -9 2139095039</internalNodes>
          <leafValues>
            3.4694469519536142e-17 -4.0115480381963664e-17</leafValues></_>
        <_>
          <internalNodes>
            0 -1 2 -1 -1 -1 -1 -1 -1 -9 2139095039</internalNodes>
          <leafValues>
            3.9031278209478160e-17 -3.1803264829148947e-17</leafValues></_>
        <_>
          <internalNodes>
            0 -1 2 -1073741825 -1 -1 -1 -1 -1 -9 2139095039</internalNodes>
          <leafValues>
            3.4694469519536142e-17 -4.0115480381963664e-17</leafValues></_>
        <_>
          <internalNodes>
            0 -1 2 -1 -1 -1 -1 -1 -1 -9 2139095039</internalNodes>
          <leafValues>
            3.9031278209478160e-17 -3.1803264829148947e-17</leafValues></_>
        <_>
          <internalNodes>
            0 -1 2 -1073741825 -1 -1 -1 -1 -1 -9 2139095039</internalNodes>
          <leafValues>
            3.4694469519536142e-17 -4.0115480381963664e-17</leafValues></_>
        <_>
          <internalNodes>
            0 -1 2 -1 -1 -1 -1 -1 -1 -9 2139095039</internalNodes>
          <leafValues>
            3.9031278209478160e-17 -3.1803264829148947e-17</leafValues></_>
        <_>
          <internalNodes>
            0 -1 2 -1073741825 -1 -1 -1 -1 -1 -9 2139095039</internalNodes>
          <leafValues>
            3.4694469519536142e-17 -4.0115480381963664e-17</leafValues></_>
        <_>
          <internalNodes>
            0 -1 2 -1 -1 -1 -1 -1 -1 -9 2139095039</internalNodes>
          <leafValues>
            3.9031278209478160e-17 -3.1803264829148947e-17</leafValues></_>
        <_>
          <internalNodes>
            0 -1 2 -1073741825 -1 -1 -1 -1 -1 -9 2139095039</internalNodes>
          <leafValues>
            3.4694469519536142e-17 -4.0115480381963664e-17</leafValues></_>
        <_>
          <internalNodes>
            0 -1 2 -1 -1 -1 -1 -1 -1 -9 2139095039</internalNodes>
          <leafValues>
            3.9031278209478160e-17 -3.1803264829148947e-17</leafValues></_>
        <_>
          <internalNodes>
            0 -1 2 -1073741825 -1 -1 -1 -1 -1 -9 2139095039</internalNodes>
          <leafValues>
            3.4694469519536142e-17 -4.0115480381963664e-17</leafValues></_>
        <_>
          <internalNodes>
            0 -1 2 -1 -1 -1 -1 -1 -1 -9 2139095039</internalNodes>
          <leafValues>
            3.9031278209478160e-17 -3.1803264829148947e-17</leafValues></_>
        <_>
          <internalNodes>
            0 -1 2 -1073741825 -1 -1 -1 -1 -1 -9 2139095039</internalNodes>
          <leafValues>
            3.4694469519536142e-17 -4.0115480381963664e-17</leafValues></_>
        <_>
          <internalNodes>
            0 -1 2 -1 -1 -1 -1 -1 -1 -9 2139095039</internalNodes>
          <leafValues>
            3.9031278209478160e-17 -3.1803264829148947e-17</leafValues></_>
        <_>
          <internalNodes>
            0 -1 2 -1073741825 -1 -1 -1 -1 -1 -9 2139095039</internalNodes>
          <leafValues>
            3.4694469519536142e-17 -4.0115480381963664e-17</leafValues></_>
        <_>
          <internalNodes>
            0 -1 2 -1 -1 -1 -1 -1 -1 -9 2139095039</internalNodes>
          <leafValues>
            3.9031278209478160e-17 -3.1803264829148947e-17</leafValues></_>
        <_>
          <internalNodes>
            0 -1 2 -1073741825 -1 -1 -1 -1 -1 -9 2139095039</internalNodes>
          <leafValues>
            3.4694469519536142e-17 -4.0115480381963664e-17</leafValues></_>
        <_>
          <internalNodes>
            0 -1 2 -1 -1 -1 -1 -1 -1 -9 2139095039</internalNodes>
          <leafValues>
            3.9031278209478160e-17 -3.1803264829148947e-17</leafValues></_>
        <_>
          <internalNodes>
            0 -1 2 -1073741825 -1 -1 -1 -1 -1 -9 2139095039</internalNodes>
          <leafValues>
            3.4694469519536142e-17 -4.0115480381963664e-17</leafValues></_>
        <_>
          <internalNodes>
            0 -1 2 -1 -1 -1 -1 -1 -1 -9 2139095039</internalNodes>
          <leafValues>
            3.9031278209478160e-17 -3.1803264829148947e-17</leafValues></_>
        <_>
          <internalNodes>
            0 -1 2 -1073741825 -1 -1 -1 -1 -1 -9 2139095039</internalNodes>
          <leafValues>
            3.4694469519536142e-17 -4.0115480381963664e-17</leafValues></_>
        <_>
          <internalNodes>
            0 -1 2 -1 -1 -1 -1 -1 -1 -9 2139095039</internalNodes>
          <leafValues>
            3.9031278209478160e-17 -3.1803264829148947e-17</leafValues></_>
        <_>
          <internalNodes>
            0 -1 2 -1073741825 -1 -1 -1 -1 -1 -9 2139095039</internalNodes>
          <leafValues>
            3.4694469519536142e-17 -4.0115480381963664e-17</leafValues></_>
        <_>
          <internalNodes>
            0 -1 2 -1 -1 -1 -1 -1 -1 -9 2139095039</internalNodes>
          <leafValues>
            3.9031278209478160e-17 -3.1803264829148947e-17</leafValues></_>
        <_>
          <internalNodes>
            0 -1 2 -1073741825 -1 -1 -1 -1 -1 -9 2139095039</internalNodes>
          <leafValues>
            3.4694469519536142e-17 -4.0115480381963664e-17</leafValues></_>
        <_>
          <internalNodes>
            0 -1 2 -1 -1 -1 -1 -1 -1 -9 2139095039</internalNodes>
          <leafValues>
            3.9031278209478160e-17 -3.1803264829148947e-17</leafValues></_>
        <_>
          <internalNodes>
            0 -1 2 -1073741825 -1 -1 -1 -1 -1 -9 2139095039</internalNodes>
          <leafValues>
            3.4694469519536142e-17 -4.0115480381963664e-17</leafValues></_>
        <_>
          <internalNodes>
            0 -1 2 -1 -1 -1 -1 -1 -1 -9 2139095039</internalNodes>
          <leafValues>
            3.9031278209478160e-17 -3.1803264829148947e-17</leafValues></_>
        <_>
          <internalNodes>
            0 -1 2 -1073741825 -1 -1 -1 -1 -1 -9 2139095039</internalNodes>
          <leafValues>
            3.4694469519536142e-17 -4.0115480381963664e-17</leafValues></_>
        <_>
          <internalNodes>
            0 -1 2 -1 -1 -1 -1 -1 -1 -9 2139095039</internalNodes>
          <leafValues>
            3.9031278209478160e-17 -3.1803264829148947e-17</leafValues></_>
        <_>
          <internalNodes>
            0 -1 2 -1073741825 -1 -1 -1 -1 -1 -9 2139095039</internalNodes>
          <leafValues>
            3.4694469519536142e-17 -4.0115480381963664e-17</leafValues></_>
        <_>
          <internalNodes>
            0 -1 2 -1 -1 -1 -1 -1 -1 -9 2139095039</internalNodes>
          <leafValues>
            3.9031278209478160e-17 -3.1803264829148947e-17</leafValues></_>
        <_>
          <internalNodes>
            0 -1 2 -1073741825 -1 -1 -1 -1 -1 -9 2139095039</internalNodes>
          <leafValues>
            3.4694469519536142e-17 -4.0115480381963664e-17</leafValues></_>
        <_>
          <internalNodes>
            0 -1 2 -1 -1 -1 -1 -1 -1 -9 2139095039</internalNodes>
          <leafValues>
            3.9031278209478160e-17 -3.1803264829148947e-17</leafValues></_>
        <_>
          <internalNodes>
            0 -1 2 -1073741825 -1 -1 -1 -1 -1 -9 2139095039</internalNodes>
          <leafValues>
            3.4694469519536142e-17 -4.0115480381963664e-17</leafValues></_>
        <_>
          <internalNodes>
            0 -1 2 -1 -1 -1 -1 -1 -1 -9 2139095039</internalNodes>
          <leafValues>
            3.9031278209478160e-17 -3.1803264829148947e-17</leafValues></_>
        <_>
          <internalNodes>
            0 -1 2 -1073741825 -1 -1 -1 -1 -1 -9 2139095039</internalNodes>
          <leafValues>
            3.4694469519536142e-17 -4.0115480381963664e-17</leafValues></_>
        <_>
          <internalNodes>
            0 -1 2 -1 -1 -1 -1 -1 -1 -9 2139095039</internalNodes>
          <leafValues>
            3.9031278209478160e-17 -3.1803264829148947e-17</leafValues></_>
        <_>
          <internalNodes>
            0 -1 2 -1073741825 -1 -1 -1 -1 -1 -9 2139095039</internalNodes>
          <leafValues>
            3.4694469519536142e-17 -4.0115480381963664e-17</leafValues></_>
        <_>
          <internalNodes>
            0 -1 2 -1 -1 -1 -1 -1 -1 -9 2139095039</internalNodes>
          <leafValues>
            3.9031278209478160e-17 -3.1803264829148947e-17</leafValues></_>
        <_>
          <internalNodes>
            0 -1 2 -1073741825 -1 -1 -1 -1 -1 -9 2139095039</internalNodes>
          <leafValues>
            3.4694469519536142e-17 -4.0115480381963664e-17</leafValues></_>
        <_>
          <internalNodes>
            0 -1 2 -1 -1 -1 -1 -1 -1 -9 2139095039</internalNodes>
          <leafValues>
            3.9031278209478160e-17 -3.1803264829148947e-17</leafValues></_>
        <_>
          <internalNodes>
            0 -1 2 -1073741825 -1 -1 -1 -1 -1 -9 2139095039</internalNodes>
          <leafValues>
            3.4694469519536142e-17 -4.0115480381963664e-17</leafValues></_>
        <_>
          <internalNodes>
            0 -1 2 -1 -1 -1 -1 -1 -1 -9 2139095039</internalNodes>
          <leafValues>
            3.9031278209478160e-17 -3.1803264829148947e-17</leafValues></_>
        <_>
          <internalNodes>
            0 -1 2 -1073741825 -1 -1 -1 -1 -1 -9 2139095039</internalNodes>
          <leafValues>
            3.4694469519536142e-17 -4.0115480381963664e-17</leafValues></_>
        <_>
          <internalNodes>
            0 -1 2 -1 -1 -1 -1 -1 -1 -9 2139095039</internalNodes>
          <leafValues>
            3.9031278209478160e-17 -3.1803264829148947e-17</leafValues></_>
        <_>
          <internalNodes>
            0 -1 2 -1073741825 -1 -1 -1 -1 -1 -9 2139095039</internalNodes>
          <leafValues>
            3.4694469519536142e-17 -4.0115480381963664e-17</leafValues></_>
        <_>
          <internalNodes>
            0 -1 2 -1 -1 -1 -1 -1 -1 -9 2139095039</internalNodes>
          <leafValues>
            3.9031278209478160e-17 -3.1803264829148947e-17</leafValues></_>
        <_>
          <internalNodes>
            0 -1 2 -1073741825 -1 -1 -1 -1 -1 -9 2139095039</internalNodes>
          <leafValues>
            3.4694469519536142e-17 -4.0115480381963664e-17</leafValues></_>
        <_>
          <internalNodes>
            0 -1 2 -1 -1 -1 -1 -1 -1 -9 2139095039</internalNodes>
          <leafValues>
            3.9031278209478160e-17 -3.1803264829148947e-17</leafValues></_>
        <_>
          <internalNodes>
            0 -1 2 -1073741825 -1 -1 -1 -1 -1 -9 2139095039</internalNodes>
          <leafValues>
            3.4694469519536142e-17 -4.0115480381963664e-17</leafValues></_>
        <_>
          <internalNodes>
            0 -1 2 -1 -1 -1 -1 -1 -1 -9 2139095039</internalNodes>
          <leafValues>
            3.9031278209478160e-17 -3.1803264829148947e-17</leafValues></_>
        <_>
          <internalNodes>
            0 -1 2 -1073741825 -1 -1 -1 -1 -1 -9 2139095039</internalNodes>
          <leafValues>
            3.4694469519536142e-17 -4.0115480381963664e-17</leafValues></_>
        <_>
          <internalNodes>
            0 -1 2 -1 -1 -1 -1 -1 -1 -9 2139095039</internalNodes>
          <leafValues>
            3.9031278209478160e-17 -3.1803264829148947e-17</leafValues></_>
        <_>
          <internalNodes>
            0 -1 2 -1073741825 -1 -1 -1 -1 -1 -9 2139095039</internalNodes>
          <leafValues>
            3.4694469519536142e-17 -4.0115480381963664e-17</leafValues></_>
        <_>
          <internalNodes>
            0 -1 2 -1 -1 -1 -1 -1 -1 -9 2139095039</internalNodes>
          <leafValues>
            3.9031278209478160e-17 -3.1803264829148947e-17</leafValues></_>
        <_>
          <internalNodes>
            0 -1 2 -1073741825 -1 -1 -1 -1 -1 -9 2139095039</internalNodes>
          <leafValues>
            3.4694469519536142e-17 -4.0115480381963664e-17</leafValues></_>
        <_>
          <internalNodes>
            0 -1 2 -1 -1 -1 -1 -1 -1 -9 2139095039</internalNodes>
          <leafValues>
            3.9031278209478160e-17 -3.1803264829148947e-17</leafValues></_>
        <_>
          <internalNodes>
            0 -1 2 -1073741825 -1 -1 -1 -1 -1 -9 2139095039</internalNodes>
          <leafValues>
            3.4694469519536142e-17 -4.0115480381963664e-17</leafValues></_>
        <_>
          <internalNodes>
            0 -1 2 -1 -1 -1 -1 -1 -1 -9 2139095039</internalNodes>
          <leafValues>
            3.9031278209478160e-17 -3.1803264829148947e-17</leafValues></_>
        <_>
          <internalNodes>
            0 -1 2 -1073741825 -1 -1 -1 -1 -1 -9 2139095039</internalNodes>
          <leafValues>
            3.4694469519536142e-17 -4.0115480381963664e-17</leafValues></_>
        <_>
          <internalNodes>
            0 -1 2 -1 -1 -1 -1 -1 -1 -9 2139095039</internalNodes>
          <leafValues>
            3.9031278209478160e-17 -3.1803264829148947e-17</leafValues></_>
        <_>
          <internalNodes>
            0 -1 2 -1073741825 -1 -1 -1 -1 -1 -9 2139095039</internalNodes>
          <leafValues>
            3.4694469519536142e-17 -4.0115480381963664e-17</leafValues></_>
        <_>
          <internalNodes>
            0 -1 2 -1 -1 -1 -1 -1 -1 -9 2139095039</internalNodes>
          <leafValues>
            3.9031278209478160e-17 -3.1803264829148947e-17</leafValues></_>
        <_>
          <internalNodes>
            0 -1 2 -1073741825 -1 -1 -1 -1 -1 -9 2139095039</internalNodes>
          <leafValues>
            3.4694469519536142e-17 -4.0115480381963664e-17</leafValues></_>
        <_>
          <internalNodes>
            0 -1 2 -1 -1 -1 -1 -1 -1 -9 2139095039</internalNodes>
          <leafValues>
            3.9031278209478160e-17 -3.1803264829148947e-17</leafValues></_>
        <_>
          <internalNodes>
            0 -1 2 -1073741825 -1 -1 -1 -1 -1 -9 2139095039</internalNodes>
          <leafValues>
            3.4694469519536142e-17 -4.0115480381963664e-17</leafValues></_>
        <_>
          <internalNodes>
            0 -1 2 -1 -1 -1 -1 -1 -1 -9 2139095039</internalNodes>
          <leafValues>
            3.9031278209478160e-17 -3.1803264829148947e-17</leafValues></_>
        <_>
          <internalNodes>
            0 -1 2 -1073741825 -1 -1 -1 -1 -1 -9 2139095039</internalNodes>
          <leafValues>
            3.4694469519536142e-17 -4.0115480381963664e-17</leafValues></_>
        <_>
          <internalNodes>
            0 -1 2 -1 -1 -1 -1 -1 -1 -9 2139095039</internalNodes>
          <leafValues>
            3.9031278209478160e-17 -3.1803264829148947e-17</leafValues></_>
        <_>
          <internalNodes>
            0 -1 2 -1073741825 -1 -1 -1 -1 -1 -9 2139095039</internalNodes>
          <leafValues>
            3.4694469519536142e-17 -4.0115480381963664e-17</leafValues></_>
        <_>
          <internalNodes>
            0 -1 2 -1 -1 -1 -1 -1 -1 -9 2139095039</internalNodes>
          <leafValues>
            3.9031278209478160e-17 -3.1803264829148947e-17</leafValues></_>
        <_>
          <internalNodes>
            0 -1 2 -1073741825 -1 -1 -1 -1 -1 -9 2139095039</internalNodes>
          <leafValues>
            3.4694469519536142e-17 -4.0115480381963664e-17</leafValues></_>
        <_>
          <internalNodes>
            0 -1 2 -1 -1 -1 -1 -1 -1 -9 2139095039</internalNodes>
          <leafValues>
            3.9031278209478160e-17 -3.1803264829148947e-17</leafValues></_>
        <_>
          <internalNodes>
            0 -1 2 -1073741825 -1 -1 -1 -1 -1 -9 2139095039</internalNodes>
          <leafValues>
            3.4694469519536142e-17 -4.0115480381963664e-17</leafValues></_>
        <_>
          <internalNodes>
            0 -1 2 -1 -1 -1 -1 -1 -1 -9 2139095039</internalNodes>
          <leafValues>
            3.9031278209478160e-17 -3.1803264829148947e-17</leafValues></_>
        <_>
          <internalNodes>
            0 -1 2 -1073741825 -1 -1 -1 -1 -1 -9 2139095039</internalNodes>
          <leafValues>
            3.4694469519536142e-17 -4.0115480381963664e-17</leafValues></_>
        <_>
          <internalNodes>
            0 -1 2 -1 -1 -1 -1 -1 -1 -9 2139095039</internalNodes>
          <leafValues>
            3.9031278209478160e-17 -3.1803264829148947e-17</leafValues></_></weakClassifiers></_>
    <!-- stage 4 -->
    <_>
      <maxWeakCount>100</maxWeakCount>
      <stageThreshold>-1.3195286989212036e+00</stageThreshold>
      <weakClassifiers>
        <_>
          <internalNodes>
            0 -1 0 0 0 0 0 0 0 0 -2147483648</internalNodes>
          <leafValues>
            -8.6666667461395264e-01 -8.6666667461395264e-01</leafValues></_>
        <_>
          <internalNodes>
            0 -1 0 0 1073741824 0 0 0 0 0 0</internalNodes>
          <leafValues>
            -4.2424872517585754e-01 -4.2424872517585754e-01</leafValues></_>
        <_>
          <internalNodes>
            0 -1 0 0 0 0 0 0 0 0 -2147483648</internalNodes>
          <leafValues>
            -2.8605464845895767e-02 -2.8605464845895767e-02</leafValues></_>
        <_>
          <internalNodes>
            0 -1 0 0 0 0 0 0 0 0 -2147483648</internalNodes>
          <leafValues>
            -7.8061884778435342e-06 -7.8061884778435342e-06</leafValues></_>
        <_>
          <internalNodes>
            0 -1 0 0 1073741824 0 0 0 0 0 0</internalNodes>
          <leafValues>
            -4.5970172113385388e-16 5.6595353403743331e-16</leafValues></_>
        <_>
          <internalNodes>
            0 -1 3 0 0 0 0 0 0 0 8</internalNodes>
          <leafValues>
            -4.7488055154865094e-16 -3.9898639947466563e-16</leafValues></_>
        <_>
          <internalNodes>
            0 -1 0 0 0 0 0 0 0 0 -2147483648</internalNodes>
          <leafValues>
            -5.2041704279304213e-16 3.0357660829594124e-16</leafValues></_>
        <_>
          <internalNodes>
            0 -1 1 -1 -1 -1 -1 -1 -1 -1 2147352575</internalNodes>
          <leafValues>
            2.5153490401663703e-16 5.6161672534749130e-16</leafValues></_>
        <_>
          <internalNodes>
            0 -1 4 0 0 0 0 0 0 0 8</internalNodes>
          <leafValues>
            -3.0249240612345574e-16 3.2092384305570931e-16</leafValues></_>
        <_>
          <internalNodes>
            0 -1 2 -1 -1 -1 -1 -1 -1 -9 2139095039</internalNodes>
          <leafValues>
            -4.1199682554449168e-17 1.1275702593849246e-16</leafValues></_>
        <_>
          <internalNodes>
            0 -1 2 0 0 0 0 0 0 0 65536</internalNodes>
          <leafValues>
            -1.1275702593849246e-16 -4.0115480381963664e-17</leafValues></_>
        <_>
          <internalNodes>
            0 -1 2 -1 -1 -1 -1 -1 -1 -9 2139095039</internalNodes>
          <leafValues>
            3.9031278209478160e-17 -3.1803264829148947e-17</leafValues></_>
        <_>
          <internalNodes>
            0 -1 2 -1073741825 -1 -1 -1 -1 -1 -9 2139095039</internalNodes>
          <leafValues>
            3.4694469519536142e-17 -4.0115480381963664e-17</leafValues></_>
        <_>
          <internalNodes>
            0 -1 2 -1 -1 -1 -1 -1 -1 -9 2139095039</internalNodes>
          <leafValues>
            3.9031278209478160e-17 -3.1803264829148947e-17</leafValues></_>
        <_>
          <internalNodes>
            0 -1 2 -1073741825 -1 -1 -1 -1 -1 -9 2139095039</internalNodes>
          <leafValues>
            3.4694469519536142e-17 -4.0115480381963664e-17</leafValues></_>
        <_>
          <internalNodes>
            0 -1 2 -1 -1 -1 -1 -1 -1 -9 2139095039</internalNodes>
          <leafValues>
            3.9031278209478160e-17 -3.1803264829148947e-17</leafValues></_>
        <_>
          <internalNodes>
            0 -1 2 -1073741825 -1 -1 -1 -1 -1 -9 2139095039</internalNodes>
          <leafValues>
            3.4694469519536142e-17 -4.0115480381963664e-17</leafValues></_>
        <_>
          <internalNodes>
            0 -1 2 -1 -1 -1 -1 -1 -1 -9 2139095039</internalNodes>
          <leafValues>
            3.9031278209478160e-17 -3.1803264829148947e-17</leafValues></_>
        <_>
          <internalNodes>
            0 -1 2 -1073741825 -1 -1 -1 -1 -1 -9 2139095039</internalNodes>
          <leafValues>
            3.4694469519536142e-17 -4.0115480381963664e-17</leafValues></_>
        <_>
          <internalNodes>
            0 -1 2 -1 -1 -1 -1 -1 -1 -9 2139095039</internalNodes>
          <leafValues>
            3.9031278209478160e-17 -3.1803264829148947e-17</leafValues></_>
        <_>
          <internalNodes>
            0 -1 2 -1073741825 -1 -1 -1 -1 -1 -9 2139095039</internalNodes>
          <leafValues>
            3.4694469519536142e-17 -4.0115480381963664e-17</leafValues></_>
        <_>
          <internalNodes>
            0 -1 2 -1 -1 -1 -1 -1 -1 -9 2139095039</internalNodes>
          <leafValues>
            3.9031278209478160e-17 -3.1803264829148947e-17</leafValues></_>
        <_>
          <internalNodes>
            0 -1 2 -1073741825 -1 -1 -1 -1 -1 -9 2139095039</internalNodes>
          <leafValues>
            3.4694469519536142e-17 -4.0115480381963664e-17</leafValues></_>
        <_>
          <internalNodes>
            0 -1 2 -1 -1 -1 -1 -1 -1 -9 2139095039</internalNodes>
          <leafValues>
            3.9031278209478160e-17 -3.1803264829148947e-17</leafValues></_>
        <_>
          <internalNodes>
            0 -1 2 -1073741825 -1 -1 -1 -1 -1 -9 2139095039</internalNodes>
          <leafValues>
            3.4694469519536142e-17 -4.0115480381963664e-17</leafValues></_>
        <_>
          <internalNodes>
            0 -1 2 -1 -1 -1 -1 -1 -1 -9 2139095039</internalNodes>
          <leafValues>
            3.9031278209478160e-17 -3.1803264829148947e-17</leafValues></_>
        <_>
          <internalNodes>
            0 -1 2 -1073741825 -1 -1 -1 -1 -1 -9 2139095039</internalNodes>
          <leafValues>
            3.4694469519536142e-17 -4.0115480381963664e-17</leafValues></_>
        <_>
          <internalNodes>
            0 -1 2 -1 -1 -1 -1 -1 -1 -9 2139095039</internalNodes>
          <leafValues>
            3.9031278209478160e-17 -3.1803264829148947e-17</leafValues></_>
        <_>
          <internalNodes>
            0 -1 2 -1073741825 -1 -1 -1 -1 -1 -9 2139095039</internalNodes>
          <leafValues>
            3.4694469519536142e-17 -4.0115480381963664e-17</leafValues></_>
        <_>
          <internalNodes>
            0 -1 2 -1 -1 -1 -1 -1 -1 -9 2139095039</internalNodes>
          <leafValues>
            3.9031278209478160e-17 -3.1803264829148947e-17</leafValues></_>
        <_>
          <internalNodes>
            0 -1 2 -1073741825 -1 -1 -1 -1 -1 -9 2139095039</internalNodes>
          <leafValues>
            3.4694469519536142e-17 -4.0115480381963664e-17</leafValues></_>
        <_>
          <internalNodes>
            0 -1 2 -1 -1 -1 -1 -1 -1 -9 2139095039</internalNodes>
          <leafValues>
            3.9031278209478160e-17 -3.1803264829148947e-17</leafValues></_>
        <_>
          <internalNodes>
            0 -1 2 -1073741825 -1 -1 -1 -1 -1 -9 2139095039</internalNodes>
          <leafValues>
            3.4694469519536142e-17 -4.0115480381963664e-17</leafValues></_>
        <_>
          <internalNodes>
            0 -1 2 -1 -1 -1 -1 -1 -1 -9 2139095039</internalNodes>
          <leafValues>
            3.9031278209478160e-17 -3.1803264829148947e-17</leafValues></_>
        <_>
          <internalNodes>
            0 -1 2 -1073741825 -1 -1 -1 -1 -1 -9 2139095039</internalNodes>
          <leafValues>
            3.4694469519536142e-17 -4.0115480381963664e-17</leafValues></_>
        <_>
          <internalNodes>
            0 -1 2 -1 -1 -1 -1 -1 -1 -9 2139095039</internalNodes>
          <leafValues>
            3.9031278209478160e-17 -3.1803264829148947e-17</leafValues></_>
        <_>
          <internalNodes>
            0 -1 2 -1073741825 -1 -1 -1 -1 -1 -9 2139095039</internalNodes>
          <leafValues>
            3.4694469519536142e-17 -4.0115480381963664e-17</leafValues></_>
        <_>
          <internalNodes>
            0 -1 2 -1 -1 -1 -1 -1 -1 -9 2139095039</internalNodes>
          <leafValues>
            3.9031278209478160e-17 -3.1803264829148947e-17</leafValues></_>
        <_>
          <internalNodes>
            0 -1 2 -1073741825 -1 -1 -1 -1 -1 -9 2139095039</internalNodes>
          <leafValues>
            3.4694469519536142e-17 -4.0115480381963664e-17</leafValues></_>
        <_>
          <internalNodes>
            0 -1 2 -1 -1 -1 -1 -1 -1 -9 2139095039</internalNodes>
          <leafValues>
            3.9031278209478160e-17 -3.1803264829148947e-17</leafValues></_>
        <_>
          <internalNodes>
            0 -1 2 -1073741825 -1 -1 -1 -1 -1 -9 2139095039</internalNodes>
          <leafValues>
            3.4694469519536142e-17 -4.0115480381963664e-17</leafValues></_>
        <_>
          <internalNodes>
            0 -1 2 -1 -1 -1 -1 -1 -1 -9 2139095039</internalNodes>
          <leafValues>
            3.9031278209478160e-17 -3.1803264829148947e-17</leafValues></_>
        <_>
          <internalNodes>
            0 -1 2 -1073741825 -1 -1 -1 -1 -1 -9 2139095039</internalNodes>
          <leafValues>
            3.4694469519536142e-17 -4.0115480381963664e-17</leafValues></_>
        <_>
          <internalNodes>
            0 -1 2 -1 -1 -1 -1 -1 -1 -9 2139095039</internalNodes>
          <leafValues>
            3.9031278209478160e-17 -3.1803264829148947e-17</leafValues></_>
        <_>
          <internalNodes>
            0 -1 2 -1073741825 -1 -1 -1 -1 -1 -9 2139095039</internalNodes>
          <leafValues>
            3.4694469519536142e-17 -4.0115480381963664e-17</leafValues></_>
        <_>
          <internalNodes>
            0 -1 2 -1 -1 -1 -1 -1 -1 -9 2139095039</internalNodes>
          <leafValues>
            3.9031278209478160e-17 -3.1803264829148947e-17</leafValues></_>
        <_>
          <internalNodes>
            0 -1 2 -1073741825 -1 -1 -1 -1 -1 -9 2139095039</internalNodes>
          <leafValues>
            3.4694469519536142e-17 -4.0115480381963664e-17</leafValues></_>
        <_>
          <internalNodes>
            0 -1 2 -1 -1 -1 -1 -1 -1 -9 2139095039</internalNodes>
          <leafValues>
            3.9031278209478160e-17 -3.1803264829148947e-17</leafValues></_>
        <_>
          <internalNodes>
            0 -1 2 -1073741825 -1 -1 -1 -1 -1 -9 2139095039</internalNodes>
          <leafValues>
            3.4694469519536142e-17 -4.0115480381963664e-17</leafValues></_>
        <_>
          <internalNodes>
            0 -1 2 -1 -1 -1 -1 -1 -1 -9 2139095039</internalNodes>
          <leafValues>
            3.9031278209478160e-17 -3.1803264829148947e-17</leafValues></_>
        <_>
          <internalNodes>
            0 -1 2 -1073741825 -1 -1 -1 -1 -1 -9 2139095039</internalNodes>
          <leafValues>
            3.4694469519536142e-17 -4.0115480381963664e-17</leafValues></_>
        <_>
          <internalNodes>
            0 -1 2 -1 -1 -1 -1 -1 -1 -9 2139095039</internalNodes>
          <leafValues>
            3.9031278209478160e-17 -3.1803264829148947e-17</leafValues></_>
        <_>
          <internalNodes>
            0 -1 2 -1073741825 -1 -1 -1 -1 -1 -9 2139095039</internalNodes>
          <leafValues>
            3.4694469519536142e-17 -4.0115480381963664e-17</leafValues></_>
        <_>
          <internalNodes>
            0 -1 2 -1 -1 -1 -1 -1 -1 -9 2139095039</internalNodes>
          <leafValues>
            3.9031278209478160e-17 -3.1803264829148947e-17</leafValues></_>
        <_>
          <internalNodes>
            0 -1 2 -1073741825 -1 -1 -1 -1 -1 -9 2139095039</internalNodes>
          <leafValues>
            3.4694469519536142e-17 -4.0115480381963664e-17</leafValues></_>
        <_>
          <internalNodes>
            0 -1 2 -1 -1 -1 -1 -1 -1 -9 2139095039</internalNodes>
          <leafValues>
            3.9031278209478160e-17 -3.1803264829148947e-17</leafValues></_>
        <_>
          <internalNodes>
            0 -1 2 -1073741825 -1 -1 -1 -1 -1 -9 2139095039</internalNodes>
          <leafValues>
            3.4694469519536142e-17 -4.0115480381963664e-17</leafValues></_>
        <_>
          <internalNodes>
            0 -1 2 -1 -1 -1 -1 -1 -1 -9 2139095039</internalNodes>
          <leafValues>
            3.9031278209478160e-17 -3.1803264829148947e-17</leafValues></_>
        <_>
          <internalNodes>
            0 -1 2 -1073741825 -1 -1 -1 -1 -1 -9 2139095039</internalNodes>
          <leafValues>
            3.4694469519536142e-17 -4.0115480381963664e-17</leafValues></_>
        <_>
          <internalNodes>
            0 -1 2 -1 -1 -1 -1 -1 -1 -9 2139095039</internalNodes>
          <leafValues>
            3.9031278209478160e-17 -3.1803264829148947e-17</leafValues></_>
        <_>
          <internalNodes>
            0 -1 2 -1073741825 -1 -1 -1 -1 -1 -9 2139095039</internalNodes>
          <leafValues>
            3.4694469519536142e-17 -4.0115480381963664e-17</leafValues></_>
        <_>
          <internalNodes>
            0 -1 2 -1 -1 -1 -1 -1 -1 -9 2139095039</internalNodes>
          <leafValues>
            3.9031278209478160e-17 -3.1803264829148947e-17</leafValues></_>
        <_>
          <internalNodes>
            0 -1 2 -1073741825 -1 -1 -1 -1 -1 -9 2139095039</internalNodes>
          <leafValues>
            3.4694469519536142e-17 -4.0115480381963664e-17</leafValues></_>
        <_>
          <internalNodes>
            0 -1 2 -1 -1 -1 -1 -1 -1 -9 2139095039</internalNodes>
          <leafValues>
            3.9031278209478160e-17 -3.1803264829148947e-17</leafValues></_>
        <_>
          <internalNodes>
            0 -1 2 -1073741825 -1 -1 -1 -1 -1 -9 2139095039</internalNodes>
          <leafValues>
            3.4694469519536142e-17 -4.0115480381963664e-17</leafValues></_>
        <_>
          <internalNodes>
            0 -1 2 -1 -1 -1 -1 -1 -1 -9 2139095039</internalNodes>
          <leafValues>
            3.9031278209478160e-17 -3.1803264829148947e-17</leafValues></_>
        <_>
          <internalNodes>
            0 -1 2 -1073741825 -1 -1 -1 -1 -1 -9 2139095039</internalNodes>
          <leafValues>
            3.4694469519536142e-17 -4.0115480381963664e-17</leafValues></_>
        <_>
          <internalNodes>
            0 -1 2 -1 -1 -1 -1 -1 -1 -9 2139095039</internalNodes>
          <leafValues>
            3.9031278209478160e-17 -3.1803264829148947e-17</leafValues></_>
        <_>
          <internalNodes>
            0 -1 2 -1073741825 -1 -1 -1 -1 -1 -9 2139095039</internalNodes>
          <leafValues>
            3.4694469519536142e-17 -4.0115480381963664e-17</leafValues></_>
        <_>
          <internalNodes>
            0 -1 2 -1 -1 -1 -1 -1 -1 -9 2139095039</internalNodes>
          <leafValues>
            3.9031278209478160e-17 -3.1803264829148947e-17</leafValues></_>
        <_>
          <internalNodes>
            0 -1 2 -1073741825 -1 -1 -1 -1 -1 -9 2139095039</internalNodes>
          <leafValues>
            3.4694469519536142e-17 -4.0115480381963664e-17</leafValues></_>
        <_>
          <internalNodes>
            0 -1 2 -1 -1 -1 -1 -1 -1 -9 2139095039</internalNodes>
          <leafValues>
            3.9031278209478160e-17 -3.1803264829148947e-17</leafValues></_>
        <_>
          <internalNodes>
            0 -1 2 -1073741825 -1 -1 -1 -1 -1 -9 2139095039</internalNodes>
          <leafValues>
            3.4694469519536142e-17 -4.0115480381963664e-17</leafValues></_>
        <_>
          <internalNodes>
            0 -1 2 -1 -1 -1 -1 -1 -1 -9 2139095039</internalNodes>
          <leafValues>
            3.9031278209478160e-17 -3.1803264829148947e-17</leafValues></_>
        <_>
          <internalNodes>
            0 -1 2 -1073741825 -1 -1 -1 -1 -1 -9 2139095039</internalNodes>
          <leafValues>
            3.4694469519536142e-17 -4.0115480381963664e-17</leafValues></_>
        <_>
          <internalNodes>
            0 -1 2 -1 -1 -1 -1 -1 -1 -9 2139095039</internalNodes>
          <leafValues>
            3.9031278209478160e-17 -3.1803264829148947e-17</leafValues></_>
        <_>
          <internalNodes>
            0 -1 2 -1073741825 -1 -1 -1 -1 -1 -9 2139095039</internalNodes>
          <leafValues>
            3.4694469519536142e-17 -4.0115480381963664e-17</leafValues></_>
        <_>
          <internalNodes>
            0 -1 2 -1 -1 -1 -1 -1 -1 -9 2139095039</internalNodes>
          <leafValues>
            3.9031278209478160e-17 -3.1803264829148947e-17</leafValues></_>
        <_>
          <internalNodes>
            0 -1 2 -1073741825 -1 -1 -1 -1 -1 -9 2139095039</internalNodes>
          <leafValues>
            3.4694469519536142e-17 -4.0115480381963664e-17</leafValues></_>
        <_>
          <internalNodes>
            0 -1 2 -1 -1 -1 -1 -1 -1 -9 2139095039</internalNodes>
          <leafValues>
            3.9031278209478160e-17 -3.1803264829148947e-17</leafValues></_>
        <_>
          <internalNodes>
            0 -1 2 -1073741825 -1 -1 -1 -1 -1 -9 2139095039</internalNodes>
          <leafValues>
            3.4694469519536142e-17 -4.0115480381963664e-17</leafValues></_>
        <_>
          <internalNodes>
            0 -1 2 -1 -1 -1 -1 -1 -1 -9 2139095039</internalNodes>
          <leafValues>
            3.9031278209478160e-17 -3.1803264829148947e-17</leafValues></_>
        <_>
          <internalNodes>
            0 -1 2 -1073741825 -1 -1 -1 -1 -1 -9 2139095039</internalNodes>
          <leafValues>
            3.4694469519536142e-17 -4.0115480381963664e-17</leafValues></_>
        <_>
          <internalNodes>
            0 -1 2 -1 -1 -1 -1 -1 -1 -9 2139095039</internalNodes>
          <leafValues>
            3.9031278209478160e-17 -3.1803264829148947e-17</leafValues></_>
        <_>
          <internalNodes>
            0 -1 2 -1073741825 -1 -1 -1 -1 -1 -9 2139095039</internalNodes>
          <leafValues>
            3.4694469519536142e-17 -4.0115480381963664e-17</leafValues></_>
        <_>
          <internalNodes>
            0 -1 2 -1 -1 -1 -1 -1 -1 -9 2139095039</internalNodes>
          <leafValues>
            3.9031278209478160e-17 -3.1803264829148947e-17</leafValues></_>
        <_>
          <internalNodes>
            0 -1 2 -1073741825 -1 -1 -1 -1 -1 -9 2139095039</internalNodes>
          <leafValues>
            3.4694469519536142e-17 -4.0115480381963664e-17</leafValues></_>
        <_>
          <internalNodes>
            0 -1 2 -1 -1 -1 -1 -1 -1 -9 2139095039</internalNodes>
          <leafValues>
            3.9031278209478160e-17 -3.1803264829148947e-17</leafValues></_>
        <_>
          <internalNodes>
            0 -1 2 -1073741825 -1 -1 -1 -1 -1 -9 2139095039</internalNodes>
          <leafValues>
            3.4694469519536142e-17 -4.0115480381963664e-17</leafValues></_>
        <_>
          <internalNodes>
            0 -1 2 -1 -1 -1 -1 -1 -1 -9 2139095039</internalNodes>
          <leafValues>
            3.9031278209478160e-17 -3.1803264829148947e-17</leafValues></_>
        <_>
          <internalNodes>
            0 -1 2 -1073741825 -1 -1 -1 -1 -1 -9 2139095039</internalNodes>
          <leafValues>
            3.4694469519536142e-17 -4.0115480381963664e-17</leafValues></_>
        <_>
          <internalNodes>
            0 -1 2 -1 -1 -1 -1 -1 -1 -9 2139095039</internalNodes>
          <leafValues>
            3.9031278209478160e-17 -3.1803264829148947e-17</leafValues></_>
        <_>
          <internalNodes>
            0 -1 2 -1073741825 -1 -1 -1 -1 -1 -9 2139095039</internalNodes>
          <leafValues>
            3.4694469519536142e-17 -4.0115480381963664e-17</leafValues></_>
        <_>
          <internalNodes>
            0 -1 2 -1 -1 -1 -1 -1 -1 -9 2139095039</internalNodes>
          <leafValues>
            3.9031278209478160e-17 -3.1803264829148947e-17</leafValues></_>
        <_>
          <internalNodes>
            0 -1 2 -1073741825 -1 -1 -1 -1 -1 -9 2139095039</internalNodes>
          <leafValues>
            3.4694469519536142e-17 -4.0115480381963664e-17</leafValues></_>
        <_>
          <internalNodes>
            0 -1 2 -1 -1 -1 -1 -1 -1 -9 2139095039</internalNodes>
          <leafValues>
            3.9031278209478160e-17 -3.1803264829148947e-17</leafValues></_>
        <_>
          <internalNodes>
            0 -1 2 -1073741825 -1 -1 -1 -1 -1 -9 2139095039</internalNodes>
          <leafValues>
            3.4694469519536142e-17 -4.0115480381963664e-17</leafValues></_>
        <_>
          <internalNodes>
            0 -1 2 -1 -1 -1 -1 -1 -1 -9 2139095039</internalNodes>
          <leafValues>
            3.9031278209478160e-17 -3.1803264829148947e-17</leafValues></_>
        <_>
          <internalNodes>
            0 -1 2 -1073741825 -1 -1 -1 -1 -1 -9 2139095039</internalNodes>
          <leafValues>
            3.4694469519536142e-17 -4.0115480381963664e-17</leafValues></_>
        <_>
          <internalNodes>
            0 -1 2 -1 -1 -1 -1 -1 -1 -9 2139095039</internalNodes>
          <leafValues>
            3.9031278209478160e-17 -3.1803264829148947e-17</leafValues></_></weakClassifiers></_></stages>
  <features>
    <_>
      <rect>
        0 0 1 1</rect></_>
    <_>
      <rect>
        0 0 1 20</rect></_>
    <_>
      <rect>
        0 0 3 3</rect></_>
    <_>
      <rect>
        0 0 9 6</rect></_>
    <_>
      <rect>
        0 0 10 9</rect></_>
    <_>
      <rect>
        0 1 10 2</rect></_>
    <_>
      <rect>
        0 1 12 1</rect></_></features></cascade>
</opencv_storage>
