<?xml version="1.0"?>
<opencv_storage>
<stage2>
  <maxWeakCount>100</maxWeakCount>
  <stageThreshold>-1.3195286989212036e+00</stageThreshold>
  <weakClassifiers>
    <_>
      <internalNodes>
        0 -1 0 0 0 0 0 0 2097152 0 -2147483648</internalNodes>
      <leafValues>
        -8.6666667461395264e-01 -8.6666667461395264e-01</leafValues></_>
    <_>
      <internalNodes>
        0 -1 0 0 0 0 268435456 0 2097152 0 0</internalNodes>
      <leafValues>
        -4.2424872517585754e-01 -4.2424872517585754e-01</leafValues></_>
    <_>
      <internalNodes>
        0 -1 0 0 0 0 268435456 0 0 0 -2147483648</internalNodes>
      <leafValues>
        -2.8605464845895767e-02 -2.8605464845895767e-02</leafValues></_>
    <_>
      <internalNodes>
        0 -1 0 0 0 0 0 0 2097152 0 0</internalNodes>
      <leafValues>
        -7.8061884778435342e-06 -7.8061884778435342e-06</leafValues></_>
    <_>
      <internalNodes>
        0 -1 58 0 0 0 0 0 0 128 -2147483648</internalNodes>
      <leafValues>
        -4.5391929190074479e-16 -4.7488055154865094e-16</leafValues></_>
    <_>
      <internalNodes>
        0 -1 4281 0 0 0 0 0 0 0 -2147483648</internalNodes>
      <leafValues>
        -5.3017486234541167e-16 3.9031278209478160e-16</leafValues></_>
    <_>
      <internalNodes>
        0 -1 156 0 0 0 0 0 0 0 32768</internalNodes>
      <leafValues>
        -2.6020852139652106e-17 1.4636729328554310e-16</leafValues></_>
    <_>
      <internalNodes>
        0 -1 180 0 0 0 0 0 0 128 0</internalNodes>
      <leafValues>
        -3.5128150388530344e-16 4.7704895589362195e-16</leafValues></_>
    <_>
      <internalNodes>
        0 -1 44 0 0 0 268435456 0 0 0 0</internalNodes>
      <leafValues>
        -1.1275702593849246e-16 -6.2883726004159257e-17</leafValues></_>
    <_>
      <internalNodes>
        0 -1 44 -1 -1 -1 -1 -1 -1 -3 -8388737</internalNodes>
      <leafValues>
        1.3660947373317356e-16 1.1275702593849246e-16</leafValues></_>
    <_>
      <internalNodes>
        0 -1 293 0 0 0 0 0 0 0 128</internalNodes>
      <leafValues>
        -9.3241386833753381e-17 -3.1803264829148947e-17</leafValues></_>
    <_>
      <internalNodes>
        0 -1 44 -1 -1 -1 -1 -1 -1 -3 -8454273</internalNodes>
      <leafValues>
        9.5409791178724390e-17 -9.3241386833753381e-17</leafValues></_>
    <_>
      <internalNodes>
        0 -1 44 0 0 0 268435456 0 0 0 0</internalNodes>
      <leafValues>
        -1.1275702593849246e-16 -4.5536491244391186e-17</leafValues></_>
    <_>
      <internalNodes>
        0 -1 44 -1 -1 -1 -1 -1 -1 -3 -8454273</internalNodes>
      <leafValues>
        3.4694469519536142e-17 -4.5536491244391186e-17</leafValues></_>
    <_>
      <internalNodes>
        0 -1 44 -1 -1 -1 -1 -1 -1 -3 -8454273</internalNodes>
      <leafValues>
        3.4694469519536142e-17 -4.5536491244391186e-17</leafValues></_>
    <_>
      <internalNodes>
        0 -1 44 -1 -1 -1 -1 -1 -1 -3 -8454273</internalNodes>
      <leafValues>
        3.4694469519536142e-17 -4.5536491244391186e-17</leafValues></_>
    <_>
      <internalNodes>
        0 -1 44 -1 -1 -1 -1 -1 -1 -3 -8454273</internalNodes>
      <leafValues>
        3.4694469519536142e-17 -4.5536491244391186e-17</leafValues></_>
    <_>
      <internalNodes>
        0 -1 44 -1 -1 -1 -1 -1 -1 -3 -8454273</internalNodes>
      <leafValues>
        3.4694469519536142e-17 -4.5536491244391186e-17</leafValues></_>
    <_>
      <internalNodes>
        0 -1 44 -1 -1 -1 -1 -1 -1 -3 -8454273</internalNodes>
      <leafValues>
        3.4694469519536142e-17 -4.5536491244391186e-17</leafValues></_>
    <_>
      <internalNodes>
        0 -1 44 -1 -1 -1 -1 -1 -1 -3 -8454273</internalNodes>
      <leafValues>
        3.4694469519536142e-17 -4.5536491244391186e-17</leafValues></_>
    <_>
      <internalNodes>
        0 -1 44 -1 -1 -1 -1 -1 -1 -3 -8454273</internalNodes>
      <leafValues>
        3.4694469519536142e-17 -4.5536491244391186e-17</leafValues></_>
    <_>
      <internalNodes>
        0 -1 44 -1 -1 -1 -1 -1 -1 -3 -8454273</internalNodes>
      <leafValues>
        3.4694469519536142e-17 -4.5536491244391186e-17</leafValues></_>
    <_>
      <internalNodes>
        0 -1 44 -1 -1 -1 -1 -1 -1 -3 -8454273</internalNodes>
      <leafValues>
        3.4694469519536142e-17 -4.5536491244391186e-17</leafValues></_>
    <_>
      <internalNodes>
        0 -1 44 -1 -1 -1 -1 -1 -1 -3 -8454273</internalNodes>
      <leafValues>
        3.4694469519536142e-17 -4.5536491244391186e-17</leafValues></_>
    <_>
      <internalNodes>
        0 -1 44 -1 -1 -1 -1 -1 -1 -3 -8454273</internalNodes>
      <leafValues>
        3.4694469519536142e-17 -4.5536491244391186e-17</leafValues></_>
    <_>
      <internalNodes>
        0 -1 44 -1 -1 -1 -1 -1 -1 -3 -8454273</internalNodes>
      <leafValues>
        3.4694469519536142e-17 -4.5536491244391186e-17</leafValues></_>
    <_>
      <internalNodes>
        0 -1 44 -1 -1 -1 -1 -1 -1 -3 -8454273</internalNodes>
      <leafValues>
        3.4694469519536142e-17 -4.5536491244391186e-17</leafValues></_>
    <_>
      <internalNodes>
        0 -1 44 -1 -1 -1 -1 -1 -1 -3 -8454273</internalNodes>
      <leafValues>
        3.4694469519536142e-17 -4.5536491244391186e-17</leafValues></_>
    <_>
      <internalNodes>
        0 -1 44 -1 -1 -1 -1 -1 -1 -3 -8454273</internalNodes>
      <leafValues>
        3.4694469519536142e-17 -4.5536491244391186e-17</leafValues></_>
    <_>
      <internalNodes>
        0 -1 44 -1 -1 -1 -1 -1 -1 -3 -8454273</internalNodes>
      <leafValues>
        3.4694469519536142e-17 -4.5536491244391186e-17</leafValues></_>
    <_>
      <internalNodes>
        0 -1 44 -1 -1 -1 -1 -1 -1 -3 -8454273</internalNodes>
      <leafValues>
        3.4694469519536142e-17 -4.5536491244391186e-17</leafValues></_>
    <_>
      <internalNodes>
        0 -1 44 -1 -1 -1 -1 -1 -1 -3 -8454273</internalNodes>
      <leafValues>
        3.4694469519536142e-17 -4.5536491244391186e-17</leafValues></_>
    <_>
      <internalNodes>
        0 -1 44 -1 -1 -1 -1 -1 -1 -3 -8454273</internalNodes>
      <leafValues>
        3.4694469519536142e-17 -4.5536491244391186e-17</leafValues></_>
    <_>
      <internalNodes>
        0 -1 44 -1 -1 -1 -1 -1 -1 -3 -8454273</internalNodes>
      <leafValues>
        3.4694469519536142e-17 -4.5536491244391186e-17</leafValues></_>
    <_>
      <internalNodes>
        0 -1 44 -1 -1 -1 -1 -1 -1 -3 -8454273</internalNodes>
      <leafValues>
        3.4694469519536142e-17 -4.5536491244391186e-17</leafValues></_>
    <_>
      <internalNodes>
        0 -1 44 -1 -1 -1 -1 -1 -1 -3 -8454273</internalNodes>
      <leafValues>
        3.4694469519536142e-17 -4.5536491244391186e-17</leafValues></_>
    <_>
      <internalNodes>
        0 -1 44 -1 -1 -1 -1 -1 -1 -3 -8454273</internalNodes>
      <leafValues>
        3.4694469519536142e-17 -4.5536491244391186e-17</leafValues></_>
    <_>
      <internalNodes>
        0 -1 44 -1 -1 -1 -1 -1 -1 -3 -8454273</internalNodes>
      <leafValues>
        3.4694469519536142e-17 -4.5536491244391186e-17</leafValues></_>
    <_>
      <internalNodes>
        0 -1 44 -1 -1 -1 -1 -1 -1 -3 -8454273</internalNodes>
      <leafValues>
        3.4694469519536142e-17 -4.5536491244391186e-17</leafValues></_>
    <_>
      <internalNodes>
        0 -1 44 -1 -1 -1 -1 -1 -1 -3 -8454273</internalNodes>
      <leafValues>
        3.4694469519536142e-17 -4.5536491244391186e-17</leafValues></_>
    <_>
      <internalNodes>
        0 -1 44 -1 -1 -1 -1 -1 -1 -3 -8454273</internalNodes>
      <leafValues>
        3.4694469519536142e-17 -4.5536491244391186e-17</leafValues></_>
    <_>
      <internalNodes>
        0 -1 44 -1 -1 -1 -1 -1 -1 -3 -8454273</internalNodes>
      <leafValues>
        3.4694469519536142e-17 -4.5536491244391186e-17</leafValues></_>
    <_>
      <internalNodes>
        0 -1 44 -1 -1 -1 -1 -1 -1 -3 -8454273</internalNodes>
      <leafValues>
        3.4694469519536142e-17 -4.5536491244391186e-17</leafValues></_>
    <_>
      <internalNodes>
        0 -1 44 -1 -1 -1 -1 -1 -1 -3 -8454273</internalNodes>
      <leafValues>
        3.4694469519536142e-17 -4.5536491244391186e-17</leafValues></_>
    <_>
      <internalNodes>
        0 -1 44 -1 -1 -1 -1 -1 -1 -3 -8454273</internalNodes>
      <leafValues>
        3.4694469519536142e-17 -4.5536491244391186e-17</leafValues></_>
    <_>
      <internalNodes>
        0 -1 44 -1 -1 -1 -1 -1 -1 -3 -8454273</internalNodes>
      <leafValues>
        3.4694469519536142e-17 -4.5536491244391186e-17</leafValues></_>
    <_>
      <internalNodes>
        0 -1 44 -1 -1 -1 -1 -1 -1 -3 -8454273</internalNodes>
      <leafValues>
        3.4694469519536142e-17 -4.5536491244391186e-17</leafValues></_>
    <_>
      <internalNodes>
        0 -1 44 -1 -1 -1 -1 -1 -1 -3 -8454273</internalNodes>
      <leafValues>
        3.4694469519536142e-17 -4.5536491244391186e-17</leafValues></_>
    <_>
      <internalNodes>
        0 -1 44 -1 -1 -1 -1 -1 -1 -3 -8454273</internalNodes>
      <leafValues>
        3.4694469519536142e-17 -4.5536491244391186e-17</leafValues></_>
    <_>
      <internalNodes>
        0 -1 44 -1 -1 -1 -1 -1 -1 -3 -8454273</internalNodes>
      <leafValues>
        3.4694469519536142e-17 -4.5536491244391186e-17</leafValues></_>
    <_>
      <internalNodes>
        0 -1 44 -1 -1 -1 -1 -1 -1 -3 -8454273</internalNodes>
      <leafValues>
        3.4694469519536142e-17 -4.5536491244391186e-17</leafValues></_>
    <_>
      <internalNodes>
        0 -1 44 -1 -1 -1 -1 -1 -1 -3 -8454273</internalNodes>
      <leafValues>
        3.4694469519536142e-17 -4.5536491244391186e-17</leafValues></_>
    <_>
      <internalNodes>
        0 -1 44 -1 -1 -1 -1 -1 -1 -3 -8454273</internalNodes>
      <leafValues>
        3.4694469519536142e-17 -4.5536491244391186e-17</leafValues></_>
    <_>
      <internalNodes>
        0 -1 44 -1 -1 -1 -1 -1 -1 -3 -8454273</internalNodes>
      <leafValues>
        3.4694469519536142e-17 -4.5536491244391186e-17</leafValues></_>
    <_>
      <internalNodes>
        0 -1 44 -1 -1 -1 -1 -1 -1 -3 -8454273</internalNodes>
      <leafValues>
        3.4694469519536142e-17 -4.5536491244391186e-17</leafValues></_>
    <_>
      <internalNodes>
        0 -1 44 -1 -1 -1 -1 -1 -1 -3 -8454273</internalNodes>
      <leafValues>
        3.4694469519536142e-17 -4.5536491244391186e-17</leafValues></_>
    <_>
      <internalNodes>
        0 -1 44 -1 -1 -1 -1 -1 -1 -3 -8454273</internalNodes>
      <leafValues>
        3.4694469519536142e-17 -4.5536491244391186e-17</leafValues></_>
    <_>
      <internalNodes>
        0 -1 44 -1 -1 -1 -1 -1 -1 -3 -8454273</internalNodes>
      <leafValues>
        3.4694469519536142e-17 -4.5536491244391186e-17</leafValues></_>
    <_>
      <internalNodes>
        0 -1 44 -1 -1 -1 -1 -1 -1 -3 -8454273</internalNodes>
      <leafValues>
        3.4694469519536142e-17 -4.5536491244391186e-17</leafValues></_>
    <_>
      <internalNodes>
        0 -1 44 -1 -1 -1 -1 -1 -1 -3 -8454273</internalNodes>
      <leafValues>
        3.4694469519536142e-17 -4.5536491244391186e-17</leafValues></_>
    <_>
      <internalNodes>
        0 -1 44 -1 -1 -1 -1 -1 -1 -3 -8454273</internalNodes>
      <leafValues>
        3.4694469519536142e-17 -4.5536491244391186e-17</leafValues></_>
    <_>
      <internalNodes>
        0 -1 44 -1 -1 -1 -1 -1 -1 -3 -8454273</internalNodes>
      <leafValues>
        3.4694469519536142e-17 -4.5536491244391186e-17</leafValues></_>
    <_>
      <internalNodes>
        0 -1 44 -1 -1 -1 -1 -1 -1 -3 -8454273</internalNodes>
      <leafValues>
        3.4694469519536142e-17 -4.5536491244391186e-17</leafValues></_>
    <_>
      <internalNodes>
        0 -1 44 -1 -1 -1 -1 -1 -1 -3 -8454273</internalNodes>
      <leafValues>
        3.4694469519536142e-17 -4.5536491244391186e-17</leafValues></_>
    <_>
      <internalNodes>
        0 -1 44 -1 -1 -1 -1 -1 -1 -3 -8454273</internalNodes>
      <leafValues>
        3.4694469519536142e-17 -4.5536491244391186e-17</leafValues></_>
    <_>
      <internalNodes>
        0 -1 44 -1 -1 -1 -1 -1 -1 -3 -8454273</internalNodes>
      <leafValues>
        3.4694469519536142e-17 -4.5536491244391186e-17</leafValues></_>
    <_>
      <internalNodes>
        0 -1 44 -1 -1 -1 -1 -1 -1 -3 -8454273</internalNodes>
      <leafValues>
        3.4694469519536142e-17 -4.5536491244391186e-17</leafValues></_>
    <_>
      <internalNodes>
        0 -1 44 -1 -1 -1 -1 -1 -1 -3 -8454273</internalNodes>
      <leafValues>
        3.4694469519536142e-17 -4.5536491244391186e-17</leafValues></_>
    <_>
      <internalNodes>
        0 -1 44 -1 -1 -1 -1 -1 -1 -3 -8454273</internalNodes>
      <leafValues>
        3.4694469519536142e-17 -4.5536491244391186e-17</leafValues></_>
    <_>
      <internalNodes>
        0 -1 44 -1 -1 -1 -1 -1 -1 -3 -8454273</internalNodes>
      <leafValues>
        3.4694469519536142e-17 -4.5536491244391186e-17</leafValues></_>
    <_>
      <internalNodes>
        0 -1 44 -1 -1 -1 -1 -1 -1 -3 -8454273</internalNodes>
      <leafValues>
        3.4694469519536142e-17 -4.5536491244391186e-17</leafValues></_>
    <_>
      <internalNodes>
        0 -1 44 -1 -1 -1 -1 -1 -1 -3 -8454273</internalNodes>
      <leafValues>
        3.4694469519536142e-17 -4.5536491244391186e-17</leafValues></_>
    <_>
      <internalNodes>
        0 -1 44 -1 -1 -1 -1 -1 -1 -3 -8454273</internalNodes>
      <leafValues>
        3.4694469519536142e-17 -4.5536491244391186e-17</leafValues></_>
    <_>
      <internalNodes>
        0 -1 44 -1 -1 -1 -1 -1 -1 -3 -8454273</internalNodes>
      <leafValues>
        3.4694469519536142e-17 -4.5536491244391186e-17</leafValues></_>
    <_>
      <internalNodes>
        0 -1 44 -1 -1 -1 -1 -1 -1 -3 -8454273</internalNodes>
      <leafValues>
        3.4694469519536142e-17 -4.5536491244391186e-17</leafValues></_>
    <_>
      <internalNodes>
        0 -1 44 -1 -1 -1 -1 -1 -1 -3 -8454273</internalNodes>
      <leafValues>
        3.4694469519536142e-17 -4.5536491244391186e-17</leafValues></_>
    <_>
      <internalNodes>
        0 -1 44 -1 -1 -1 -1 -1 -1 -3 -8454273</internalNodes>
      <leafValues>
        3.4694469519536142e-17 -4.5536491244391186e-17</leafValues></_>
    <_>
      <internalNodes>
        0 -1 44 -1 -1 -1 -1 -1 -1 -3 -8454273</internalNodes>
      <leafValues>
        3.4694469519536142e-17 -4.5536491244391186e-17</leafValues></_>
    <_>
      <internalNodes>
        0 -1 44 -1 -1 -1 -1 -1 -1 -3 -8454273</internalNodes>
      <leafValues>
        3.4694469519536142e-17 -4.5536491244391186e-17</leafValues></_>
    <_>
      <internalNodes>
        0 -1 44 -1 -1 -1 -1 -1 -1 -3 -8454273</internalNodes>
      <leafValues>
        3.4694469519536142e-17 -4.5536491244391186e-17</leafValues></_>
    <_>
      <internalNodes>
        0 -1 44 -1 -1 -1 -1 -1 -1 -3 -8454273</internalNodes>
      <leafValues>
        3.4694469519536142e-17 -4.5536491244391186e-17</leafValues></_>
    <_>
      <internalNodes>
        0 -1 44 -1 -1 -1 -1 -1 -1 -3 -8454273</internalNodes>
      <leafValues>
        3.4694469519536142e-17 -4.5536491244391186e-17</leafValues></_>
    <_>
      <internalNodes>
        0 -1 44 -1 -1 -1 -1 -1 -1 -3 -8454273</internalNodes>
      <leafValues>
        3.4694469519536142e-17 -4.5536491244391186e-17</leafValues></_>
    <_>
      <internalNodes>
        0 -1 44 -1 -1 -1 -1 -1 -1 -3 -8454273</internalNodes>
      <leafValues>
        3.4694469519536142e-17 -4.5536491244391186e-17</leafValues></_>
    <_>
      <internalNodes>
        0 -1 44 -1 -1 -1 -1 -1 -1 -3 -8454273</internalNodes>
      <leafValues>
        3.4694469519536142e-17 -4.5536491244391186e-17</leafValues></_>
    <_>
      <internalNodes>
        0 -1 44 -1 -1 -1 -1 -1 -1 -3 -8454273</internalNodes>
      <leafValues>
        3.4694469519536142e-17 -4.5536491244391186e-17</leafValues></_>
    <_>
      <internalNodes>
        0 -1 44 -1 -1 -1 -1 -1 -1 -3 -8454273</internalNodes>
      <leafValues>
        3.4694469519536142e-17 -4.5536491244391186e-17</leafValues></_>
    <_>
      <internalNodes>
        0 -1 44 -1 -1 -1 -1 -1 -1 -3 -8454273</internalNodes>
      <leafValues>
        3.4694469519536142e-17 -4.5536491244391186e-17</leafValues></_>
    <_>
      <internalNodes>
        0 -1 44 -1 -1 -1 -1 -1 -1 -3 -8454273</internalNodes>
      <leafValues>
        3.4694469519536142e-17 -4.5536491244391186e-17</leafValues></_>
    <_>
      <internalNodes>
        0 -1 44 -1 -1 -1 -1 -1 -1 -3 -8454273</internalNodes>
      <leafValues>
        3.4694469519536142e-17 -4.5536491244391186e-17</leafValues></_>
    <_>
      <internalNodes>
        0 -1 44 -1 -1 -1 -1 -1 -1 -3 -8454273</internalNodes>
      <leafValues>
        3.4694469519536142e-17 -4.5536491244391186e-17</leafValues></_>
    <_>
      <internalNodes>
        0 -1 44 -1 -1 -1 -1 -1 -1 -3 -8454273</internalNodes>
      <leafValues>
        3.4694469519536142e-17 -4.5536491244391186e-17</leafValues></_>
    <_>
      <internalNodes>
        0 -1 44 -1 -1 -1 -1 -1 -1 -3 -8454273</internalNodes>
      <leafValues>
        3.4694469519536142e-17 -4.5536491244391186e-17</leafValues></_>
    <_>
      <internalNodes>
        0 -1 44 -1 -1 -1 -1 -1 -1 -3 -8454273</internalNodes>
      <leafValues>
        3.4694469519536142e-17 -4.5536491244391186e-17</leafValues></_>
    <_>
      <internalNodes>
        0 -1 44 -1 -1 -1 -1 -1 -1 -3 -8454273</internalNodes>
      <leafValues>
        3.4694469519536142e-17 -4.5536491244391186e-17</leafValues></_>
    <_>
      <internalNodes>
        0 -1 44 -1 -1 -1 -1 -1 -1 -3 -8454273</internalNodes>
      <leafValues>
        3.4694469519536142e-17 -4.5536491244391186e-17</leafValues></_>
    <_>
      <internalNodes>
        0 -1 44 -1 -1 -1 -1 -1 -1 -3 -8454273</internalNodes>
      <leafValues>
        3.4694469519536142e-17 -4.5536491244391186e-17</leafValues></_>
    <_>
      <internalNodes>
        0 -1 44 -1 -1 -1 -1 -1 -1 -3 -8454273</internalNodes>
      <leafValues>
        3.4694469519536142e-17 -4.5536491244391186e-17</leafValues></_>
    <_>
      <internalNodes>
        0 -1 44 -1 -1 -1 -1 -1 -1 -3 -8454273</internalNodes>
      <leafValues>
        3.4694469519536142e-17 -4.5536491244391186e-17</leafValues></_>
    <_>
      <internalNodes>
        0 -1 44 -1 -1 -1 -1 -1 -1 -3 -8454273</internalNodes>
      <leafValues>
        3.4694469519536142e-17 -4.5536491244391186e-17</leafValues></_></weakClassifiers></stage2>
</opencv_storage>
