<?xml version="1.0"?>
<opencv_storage>
<stage2>
  <maxWeakCount>100</maxWeakCount>
  <stageThreshold>-1.3195286989212036e+00</stageThreshold>
  <weakClassifiers>
    <_>
      <internalNodes>
        0 -1 0 0 0 0 0 0 0 0 -2147483648</internalNodes>
      <leafValues>
        -8.6666667461395264e-01 -8.6666667461395264e-01</leafValues></_>
    <_>
      <internalNodes>
        0 -1 0 0 0 0 0 0 0 0 131072</internalNodes>
      <leafValues>
        -4.2424872517585754e-01 -4.2424872517585754e-01</leafValues></_>
    <_>
      <internalNodes>
        0 -1 0 0 0 0 0 0 0 0 -2147483648</internalNodes>
      <leafValues>
        -2.8605464845895767e-02 -2.8605464845895767e-02</leafValues></_>
    <_>
      <internalNodes>
        0 -1 0 0 0 0 0 0 0 0 -2147483648</internalNodes>
      <leafValues>
        -7.8061884778435342e-06 -7.8061884778435342e-06</leafValues></_>
    <_>
      <internalNodes>
        0 -1 0 0 0 0 0 0 0 0 131072</internalNodes>
      <leafValues>
        -4.5970172113385388e-16 5.6595353403743331e-16</leafValues></_>
    <_>
      <internalNodes>
        0 -1 270289 0 0 0 0 0 0 0 2</internalNodes>
      <leafValues>
        -4.7488055154865094e-16 -3.9898639947466563e-16</leafValues></_>
    <_>
      <internalNodes>
        0 -1 0 0 0 0 0 0 0 0 -2147483648</internalNodes>
      <leafValues>
        -5.2041704279304213e-16 3.0357660829594124e-16</leafValues></_>
    <_>
      <internalNodes>
        0 -1 913 -1 -1 -1 -1 -1 -1 -129 2147483647</internalNodes>
      <leafValues>
        2.5153490401663703e-16 5.6161672534749130e-16</leafValues></_>
    <_>
      <internalNodes>
        0 -1 115 0 0 0 0 0 0 0 128</internalNodes>
      <leafValues>
        -3.0249240612345574e-16 3.2092384305570931e-16</leafValues></_>
    <_>
      <internalNodes>
        0 -1 6 -17 -1 -1 -1 -1 -1 -1 -4</internalNodes>
      <leafValues>
        -4.1199682554449168e-17 1.1275702593849246e-16</leafValues></_>
    <_>
      <internalNodes>
        0 -1 6 0 0 0 0 0 0 0 -2147483648</internalNodes>
      <leafValues>
        -1.1275702593849246e-16 -4.0115480381963664e-17</leafValues></_>
    <_>
      <internalNodes>
        0 -1 6 -17 -1 -1 -1 -1 -1 -1 -4</internalNodes>
      <leafValues>
        3.9031278209478160e-17 -3.1803264829148947e-17</leafValues></_>
    <_>
      <internalNodes>
        0 -1 6 -17 -1 -1 -1 -1 -1 -1 -131076</internalNodes>
      <leafValues>
        3.4694469519536142e-17 -4.0115480381963664e-17</leafValues></_>
    <_>
      <internalNodes>
        0 -1 6 -17 -1 -1 -1 -1 -1 -1 -4</internalNodes>
      <leafValues>
        3.9031278209478160e-17 -3.1803264829148947e-17</leafValues></_>
    <_>
      <internalNodes>
        0 -1 6 -17 -1 -1 -1 -1 -1 -1 -131076</internalNodes>
      <leafValues>
        3.4694469519536142e-17 -4.0115480381963664e-17</leafValues></_>
    <_>
      <internalNodes>
        0 -1 6 -17 -1 -1 -1 -1 -1 -1 -4</internalNodes>
      <leafValues>
        3.9031278209478160e-17 -3.1803264829148947e-17</leafValues></_>
    <_>
      <internalNodes>
        0 -1 6 -17 -1 -1 -1 -1 -1 -1 -131076</internalNodes>
      <leafValues>
        3.4694469519536142e-17 -4.0115480381963664e-17</leafValues></_>
    <_>
      <internalNodes>
        0 -1 6 -17 -1 -1 -1 -1 -1 -1 -4</internalNodes>
      <leafValues>
        3.9031278209478160e-17 -3.1803264829148947e-17</leafValues></_>
    <_>
      <internalNodes>
        0 -1 6 -17 -1 -1 -1 -1 -1 -1 -131076</internalNodes>
      <leafValues>
        3.4694469519536142e-17 -4.0115480381963664e-17</leafValues></_>
    <_>
      <internalNodes>
        0 -1 6 -17 -1 -1 -1 -1 -1 -1 -4</internalNodes>
      <leafValues>
        3.9031278209478160e-17 -3.1803264829148947e-17</leafValues></_>
    <_>
      <internalNodes>
        0 -1 6 -17 -1 -1 -1 -1 -1 -1 -131076</internalNodes>
      <leafValues>
        3.4694469519536142e-17 -4.0115480381963664e-17</leafValues></_>
    <_>
      <internalNodes>
        0 -1 6 -17 -1 -1 -1 -1 -1 -1 -4</internalNodes>
      <leafValues>
        3.9031278209478160e-17 -3.1803264829148947e-17</leafValues></_>
    <_>
      <internalNodes>
        0 -1 6 -17 -1 -1 -1 -1 -1 -1 -131076</internalNodes>
      <leafValues>
        3.4694469519536142e-17 -4.0115480381963664e-17</leafValues></_>
    <_>
      <internalNodes>
        0 -1 6 -17 -1 -1 -1 -1 -1 -1 -4</internalNodes>
      <leafValues>
        3.9031278209478160e-17 -3.1803264829148947e-17</leafValues></_>
    <_>
      <internalNodes>
        0 -1 6 -17 -1 -1 -1 -1 -1 -1 -131076</internalNodes>
      <leafValues>
        3.4694469519536142e-17 -4.0115480381963664e-17</leafValues></_>
    <_>
      <internalNodes>
        0 -1 6 -17 -1 -1 -1 -1 -1 -1 -4</internalNodes>
      <leafValues>
        3.9031278209478160e-17 -3.1803264829148947e-17</leafValues></_>
    <_>
      <internalNodes>
        0 -1 6 -17 -1 -1 -1 -1 -1 -1 -131076</internalNodes>
      <leafValues>
        3.4694469519536142e-17 -4.0115480381963664e-17</leafValues></_>
    <_>
      <internalNodes>
        0 -1 6 -17 -1 -1 -1 -1 -1 -1 -4</internalNodes>
      <leafValues>
        3.9031278209478160e-17 -3.1803264829148947e-17</leafValues></_>
    <_>
      <internalNodes>
        0 -1 6 -17 -1 -1 -1 -1 -1 -1 -131076</internalNodes>
      <leafValues>
        3.4694469519536142e-17 -4.0115480381963664e-17</leafValues></_>
    <_>
      <internalNodes>
        0 -1 6 -17 -1 -1 -1 -1 -1 -1 -4</internalNodes>
      <leafValues>
        3.9031278209478160e-17 -3.1803264829148947e-17</leafValues></_>
    <_>
      <internalNodes>
        0 -1 6 -17 -1 -1 -1 -1 -1 -1 -131076</internalNodes>
      <leafValues>
        3.4694469519536142e-17 -4.0115480381963664e-17</leafValues></_>
    <_>
      <internalNodes>
        0 -1 6 -17 -1 -1 -1 -1 -1 -1 -4</internalNodes>
      <leafValues>
        3.9031278209478160e-17 -3.1803264829148947e-17</leafValues></_>
    <_>
      <internalNodes>
        0 -1 6 -17 -1 -1 -1 -1 -1 -1 -131076</internalNodes>
      <leafValues>
        3.4694469519536142e-17 -4.0115480381963664e-17</leafValues></_>
    <_>
      <internalNodes>
        0 -1 6 -17 -1 -1 -1 -1 -1 -1 -4</internalNodes>
      <leafValues>
        3.9031278209478160e-17 -3.1803264829148947e-17</leafValues></_>
    <_>
      <internalNodes>
        0 -1 6 -17 -1 -1 -1 -1 -1 -1 -131076</internalNodes>
      <leafValues>
        3.4694469519536142e-17 -4.0115480381963664e-17</leafValues></_>
    <_>
      <internalNodes>
        0 -1 6 -17 -1 -1 -1 -1 -1 -1 -4</internalNodes>
      <leafValues>
        3.9031278209478160e-17 -3.1803264829148947e-17</leafValues></_>
    <_>
      <internalNodes>
        0 -1 6 -17 -1 -1 -1 -1 -1 -1 -131076</internalNodes>
      <leafValues>
        3.4694469519536142e-17 -4.0115480381963664e-17</leafValues></_>
    <_>
      <internalNodes>
        0 -1 6 -17 -1 -1 -1 -1 -1 -1 -4</internalNodes>
      <leafValues>
        3.9031278209478160e-17 -3.1803264829148947e-17</leafValues></_>
    <_>
      <internalNodes>
        0 -1 6 -17 -1 -1 -1 -1 -1 -1 -131076</internalNodes>
      <leafValues>
        3.4694469519536142e-17 -4.0115480381963664e-17</leafValues></_>
    <_>
      <internalNodes>
        0 -1 6 -17 -1 -1 -1 -1 -1 -1 -4</internalNodes>
      <leafValues>
        3.9031278209478160e-17 -3.1803264829148947e-17</leafValues></_>
    <_>
      <internalNodes>
        0 -1 6 -17 -1 -1 -1 -1 -1 -1 -131076</internalNodes>
      <leafValues>
        3.4694469519536142e-17 -4.0115480381963664e-17</leafValues></_>
    <_>
      <internalNodes>
        0 -1 6 -17 -1 -1 -1 -1 -1 -1 -4</internalNodes>
      <leafValues>
        3.9031278209478160e-17 -3.1803264829148947e-17</leafValues></_>
    <_>
      <internalNodes>
        0 -1 6 -17 -1 -1 -1 -1 -1 -1 -131076</internalNodes>
      <leafValues>
        3.4694469519536142e-17 -4.0115480381963664e-17</leafValues></_>
    <_>
      <internalNodes>
        0 -1 6 -17 -1 -1 -1 -1 -1 -1 -4</internalNodes>
      <leafValues>
        3.9031278209478160e-17 -3.1803264829148947e-17</leafValues></_>
    <_>
      <internalNodes>
        0 -1 6 -17 -1 -1 -1 -1 -1 -1 -131076</internalNodes>
      <leafValues>
        3.4694469519536142e-17 -4.0115480381963664e-17</leafValues></_>
    <_>
      <internalNodes>
        0 -1 6 -17 -1 -1 -1 -1 -1 -1 -4</internalNodes>
      <leafValues>
        3.9031278209478160e-17 -3.1803264829148947e-17</leafValues></_>
    <_>
      <internalNodes>
        0 -1 6 -17 -1 -1 -1 -1 -1 -1 -131076</internalNodes>
      <leafValues>
        3.4694469519536142e-17 -4.0115480381963664e-17</leafValues></_>
    <_>
      <internalNodes>
        0 -1 6 -17 -1 -1 -1 -1 -1 -1 -4</internalNodes>
      <leafValues>
        3.9031278209478160e-17 -3.1803264829148947e-17</leafValues></_>
    <_>
      <internalNodes>
        0 -1 6 -17 -1 -1 -1 -1 -1 -1 -131076</internalNodes>
      <leafValues>
        3.4694469519536142e-17 -4.0115480381963664e-17</leafValues></_>
    <_>
      <internalNodes>
        0 -1 6 -17 -1 -1 -1 -1 -1 -1 -4</internalNodes>
      <leafValues>
        3.9031278209478160e-17 -3.1803264829148947e-17</leafValues></_>
    <_>
      <internalNodes>
        0 -1 6 -17 -1 -1 -1 -1 -1 -1 -131076</internalNodes>
      <leafValues>
        3.4694469519536142e-17 -4.0115480381963664e-17</leafValues></_>
    <_>
      <internalNodes>
        0 -1 6 -17 -1 -1 -1 -1 -1 -1 -4</internalNodes>
      <leafValues>
        3.9031278209478160e-17 -3.1803264829148947e-17</leafValues></_>
    <_>
      <internalNodes>
        0 -1 6 -17 -1 -1 -1 -1 -1 -1 -131076</internalNodes>
      <leafValues>
        3.4694469519536142e-17 -4.0115480381963664e-17</leafValues></_>
    <_>
      <internalNodes>
        0 -1 6 -17 -1 -1 -1 -1 -1 -1 -4</internalNodes>
      <leafValues>
        3.9031278209478160e-17 -3.1803264829148947e-17</leafValues></_>
    <_>
      <internalNodes>
        0 -1 6 -17 -1 -1 -1 -1 -1 -1 -131076</internalNodes>
      <leafValues>
        3.4694469519536142e-17 -4.0115480381963664e-17</leafValues></_>
    <_>
      <internalNodes>
        0 -1 6 -17 -1 -1 -1 -1 -1 -1 -4</internalNodes>
      <leafValues>
        3.9031278209478160e-17 -3.1803264829148947e-17</leafValues></_>
    <_>
      <internalNodes>
        0 -1 6 -17 -1 -1 -1 -1 -1 -1 -131076</internalNodes>
      <leafValues>
        3.4694469519536142e-17 -4.0115480381963664e-17</leafValues></_>
    <_>
      <internalNodes>
        0 -1 6 -17 -1 -1 -1 -1 -1 -1 -4</internalNodes>
      <leafValues>
        3.9031278209478160e-17 -3.1803264829148947e-17</leafValues></_>
    <_>
      <internalNodes>
        0 -1 6 -17 -1 -1 -1 -1 -1 -1 -131076</internalNodes>
      <leafValues>
        3.4694469519536142e-17 -4.0115480381963664e-17</leafValues></_>
    <_>
      <internalNodes>
        0 -1 6 -17 -1 -1 -1 -1 -1 -1 -4</internalNodes>
      <leafValues>
        3.9031278209478160e-17 -3.1803264829148947e-17</leafValues></_>
    <_>
      <internalNodes>
        0 -1 6 -17 -1 -1 -1 -1 -1 -1 -131076</internalNodes>
      <leafValues>
        3.4694469519536142e-17 -4.0115480381963664e-17</leafValues></_>
    <_>
      <internalNodes>
        0 -1 6 -17 -1 -1 -1 -1 -1 -1 -4</internalNodes>
      <leafValues>
        3.9031278209478160e-17 -3.1803264829148947e-17</leafValues></_>
    <_>
      <internalNodes>
        0 -1 6 -17 -1 -1 -1 -1 -1 -1 -131076</internalNodes>
      <leafValues>
        3.4694469519536142e-17 -4.0115480381963664e-17</leafValues></_>
    <_>
      <internalNodes>
        0 -1 6 -17 -1 -1 -1 -1 -1 -1 -4</internalNodes>
      <leafValues>
        3.9031278209478160e-17 -3.1803264829148947e-17</leafValues></_>
    <_>
      <internalNodes>
        0 -1 6 -17 -1 -1 -1 -1 -1 -1 -131076</internalNodes>
      <leafValues>
        3.4694469519536142e-17 -4.0115480381963664e-17</leafValues></_>
    <_>
      <internalNodes>
        0 -1 6 -17 -1 -1 -1 -1 -1 -1 -4</internalNodes>
      <leafValues>
        3.9031278209478160e-17 -3.1803264829148947e-17</leafValues></_>
    <_>
      <internalNodes>
        0 -1 6 -17 -1 -1 -1 -1 -1 -1 -131076</internalNodes>
      <leafValues>
        3.4694469519536142e-17 -4.0115480381963664e-17</leafValues></_>
    <_>
      <internalNodes>
        0 -1 6 -17 -1 -1 -1 -1 -1 -1 -4</internalNodes>
      <leafValues>
        3.9031278209478160e-17 -3.1803264829148947e-17</leafValues></_>
    <_>
      <internalNodes>
        0 -1 6 -17 -1 -1 -1 -1 -1 -1 -131076</internalNodes>
      <leafValues>
        3.4694469519536142e-17 -4.0115480381963664e-17</leafValues></_>
    <_>
      <internalNodes>
        0 -1 6 -17 -1 -1 -1 -1 -1 -1 -4</internalNodes>
      <leafValues>
        3.9031278209478160e-17 -3.1803264829148947e-17</leafValues></_>
    <_>
      <internalNodes>
        0 -1 6 -17 -1 -1 -1 -1 -1 -1 -131076</internalNodes>
      <leafValues>
        3.4694469519536142e-17 -4.0115480381963664e-17</leafValues></_>
    <_>
      <internalNodes>
        0 -1 6 -17 -1 -1 -1 -1 -1 -1 -4</internalNodes>
      <leafValues>
        3.9031278209478160e-17 -3.1803264829148947e-17</leafValues></_>
    <_>
      <internalNodes>
        0 -1 6 -17 -1 -1 -1 -1 -1 -1 -131076</internalNodes>
      <leafValues>
        3.4694469519536142e-17 -4.0115480381963664e-17</leafValues></_>
    <_>
      <internalNodes>
        0 -1 6 -17 -1 -1 -1 -1 -1 -1 -4</internalNodes>
      <leafValues>
        3.9031278209478160e-17 -3.1803264829148947e-17</leafValues></_>
    <_>
      <internalNodes>
        0 -1 6 -17 -1 -1 -1 -1 -1 -1 -131076</internalNodes>
      <leafValues>
        3.4694469519536142e-17 -4.0115480381963664e-17</leafValues></_>
    <_>
      <internalNodes>
        0 -1 6 -17 -1 -1 -1 -1 -1 -1 -4</internalNodes>
      <leafValues>
        3.9031278209478160e-17 -3.1803264829148947e-17</leafValues></_>
    <_>
      <internalNodes>
        0 -1 6 -17 -1 -1 -1 -1 -1 -1 -131076</internalNodes>
      <leafValues>
        3.4694469519536142e-17 -4.0115480381963664e-17</leafValues></_>
    <_>
      <internalNodes>
        0 -1 6 -17 -1 -1 -1 -1 -1 -1 -4</internalNodes>
      <leafValues>
        3.9031278209478160e-17 -3.1803264829148947e-17</leafValues></_>
    <_>
      <internalNodes>
        0 -1 6 -17 -1 -1 -1 -1 -1 -1 -131076</internalNodes>
      <leafValues>
        3.4694469519536142e-17 -4.0115480381963664e-17</leafValues></_>
    <_>
      <internalNodes>
        0 -1 6 -17 -1 -1 -1 -1 -1 -1 -4</internalNodes>
      <leafValues>
        3.9031278209478160e-17 -3.1803264829148947e-17</leafValues></_>
    <_>
      <internalNodes>
        0 -1 6 -17 -1 -1 -1 -1 -1 -1 -131076</internalNodes>
      <leafValues>
        3.4694469519536142e-17 -4.0115480381963664e-17</leafValues></_>
    <_>
      <internalNodes>
        0 -1 6 -17 -1 -1 -1 -1 -1 -1 -4</internalNodes>
      <leafValues>
        3.9031278209478160e-17 -3.1803264829148947e-17</leafValues></_>
    <_>
      <internalNodes>
        0 -1 6 -17 -1 -1 -1 -1 -1 -1 -131076</internalNodes>
      <leafValues>
        3.4694469519536142e-17 -4.0115480381963664e-17</leafValues></_>
    <_>
      <internalNodes>
        0 -1 6 -17 -1 -1 -1 -1 -1 -1 -4</internalNodes>
      <leafValues>
        3.9031278209478160e-17 -3.1803264829148947e-17</leafValues></_>
    <_>
      <internalNodes>
        0 -1 6 -17 -1 -1 -1 -1 -1 -1 -131076</internalNodes>
      <leafValues>
        3.4694469519536142e-17 -4.0115480381963664e-17</leafValues></_>
    <_>
      <internalNodes>
        0 -1 6 -17 -1 -1 -1 -1 -1 -1 -4</internalNodes>
      <leafValues>
        3.9031278209478160e-17 -3.1803264829148947e-17</leafValues></_>
    <_>
      <internalNodes>
        0 -1 6 -17 -1 -1 -1 -1 -1 -1 -131076</internalNodes>
      <leafValues>
        3.4694469519536142e-17 -4.0115480381963664e-17</leafValues></_>
    <_>
      <internalNodes>
        0 -1 6 -17 -1 -1 -1 -1 -1 -1 -4</internalNodes>
      <leafValues>
        3.9031278209478160e-17 -3.1803264829148947e-17</leafValues></_>
    <_>
      <internalNodes>
        0 -1 6 -17 -1 -1 -1 -1 -1 -1 -131076</internalNodes>
      <leafValues>
        3.4694469519536142e-17 -4.0115480381963664e-17</leafValues></_>
    <_>
      <internalNodes>
        0 -1 6 -17 -1 -1 -1 -1 -1 -1 -4</internalNodes>
      <leafValues>
        3.9031278209478160e-17 -3.1803264829148947e-17</leafValues></_>
    <_>
      <internalNodes>
        0 -1 6 -17 -1 -1 -1 -1 -1 -1 -131076</internalNodes>
      <leafValues>
        3.4694469519536142e-17 -4.0115480381963664e-17</leafValues></_>
    <_>
      <internalNodes>
        0 -1 6 -17 -1 -1 -1 -1 -1 -1 -4</internalNodes>
      <leafValues>
        3.9031278209478160e-17 -3.1803264829148947e-17</leafValues></_>
    <_>
      <internalNodes>
        0 -1 6 -17 -1 -1 -1 -1 -1 -1 -131076</internalNodes>
      <leafValues>
        3.4694469519536142e-17 -4.0115480381963664e-17</leafValues></_>
    <_>
      <internalNodes>
        0 -1 6 -17 -1 -1 -1 -1 -1 -1 -4</internalNodes>
      <leafValues>
        3.9031278209478160e-17 -3.1803264829148947e-17</leafValues></_>
    <_>
      <internalNodes>
        0 -1 6 -17 -1 -1 -1 -1 -1 -1 -131076</internalNodes>
      <leafValues>
        3.4694469519536142e-17 -4.0115480381963664e-17</leafValues></_>
    <_>
      <internalNodes>
        0 -1 6 -17 -1 -1 -1 -1 -1 -1 -4</internalNodes>
      <leafValues>
        3.9031278209478160e-17 -3.1803264829148947e-17</leafValues></_>
    <_>
      <internalNodes>
        0 -1 6 -17 -1 -1 -1 -1 -1 -1 -131076</internalNodes>
      <leafValues>
        3.4694469519536142e-17 -4.0115480381963664e-17</leafValues></_>
    <_>
      <internalNodes>
        0 -1 6 -17 -1 -1 -1 -1 -1 -1 -4</internalNodes>
      <leafValues>
        3.9031278209478160e-17 -3.1803264829148947e-17</leafValues></_>
    <_>
      <internalNodes>
        0 -1 6 -17 -1 -1 -1 -1 -1 -1 -131076</internalNodes>
      <leafValues>
        3.4694469519536142e-17 -4.0115480381963664e-17</leafValues></_>
    <_>
      <internalNodes>
        0 -1 6 -17 -1 -1 -1 -1 -1 -1 -4</internalNodes>
      <leafValues>
        3.9031278209478160e-17 -3.1803264829148947e-17</leafValues></_></weakClassifiers></stage2>
</opencv_storage>
