<?xml version="1.0"?>
<opencv_storage>
<cascade>
  <stageType>BOOST</stageType>
  <featureType>LBP</featureType>
  <height>60</height>
  <width>60</width>
  <stageParams>
    <boostType>GAB</boostType>
    <minHitRate>9.9900001287460327e-01</minHitRate>
    <maxFalseAlarm>2.0000000298023224e-01</maxFalseAlarm>
    <weightTrimRate>9.4999998807907104e-01</weightTrimRate>
    <maxDepth>1</maxDepth>
    <maxWeakCount>100</maxWeakCount></stageParams>
  <featureParams>
    <maxCatCount>256</maxCatCount>
    <featSize>1</featSize></featureParams>
  <stageNum>5</stageNum>
  <stages>
    <!-- stage 0 -->
    <_>
      <maxWeakCount>1</maxWeakCount>
      <stageThreshold>1.</stageThreshold>
      <weakClassifiers>
        <_>
          <internalNodes>
            0 -1 3 16387 32768 0 1073741824 128 0 -2147434352
            -2147450743</internalNodes>
          <leafValues>
            -1. 1.</leafValues></_></weakClassifiers></_>
    <!-- stage 1 -->
    <_>
      <maxWeakCount>1</maxWeakCount>
      <stageThreshold>-7.8062556418956319e-17</stageThreshold>
      <weakClassifiers>
        <_>
          <internalNodes>
            0 -1 2 -804552677 1358954513 0 1157627905 128 8388608 130
            688324738</internalNodes>
          <leafValues>
            -1. -7.8062556418956319e-17</leafValues></_></weakClassifiers></_>
    <!-- stage 2 -->
    <_>
      <maxWeakCount>100</maxWeakCount>
      <stageThreshold>-1.3195286989212036e+00</stageThreshold>
      <weakClassifiers>
        <_>
          <internalNodes>
            0 -1 0 0 0 0 0 0 0 0 -2147483648</internalNodes>
          <leafValues>
            -8.6666667461395264e-01 -8.6666667461395264e-01</leafValues></_>
        <_>
          <internalNodes>
            0 -1 0 1 0 0 268435456 0 0 0 0</internalNodes>
          <leafValues>
            -4.2424872517585754e-01 -4.2424872517585754e-01</leafValues></_>
        <_>
          <internalNodes>
            0 -1 0 0 0 0 0 32768 0 0 0</internalNodes>
          <leafValues>
            -2.8605464845895767e-02 -2.8605464845895767e-02</leafValues></_>
        <_>
          <internalNodes>
            0 -1 0 0 0 0 0 0 0 0 -2147483648</internalNodes>
          <leafValues>
            -7.8061884778435342e-06 -7.8061884778435342e-06</leafValues></_>
        <_>
          <internalNodes>
            0 -1 4 0 0 0 0 0 0 0 268435456</internalNodes>
          <leafValues>
            -5.9847959921199845e-16 1.7997756063259374e-16</leafValues></_>
        <_>
          <internalNodes>
            0 -1 6 0 0 0 0 0 0 0 131072</internalNodes>
          <leafValues>
            -7.5894152073985310e-16 2.6020852139652106e-17</leafValues></_>
        <_>
          <internalNodes>
            0 -1 0 -1 -1 -1 -1 -1 -1 -1 2147483647</internalNodes>
          <leafValues>
            -2.3707888387342350e-16 7.6761513811973714e-16</leafValues></_>
        <_>
          <internalNodes>
            0 -1 0 0 0 0 0 0 0 0 -2147483648</internalNodes>
          <leafValues>
            -6.2016364266170854e-16 1.1275702593849246e-16</leafValues></_>
        <_>
          <internalNodes>
            0 -1 1 -4097 -1 -1 -1073741825 -1 -1 -1 -1</internalNodes>
          <leafValues>
            -3.4694469519536142e-17 2.2985086056692694e-16</leafValues></_>
        <_>
          <internalNodes>
            0 -1 5 0 268435456 0 0 0 0 0 0</internalNodes>
          <leafValues>
            -1.7636354897934545e-16 1.9515639104739080e-16</leafValues></_>
        <_>
          <internalNodes>
            0 -1 1 -4097 -1 -1 -1073741825 -16777217 -1 -1 -1</internalNodes>
          <leafValues>
            -1.3010426069826053e-17 4.6259291589807372e-17</leafValues></_>
        <_>
          <internalNodes>
            0 -1 1 -4097 -1 -1 -1073741825 -16777217 -1 -1 -1</internalNodes>
          <leafValues>
            -1.3010426069826053e-17 4.6259291589807372e-17</leafValues></_>
        <_>
          <internalNodes>
            0 -1 1 -4097 -1 -1 -1073741825 -16777217 -1 -1 -1</internalNodes>
          <leafValues>
            -1.3010426069826053e-17 4.6259291589807372e-17</leafValues></_>
        <_>
          <internalNodes>
            0 -1 1 -4097 -1 -1 -1073741825 -16777217 -1 -1 -1</internalNodes>
          <leafValues>
            -1.3010426069826053e-17 4.6259291589807372e-17</leafValues></_>
        <_>
          <internalNodes>
            0 -1 1 -4097 -1 -1 -1073741825 -16777217 -1 -1 -1</internalNodes>
          <leafValues>
            -1.3010426069826053e-17 4.6259291589807372e-17</leafValues></_>
        <_>
          <internalNodes>
            0 -1 1 -4097 -1 -1 -1073741825 -16777217 -1 -1 -1</internalNodes>
          <leafValues>
            -1.3010426069826053e-17 4.6259291589807372e-17</leafValues></_>
        <_>
          <internalNodes>
            0 -1 1 -4097 -1 -1 -1073741825 -16777217 -1 -1 -1</internalNodes>
          <leafValues>
            -1.3010426069826053e-17 4.6259291589807372e-17</leafValues></_>
        <_>
          <internalNodes>
            0 -1 1 -4097 -1 -1 -1073741825 -16777217 -1 -1 -1</internalNodes>
          <leafValues>
            -1.3010426069826053e-17 4.6259291589807372e-17</leafValues></_>
        <_>
          <internalNodes>
            0 -1 1 -4097 -1 -1 -1073741825 -16777217 -1 -1 -1</internalNodes>
          <leafValues>
            -1.3010426069826053e-17 4.6259291589807372e-17</leafValues></_>
        <_>
          <internalNodes>
            0 -1 1 -4097 -1 -1 -1073741825 -16777217 -1 -1 -1</internalNodes>
          <leafValues>
            -1.3010426069826053e-17 4.6259291589807372e-17</leafValues></_>
        <_>
          <internalNodes>
            0 -1 1 -4097 -1 -1 -1073741825 -16777217 -1 -1 -1</internalNodes>
          <leafValues>
            -1.3010426069826053e-17 4.6259291589807372e-17</leafValues></_>
        <_>
          <internalNodes>
            0 -1 1 -4097 -1 -1 -1073741825 -16777217 -1 -1 -1</internalNodes>
          <leafValues>
            -1.3010426069826053e-17 4.6259291589807372e-17</leafValues></_>
        <_>
          <internalNodes>
            0 -1 1 -4097 -1 -1 -1073741825 -16777217 -1 -1 -1</internalNodes>
          <leafValues>
            -1.3010426069826053e-17 4.6259291589807372e-17</leafValues></_>
        <_>
          <internalNodes>
            0 -1 1 -4097 -1 -1 -1073741825 -16777217 -1 -1 -1</internalNodes>
          <leafValues>
            -1.3010426069826053e-17 4.6259291589807372e-17</leafValues></_>
        <_>
          <internalNodes>
            0 -1 1 -4097 -1 -1 -1073741825 -16777217 -1 -1 -1</internalNodes>
          <leafValues>
            -1.3010426069826053e-17 4.6259291589807372e-17</leafValues></_>
        <_>
          <internalNodes>
            0 -1 1 -4097 -1 -1 -1073741825 -16777217 -1 -1 -1</internalNodes>
          <leafValues>
            -1.3010426069826053e-17 4.6259291589807372e-17</leafValues></_>
        <_>
          <internalNodes>
            0 -1 1 -4097 -1 -1 -1073741825 -16777217 -1 -1 -1</internalNodes>
          <leafValues>
            -1.3010426069826053e-17 4.6259291589807372e-17</leafValues></_>
        <_>
          <internalNodes>
            0 -1 1 -4097 -1 -1 -1073741825 -16777217 -1 -1 -1</internalNodes>
          <leafValues>
            -1.3010426069826053e-17 4.6259291589807372e-17</leafValues></_>
        <_>
          <internalNodes>
            0 -1 1 -4097 -1 -1 -1073741825 -16777217 -1 -1 -1</internalNodes>
          <leafValues>
            -1.3010426069826053e-17 4.6259291589807372e-17</leafValues></_>
        <_>
          <internalNodes>
            0 -1 1 -4097 -1 -1 -1073741825 -16777217 -1 -1 -1</internalNodes>
          <leafValues>
            -1.3010426069826053e-17 4.6259291589807372e-17</leafValues></_>
        <_>
          <internalNodes>
            0 -1 1 -4097 -1 -1 -1073741825 -16777217 -1 -1 -1</internalNodes>
          <leafValues>
            -1.3010426069826053e-17 4.6259291589807372e-17</leafValues></_>
        <_>
          <internalNodes>
            0 -1 1 -4097 -1 -1 -1073741825 -16777217 -1 -1 -1</internalNodes>
          <leafValues>
            -1.3010426069826053e-17 4.6259291589807372e-17</leafValues></_>
        <_>
          <internalNodes>
            0 -1 1 -4097 -1 -1 -1073741825 -16777217 -1 -1 -1</internalNodes>
          <leafValues>
            -1.3010426069826053e-17 4.6259291589807372e-17</leafValues></_>
        <_>
          <internalNodes>
            0 -1 1 -4097 -1 -1 -1073741825 -16777217 -1 -1 -1</internalNodes>
          <leafValues>
            -1.3010426069826053e-17 4.6259291589807372e-17</leafValues></_>
        <_>
          <internalNodes>
            0 -1 1 -4097 -1 -1 -1073741825 -16777217 -1 -1 -1</internalNodes>
          <leafValues>
            -1.3010426069826053e-17 4.6259291589807372e-17</leafValues></_>
        <_>
          <internalNodes>
            0 -1 1 -4097 -1 -1 -1073741825 -16777217 -1 -1 -1</internalNodes>
          <leafValues>
            -1.3010426069826053e-17 4.6259291589807372e-17</leafValues></_>
        <_>
          <internalNodes>
            0 -1 1 -4097 -1 -1 -1073741825 -16777217 -1 -1 -1</internalNodes>
          <leafValues>
            -1.3010426069826053e-17 4.6259291589807372e-17</leafValues></_>
        <_>
          <internalNodes>
            0 -1 1 -4097 -1 -1 -1073741825 -16777217 -1 -1 -1</internalNodes>
          <leafValues>
            -1.3010426069826053e-17 4.6259291589807372e-17</leafValues></_>
        <_>
          <internalNodes>
            0 -1 1 -4097 -1 -1 -1073741825 -16777217 -1 -1 -1</internalNodes>
          <leafValues>
            -1.3010426069826053e-17 4.6259291589807372e-17</leafValues></_>
        <_>
          <internalNodes>
            0 -1 1 -4097 -1 -1 -1073741825 -16777217 -1 -1 -1</internalNodes>
          <leafValues>
            -1.3010426069826053e-17 4.6259291589807372e-17</leafValues></_>
        <_>
          <internalNodes>
            0 -1 1 -4097 -1 -1 -1073741825 -16777217 -1 -1 -1</internalNodes>
          <leafValues>
            -1.3010426069826053e-17 4.6259291589807372e-17</leafValues></_>
        <_>
          <internalNodes>
            0 -1 1 -4097 -1 -1 -1073741825 -16777217 -1 -1 -1</internalNodes>
          <leafValues>
            -1.3010426069826053e-17 4.6259291589807372e-17</leafValues></_>
        <_>
          <internalNodes>
            0 -1 1 -4097 -1 -1 -1073741825 -16777217 -1 -1 -1</internalNodes>
          <leafValues>
            -1.3010426069826053e-17 4.6259291589807372e-17</leafValues></_>
        <_>
          <internalNodes>
            0 -1 1 -4097 -1 -1 -1073741825 -16777217 -1 -1 -1</internalNodes>
          <leafValues>
            -1.3010426069826053e-17 4.6259291589807372e-17</leafValues></_>
        <_>
          <internalNodes>
            0 -1 1 -4097 -1 -1 -1073741825 -16777217 -1 -1 -1</internalNodes>
          <leafValues>
            -1.3010426069826053e-17 4.6259291589807372e-17</leafValues></_>
        <_>
          <internalNodes>
            0 -1 1 -4097 -1 -1 -1073741825 -16777217 -1 -1 -1</internalNodes>
          <leafValues>
            -1.3010426069826053e-17 4.6259291589807372e-17</leafValues></_>
        <_>
          <internalNodes>
            0 -1 1 -4097 -1 -1 -1073741825 -16777217 -1 -1 -1</internalNodes>
          <leafValues>
            -1.3010426069826053e-17 4.6259291589807372e-17</leafValues></_>
        <_>
          <internalNodes>
            0 -1 1 -4097 -1 -1 -1073741825 -16777217 -1 -1 -1</internalNodes>
          <leafValues>
            -1.3010426069826053e-17 4.6259291589807372e-17</leafValues></_>
        <_>
          <internalNodes>
            0 -1 1 -4097 -1 -1 -1073741825 -16777217 -1 -1 -1</internalNodes>
          <leafValues>
            -1.3010426069826053e-17 4.6259291589807372e-17</leafValues></_>
        <_>
          <internalNodes>
            0 -1 1 -4097 -1 -1 -1073741825 -16777217 -1 -1 -1</internalNodes>
          <leafValues>
            -1.3010426069826053e-17 4.6259291589807372e-17</leafValues></_>
        <_>
          <internalNodes>
            0 -1 1 -4097 -1 -1 -1073741825 -16777217 -1 -1 -1</internalNodes>
          <leafValues>
            -1.3010426069826053e-17 4.6259291589807372e-17</leafValues></_>
        <_>
          <internalNodes>
            0 -1 1 -4097 -1 -1 -1073741825 -16777217 -1 -1 -1</internalNodes>
          <leafValues>
            -1.3010426069826053e-17 4.6259291589807372e-17</leafValues></_>
        <_>
          <internalNodes>
            0 -1 1 -4097 -1 -1 -1073741825 -16777217 -1 -1 -1</internalNodes>
          <leafValues>
            -1.3010426069826053e-17 4.6259291589807372e-17</leafValues></_>
        <_>
          <internalNodes>
            0 -1 1 -4097 -1 -1 -1073741825 -16777217 -1 -1 -1</internalNodes>
          <leafValues>
            -1.3010426069826053e-17 4.6259291589807372e-17</leafValues></_>
        <_>
          <internalNodes>
            0 -1 1 -4097 -1 -1 -1073741825 -16777217 -1 -1 -1</internalNodes>
          <leafValues>
            -1.3010426069826053e-17 4.6259291589807372e-17</leafValues></_>
        <_>
          <internalNodes>
            0 -1 1 -4097 -1 -1 -1073741825 -16777217 -1 -1 -1</internalNodes>
          <leafValues>
            -1.3010426069826053e-17 4.6259291589807372e-17</leafValues></_>
        <_>
          <internalNodes>
            0 -1 1 -4097 -1 -1 -1073741825 -16777217 -1 -1 -1</internalNodes>
          <leafValues>
            -1.3010426069826053e-17 4.6259291589807372e-17</leafValues></_>
        <_>
          <internalNodes>
            0 -1 1 -4097 -1 -1 -1073741825 -16777217 -1 -1 -1</internalNodes>
          <leafValues>
            -1.3010426069826053e-17 4.6259291589807372e-17</leafValues></_>
        <_>
          <internalNodes>
            0 -1 1 -4097 -1 -1 -1073741825 -16777217 -1 -1 -1</internalNodes>
          <leafValues>
            -1.3010426069826053e-17 4.6259291589807372e-17</leafValues></_>
        <_>
          <internalNodes>
            0 -1 1 -4097 -1 -1 -1073741825 -16777217 -1 -1 -1</internalNodes>
          <leafValues>
            -1.3010426069826053e-17 4.6259291589807372e-17</leafValues></_>
        <_>
          <internalNodes>
            0 -1 1 -4097 -1 -1 -1073741825 -16777217 -1 -1 -1</internalNodes>
          <leafValues>
            -1.3010426069826053e-17 4.6259291589807372e-17</leafValues></_>
        <_>
          <internalNodes>
            0 -1 1 -4097 -1 -1 -1073741825 -16777217 -1 -1 -1</internalNodes>
          <leafValues>
            -1.3010426069826053e-17 4.6259291589807372e-17</leafValues></_>
        <_>
          <internalNodes>
            0 -1 1 -4097 -1 -1 -1073741825 -16777217 -1 -1 -1</internalNodes>
          <leafValues>
            -1.3010426069826053e-17 4.6259291589807372e-17</leafValues></_>
        <_>
          <internalNodes>
            0 -1 1 -4097 -1 -1 -1073741825 -16777217 -1 -1 -1</internalNodes>
          <leafValues>
            -1.3010426069826053e-17 4.6259291589807372e-17</leafValues></_>
        <_>
          <internalNodes>
            0 -1 1 -4097 -1 -1 -1073741825 -16777217 -1 -1 -1</internalNodes>
          <leafValues>
            -1.3010426069826053e-17 4.6259291589807372e-17</leafValues></_>
        <_>
          <internalNodes>
            0 -1 1 -4097 -1 -1 -1073741825 -16777217 -1 -1 -1</internalNodes>
          <leafValues>
            -1.3010426069826053e-17 4.6259291589807372e-17</leafValues></_>
        <_>
          <internalNodes>
            0 -1 1 -4097 -1 -1 -1073741825 -16777217 -1 -1 -1</internalNodes>
          <leafValues>
            -1.3010426069826053e-17 4.6259291589807372e-17</leafValues></_>
        <_>
          <internalNodes>
            0 -1 1 -4097 -1 -1 -1073741825 -16777217 -1 -1 -1</internalNodes>
          <leafValues>
            -1.3010426069826053e-17 4.6259291589807372e-17</leafValues></_>
        <_>
          <internalNodes>
            0 -1 1 -4097 -1 -1 -1073741825 -16777217 -1 -1 -1</internalNodes>
          <leafValues>
            -1.3010426069826053e-17 4.6259291589807372e-17</leafValues></_>
        <_>
          <internalNodes>
            0 -1 1 -4097 -1 -1 -1073741825 -16777217 -1 -1 -1</internalNodes>
          <leafValues>
            -1.3010426069826053e-17 4.6259291589807372e-17</leafValues></_>
        <_>
          <internalNodes>
            0 -1 1 -4097 -1 -1 -1073741825 -16777217 -1 -1 -1</internalNodes>
          <leafValues>
            -1.3010426069826053e-17 4.6259291589807372e-17</leafValues></_>
        <_>
          <internalNodes>
            0 -1 1 -4097 -1 -1 -1073741825 -16777217 -1 -1 -1</internalNodes>
          <leafValues>
            -1.3010426069826053e-17 4.6259291589807372e-17</leafValues></_>
        <_>
          <internalNodes>
            0 -1 1 -4097 -1 -1 -1073741825 -16777217 -1 -1 -1</internalNodes>
          <leafValues>
            -1.3010426069826053e-17 4.6259291589807372e-17</leafValues></_>
        <_>
          <internalNodes>
            0 -1 1 -4097 -1 -1 -1073741825 -16777217 -1 -1 -1</internalNodes>
          <leafValues>
            -1.3010426069826053e-17 4.6259291589807372e-17</leafValues></_>
        <_>
          <internalNodes>
            0 -1 1 -4097 -1 -1 -1073741825 -16777217 -1 -1 -1</internalNodes>
          <leafValues>
            -1.3010426069826053e-17 4.6259291589807372e-17</leafValues></_>
        <_>
          <internalNodes>
            0 -1 1 -4097 -1 -1 -1073741825 -16777217 -1 -1 -1</internalNodes>
          <leafValues>
            -1.3010426069826053e-17 4.6259291589807372e-17</leafValues></_>
        <_>
          <internalNodes>
            0 -1 1 -4097 -1 -1 -1073741825 -16777217 -1 -1 -1</internalNodes>
          <leafValues>
            -1.3010426069826053e-17 4.6259291589807372e-17</leafValues></_>
        <_>
          <internalNodes>
            0 -1 1 -4097 -1 -1 -1073741825 -16777217 -1 -1 -1</internalNodes>
          <leafValues>
            -1.3010426069826053e-17 4.6259291589807372e-17</leafValues></_>
        <_>
          <internalNodes>
            0 -1 1 -4097 -1 -1 -1073741825 -16777217 -1 -1 -1</internalNodes>
          <leafValues>
            -1.3010426069826053e-17 4.6259291589807372e-17</leafValues></_>
        <_>
          <internalNodes>
            0 -1 1 -4097 -1 -1 -1073741825 -16777217 -1 -1 -1</internalNodes>
          <leafValues>
            -1.3010426069826053e-17 4.6259291589807372e-17</leafValues></_>
        <_>
          <internalNodes>
            0 -1 1 -4097 -1 -1 -1073741825 -16777217 -1 -1 -1</internalNodes>
          <leafValues>
            -1.3010426069826053e-17 4.6259291589807372e-17</leafValues></_>
        <_>
          <internalNodes>
            0 -1 1 -4097 -1 -1 -1073741825 -16777217 -1 -1 -1</internalNodes>
          <leafValues>
            -1.3010426069826053e-17 4.6259291589807372e-17</leafValues></_>
        <_>
          <internalNodes>
            0 -1 1 -4097 -1 -1 -1073741825 -16777217 -1 -1 -1</internalNodes>
          <leafValues>
            -1.3010426069826053e-17 4.6259291589807372e-17</leafValues></_>
        <_>
          <internalNodes>
            0 -1 1 -4097 -1 -1 -1073741825 -16777217 -1 -1 -1</internalNodes>
          <leafValues>
            -1.3010426069826053e-17 4.6259291589807372e-17</leafValues></_>
        <_>
          <internalNodes>
            0 -1 1 -4097 -1 -1 -1073741825 -16777217 -1 -1 -1</internalNodes>
          <leafValues>
            -1.3010426069826053e-17 4.6259291589807372e-17</leafValues></_>
        <_>
          <internalNodes>
            0 -1 1 -4097 -1 -1 -1073741825 -16777217 -1 -1 -1</internalNodes>
          <leafValues>
            -1.3010426069826053e-17 4.6259291589807372e-17</leafValues></_>
        <_>
          <internalNodes>
            0 -1 1 -4097 -1 -1 -1073741825 -16777217 -1 -1 -1</internalNodes>
          <leafValues>
            -1.3010426069826053e-17 4.6259291589807372e-17</leafValues></_>
        <_>
          <internalNodes>
            0 -1 1 -4097 -1 -1 -1073741825 -16777217 -1 -1 -1</internalNodes>
          <leafValues>
            -1.3010426069826053e-17 4.6259291589807372e-17</leafValues></_>
        <_>
          <internalNodes>
            0 -1 1 -4097 -1 -1 -1073741825 -16777217 -1 -1 -1</internalNodes>
          <leafValues>
            -1.3010426069826053e-17 4.6259291589807372e-17</leafValues></_>
        <_>
          <internalNodes>
            0 -1 1 -4097 -1 -1 -1073741825 -16777217 -1 -1 -1</internalNodes>
          <leafValues>
            -1.3010426069826053e-17 4.6259291589807372e-17</leafValues></_>
        <_>
          <internalNodes>
            0 -1 1 -4097 -1 -1 -1073741825 -16777217 -1 -1 -1</internalNodes>
          <leafValues>
            -1.3010426069826053e-17 4.6259291589807372e-17</leafValues></_>
        <_>
          <internalNodes>
            0 -1 1 -4097 -1 -1 -1073741825 -16777217 -1 -1 -1</internalNodes>
          <leafValues>
            -1.3010426069826053e-17 4.6259291589807372e-17</leafValues></_>
        <_>
          <internalNodes>
            0 -1 1 -4097 -1 -1 -1073741825 -16777217 -1 -1 -1</internalNodes>
          <leafValues>
            -1.3010426069826053e-17 4.6259291589807372e-17</leafValues></_>
        <_>
          <internalNodes>
            0 -1 1 -4097 -1 -1 -1073741825 -16777217 -1 -1 -1</internalNodes>
          <leafValues>
            -1.3010426069826053e-17 4.6259291589807372e-17</leafValues></_>
        <_>
          <internalNodes>
            0 -1 1 -4097 -1 -1 -1073741825 -16777217 -1 -1 -1</internalNodes>
          <leafValues>
            -1.3010426069826053e-17 4.6259291589807372e-17</leafValues></_>
        <_>
          <internalNodes>
            0 -1 1 -4097 -1 -1 -1073741825 -16777217 -1 -1 -1</internalNodes>
          <leafValues>
            -1.3010426069826053e-17 4.6259291589807372e-17</leafValues></_>
        <_>
          <internalNodes>
            0 -1 1 -4097 -1 -1 -1073741825 -16777217 -1 -1 -1</internalNodes>
          <leafValues>
            -1.3010426069826053e-17 4.6259291589807372e-17</leafValues></_>
        <_>
          <internalNodes>
            0 -1 1 -4097 -1 -1 -1073741825 -16777217 -1 -1 -1</internalNodes>
          <leafValues>
            -1.3010426069826053e-17 4.6259291589807372e-17</leafValues></_>
        <_>
          <internalNodes>
            0 -1 1 -4097 -1 -1 -1073741825 -16777217 -1 -1 -1</internalNodes>
          <leafValues>
            -1.3010426069826053e-17 4.6259291589807372e-17</leafValues></_>
        <_>
          <internalNodes>
            0 -1 1 -4097 -1 -1 -1073741825 -16777217 -1 -1 -1</internalNodes>
          <leafValues>
            -1.3010426069826053e-17 4.6259291589807372e-17</leafValues></_></weakClassifiers></_>
    <!-- stage 3 -->
    <_>
      <maxWeakCount>100</maxWeakCount>
      <stageThreshold>-1.3195286989212036e+00</stageThreshold>
      <weakClassifiers>
        <_>
          <internalNodes>
            0 -1 0 0 0 0 0 0 0 0 -2147483648</internalNodes>
          <leafValues>
            -8.6666667461395264e-01 -8.6666667461395264e-01</leafValues></_>
        <_>
          <internalNodes>
            0 -1 0 1 0 0 268435456 0 0 0 0</internalNodes>
          <leafValues>
            -4.2424872517585754e-01 -4.2424872517585754e-01</leafValues></_>
        <_>
          <internalNodes>
            0 -1 0 0 0 0 0 32768 0 0 0</internalNodes>
          <leafValues>
            -2.8605464845895767e-02 -2.8605464845895767e-02</leafValues></_>
        <_>
          <internalNodes>
            0 -1 0 0 0 0 0 0 0 0 -2147483648</internalNodes>
          <leafValues>
            -7.8061884778435342e-06 -7.8061884778435342e-06</leafValues></_>
        <_>
          <internalNodes>
            0 -1 4 0 0 0 0 0 0 0 268435456</internalNodes>
          <leafValues>
            -5.9847959921199845e-16 1.7997756063259374e-16</leafValues></_>
        <_>
          <internalNodes>
            0 -1 6 0 0 0 0 0 0 0 131072</internalNodes>
          <leafValues>
            -7.5894152073985310e-16 2.6020852139652106e-17</leafValues></_>
        <_>
          <internalNodes>
            0 -1 0 -1 -1 -1 -1 -1 -1 -1 2147483647</internalNodes>
          <leafValues>
            -2.3707888387342350e-16 7.6761513811973714e-16</leafValues></_>
        <_>
          <internalNodes>
            0 -1 0 0 0 0 0 0 0 0 -2147483648</internalNodes>
          <leafValues>
            -6.2016364266170854e-16 1.1275702593849246e-16</leafValues></_>
        <_>
          <internalNodes>
            0 -1 1 -4097 -1 -1 -1073741825 -1 -1 -1 -1</internalNodes>
          <leafValues>
            -3.4694469519536142e-17 2.2985086056692694e-16</leafValues></_>
        <_>
          <internalNodes>
            0 -1 5 0 268435456 0 0 0 0 0 0</internalNodes>
          <leafValues>
            -1.7636354897934545e-16 1.9515639104739080e-16</leafValues></_>
        <_>
          <internalNodes>
            0 -1 1 -4097 -1 -1 -1073741825 -16777217 -1 -1 -1</internalNodes>
          <leafValues>
            -1.3010426069826053e-17 4.6259291589807372e-17</leafValues></_>
        <_>
          <internalNodes>
            0 -1 1 -4097 -1 -1 -1073741825 -16777217 -1 -1 -1</internalNodes>
          <leafValues>
            -1.3010426069826053e-17 4.6259291589807372e-17</leafValues></_>
        <_>
          <internalNodes>
            0 -1 1 -4097 -1 -1 -1073741825 -16777217 -1 -1 -1</internalNodes>
          <leafValues>
            -1.3010426069826053e-17 4.6259291589807372e-17</leafValues></_>
        <_>
          <internalNodes>
            0 -1 1 -4097 -1 -1 -1073741825 -16777217 -1 -1 -1</internalNodes>
          <leafValues>
            -1.3010426069826053e-17 4.6259291589807372e-17</leafValues></_>
        <_>
          <internalNodes>
            0 -1 1 -4097 -1 -1 -1073741825 -16777217 -1 -1 -1</internalNodes>
          <leafValues>
            -1.3010426069826053e-17 4.6259291589807372e-17</leafValues></_>
        <_>
          <internalNodes>
            0 -1 1 -4097 -1 -1 -1073741825 -16777217 -1 -1 -1</internalNodes>
          <leafValues>
            -1.3010426069826053e-17 4.6259291589807372e-17</leafValues></_>
        <_>
          <internalNodes>
            0 -1 1 -4097 -1 -1 -1073741825 -16777217 -1 -1 -1</internalNodes>
          <leafValues>
            -1.3010426069826053e-17 4.6259291589807372e-17</leafValues></_>
        <_>
          <internalNodes>
            0 -1 1 -4097 -1 -1 -1073741825 -16777217 -1 -1 -1</internalNodes>
          <leafValues>
            -1.3010426069826053e-17 4.6259291589807372e-17</leafValues></_>
        <_>
          <internalNodes>
            0 -1 1 -4097 -1 -1 -1073741825 -16777217 -1 -1 -1</internalNodes>
          <leafValues>
            -1.3010426069826053e-17 4.6259291589807372e-17</leafValues></_>
        <_>
          <internalNodes>
            0 -1 1 -4097 -1 -1 -1073741825 -16777217 -1 -1 -1</internalNodes>
          <leafValues>
            -1.3010426069826053e-17 4.6259291589807372e-17</leafValues></_>
        <_>
          <internalNodes>
            0 -1 1 -4097 -1 -1 -1073741825 -16777217 -1 -1 -1</internalNodes>
          <leafValues>
            -1.3010426069826053e-17 4.6259291589807372e-17</leafValues></_>
        <_>
          <internalNodes>
            0 -1 1 -4097 -1 -1 -1073741825 -16777217 -1 -1 -1</internalNodes>
          <leafValues>
            -1.3010426069826053e-17 4.6259291589807372e-17</leafValues></_>
        <_>
          <internalNodes>
            0 -1 1 -4097 -1 -1 -1073741825 -16777217 -1 -1 -1</internalNodes>
          <leafValues>
            -1.3010426069826053e-17 4.6259291589807372e-17</leafValues></_>
        <_>
          <internalNodes>
            0 -1 1 -4097 -1 -1 -1073741825 -16777217 -1 -1 -1</internalNodes>
          <leafValues>
            -1.3010426069826053e-17 4.6259291589807372e-17</leafValues></_>
        <_>
          <internalNodes>
            0 -1 1 -4097 -1 -1 -1073741825 -16777217 -1 -1 -1</internalNodes>
          <leafValues>
            -1.3010426069826053e-17 4.6259291589807372e-17</leafValues></_>
        <_>
          <internalNodes>
            0 -1 1 -4097 -1 -1 -1073741825 -16777217 -1 -1 -1</internalNodes>
          <leafValues>
            -1.3010426069826053e-17 4.6259291589807372e-17</leafValues></_>
        <_>
          <internalNodes>
            0 -1 1 -4097 -1 -1 -1073741825 -16777217 -1 -1 -1</internalNodes>
          <leafValues>
            -1.3010426069826053e-17 4.6259291589807372e-17</leafValues></_>
        <_>
          <internalNodes>
            0 -1 1 -4097 -1 -1 -1073741825 -16777217 -1 -1 -1</internalNodes>
          <leafValues>
            -1.3010426069826053e-17 4.6259291589807372e-17</leafValues></_>
        <_>
          <internalNodes>
            0 -1 1 -4097 -1 -1 -1073741825 -16777217 -1 -1 -1</internalNodes>
          <leafValues>
            -1.3010426069826053e-17 4.6259291589807372e-17</leafValues></_>
        <_>
          <internalNodes>
            0 -1 1 -4097 -1 -1 -1073741825 -16777217 -1 -1 -1</internalNodes>
          <leafValues>
            -1.3010426069826053e-17 4.6259291589807372e-17</leafValues></_>
        <_>
          <internalNodes>
            0 -1 1 -4097 -1 -1 -1073741825 -16777217 -1 -1 -1</internalNodes>
          <leafValues>
            -1.3010426069826053e-17 4.6259291589807372e-17</leafValues></_>
        <_>
          <internalNodes>
            0 -1 1 -4097 -1 -1 -1073741825 -16777217 -1 -1 -1</internalNodes>
          <leafValues>
            -1.3010426069826053e-17 4.6259291589807372e-17</leafValues></_>
        <_>
          <internalNodes>
            0 -1 1 -4097 -1 -1 -1073741825 -16777217 -1 -1 -1</internalNodes>
          <leafValues>
            -1.3010426069826053e-17 4.6259291589807372e-17</leafValues></_>
        <_>
          <internalNodes>
            0 -1 1 -4097 -1 -1 -1073741825 -16777217 -1 -1 -1</internalNodes>
          <leafValues>
            -1.3010426069826053e-17 4.6259291589807372e-17</leafValues></_>
        <_>
          <internalNodes>
            0 -1 1 -4097 -1 -1 -1073741825 -16777217 -1 -1 -1</internalNodes>
          <leafValues>
            -1.3010426069826053e-17 4.6259291589807372e-17</leafValues></_>
        <_>
          <internalNodes>
            0 -1 1 -4097 -1 -1 -1073741825 -16777217 -1 -1 -1</internalNodes>
          <leafValues>
            -1.3010426069826053e-17 4.6259291589807372e-17</leafValues></_>
        <_>
          <internalNodes>
            0 -1 1 -4097 -1 -1 -1073741825 -16777217 -1 -1 -1</internalNodes>
          <leafValues>
            -1.3010426069826053e-17 4.6259291589807372e-17</leafValues></_>
        <_>
          <internalNodes>
            0 -1 1 -4097 -1 -1 -1073741825 -16777217 -1 -1 -1</internalNodes>
          <leafValues>
            -1.3010426069826053e-17 4.6259291589807372e-17</leafValues></_>
        <_>
          <internalNodes>
            0 -1 1 -4097 -1 -1 -1073741825 -16777217 -1 -1 -1</internalNodes>
          <leafValues>
            -1.3010426069826053e-17 4.6259291589807372e-17</leafValues></_>
        <_>
          <internalNodes>
            0 -1 1 -4097 -1 -1 -1073741825 -16777217 -1 -1 -1</internalNodes>
          <leafValues>
            -1.3010426069826053e-17 4.6259291589807372e-17</leafValues></_>
        <_>
          <internalNodes>
            0 -1 1 -4097 -1 -1 -1073741825 -16777217 -1 -1 -1</internalNodes>
          <leafValues>
            -1.3010426069826053e-17 4.6259291589807372e-17</leafValues></_>
        <_>
          <internalNodes>
            0 -1 1 -4097 -1 -1 -1073741825 -16777217 -1 -1 -1</internalNodes>
          <leafValues>
            -1.3010426069826053e-17 4.6259291589807372e-17</leafValues></_>
        <_>
          <internalNodes>
            0 -1 1 -4097 -1 -1 -1073741825 -16777217 -1 -1 -1</internalNodes>
          <leafValues>
            -1.3010426069826053e-17 4.6259291589807372e-17</leafValues></_>
        <_>
          <internalNodes>
            0 -1 1 -4097 -1 -1 -1073741825 -16777217 -1 -1 -1</internalNodes>
          <leafValues>
            -1.3010426069826053e-17 4.6259291589807372e-17</leafValues></_>
        <_>
          <internalNodes>
            0 -1 1 -4097 -1 -1 -1073741825 -16777217 -1 -1 -1</internalNodes>
          <leafValues>
            -1.3010426069826053e-17 4.6259291589807372e-17</leafValues></_>
        <_>
          <internalNodes>
            0 -1 1 -4097 -1 -1 -1073741825 -16777217 -1 -1 -1</internalNodes>
          <leafValues>
            -1.3010426069826053e-17 4.6259291589807372e-17</leafValues></_>
        <_>
          <internalNodes>
            0 -1 1 -4097 -1 -1 -1073741825 -16777217 -1 -1 -1</internalNodes>
          <leafValues>
            -1.3010426069826053e-17 4.6259291589807372e-17</leafValues></_>
        <_>
          <internalNodes>
            0 -1 1 -4097 -1 -1 -1073741825 -16777217 -1 -1 -1</internalNodes>
          <leafValues>
            -1.3010426069826053e-17 4.6259291589807372e-17</leafValues></_>
        <_>
          <internalNodes>
            0 -1 1 -4097 -1 -1 -1073741825 -16777217 -1 -1 -1</internalNodes>
          <leafValues>
            -1.3010426069826053e-17 4.6259291589807372e-17</leafValues></_>
        <_>
          <internalNodes>
            0 -1 1 -4097 -1 -1 -1073741825 -16777217 -1 -1 -1</internalNodes>
          <leafValues>
            -1.3010426069826053e-17 4.6259291589807372e-17</leafValues></_>
        <_>
          <internalNodes>
            0 -1 1 -4097 -1 -1 -1073741825 -16777217 -1 -1 -1</internalNodes>
          <leafValues>
            -1.3010426069826053e-17 4.6259291589807372e-17</leafValues></_>
        <_>
          <internalNodes>
            0 -1 1 -4097 -1 -1 -1073741825 -16777217 -1 -1 -1</internalNodes>
          <leafValues>
            -1.3010426069826053e-17 4.6259291589807372e-17</leafValues></_>
        <_>
          <internalNodes>
            0 -1 1 -4097 -1 -1 -1073741825 -16777217 -1 -1 -1</internalNodes>
          <leafValues>
            -1.3010426069826053e-17 4.6259291589807372e-17</leafValues></_>
        <_>
          <internalNodes>
            0 -1 1 -4097 -1 -1 -1073741825 -16777217 -1 -1 -1</internalNodes>
          <leafValues>
            -1.3010426069826053e-17 4.6259291589807372e-17</leafValues></_>
        <_>
          <internalNodes>
            0 -1 1 -4097 -1 -1 -1073741825 -16777217 -1 -1 -1</internalNodes>
          <leafValues>
            -1.3010426069826053e-17 4.6259291589807372e-17</leafValues></_>
        <_>
          <internalNodes>
            0 -1 1 -4097 -1 -1 -1073741825 -16777217 -1 -1 -1</internalNodes>
          <leafValues>
            -1.3010426069826053e-17 4.6259291589807372e-17</leafValues></_>
        <_>
          <internalNodes>
            0 -1 1 -4097 -1 -1 -1073741825 -16777217 -1 -1 -1</internalNodes>
          <leafValues>
            -1.3010426069826053e-17 4.6259291589807372e-17</leafValues></_>
        <_>
          <internalNodes>
            0 -1 1 -4097 -1 -1 -1073741825 -16777217 -1 -1 -1</internalNodes>
          <leafValues>
            -1.3010426069826053e-17 4.6259291589807372e-17</leafValues></_>
        <_>
          <internalNodes>
            0 -1 1 -4097 -1 -1 -1073741825 -16777217 -1 -1 -1</internalNodes>
          <leafValues>
            -1.3010426069826053e-17 4.6259291589807372e-17</leafValues></_>
        <_>
          <internalNodes>
            0 -1 1 -4097 -1 -1 -1073741825 -16777217 -1 -1 -1</internalNodes>
          <leafValues>
            -1.3010426069826053e-17 4.6259291589807372e-17</leafValues></_>
        <_>
          <internalNodes>
            0 -1 1 -4097 -1 -1 -1073741825 -16777217 -1 -1 -1</internalNodes>
          <leafValues>
            -1.3010426069826053e-17 4.6259291589807372e-17</leafValues></_>
        <_>
          <internalNodes>
            0 -1 1 -4097 -1 -1 -1073741825 -16777217 -1 -1 -1</internalNodes>
          <leafValues>
            -1.3010426069826053e-17 4.6259291589807372e-17</leafValues></_>
        <_>
          <internalNodes>
            0 -1 1 -4097 -1 -1 -1073741825 -16777217 -1 -1 -1</internalNodes>
          <leafValues>
            -1.3010426069826053e-17 4.6259291589807372e-17</leafValues></_>
        <_>
          <internalNodes>
            0 -1 1 -4097 -1 -1 -1073741825 -16777217 -1 -1 -1</internalNodes>
          <leafValues>
            -1.3010426069826053e-17 4.6259291589807372e-17</leafValues></_>
        <_>
          <internalNodes>
            0 -1 1 -4097 -1 -1 -1073741825 -16777217 -1 -1 -1</internalNodes>
          <leafValues>
            -1.3010426069826053e-17 4.6259291589807372e-17</leafValues></_>
        <_>
          <internalNodes>
            0 -1 1 -4097 -1 -1 -1073741825 -16777217 -1 -1 -1</internalNodes>
          <leafValues>
            -1.3010426069826053e-17 4.6259291589807372e-17</leafValues></_>
        <_>
          <internalNodes>
            0 -1 1 -4097 -1 -1 -1073741825 -16777217 -1 -1 -1</internalNodes>
          <leafValues>
            -1.3010426069826053e-17 4.6259291589807372e-17</leafValues></_>
        <_>
          <internalNodes>
            0 -1 1 -4097 -1 -1 -1073741825 -16777217 -1 -1 -1</internalNodes>
          <leafValues>
            -1.3010426069826053e-17 4.6259291589807372e-17</leafValues></_>
        <_>
          <internalNodes>
            0 -1 1 -4097 -1 -1 -1073741825 -16777217 -1 -1 -1</internalNodes>
          <leafValues>
            -1.3010426069826053e-17 4.6259291589807372e-17</leafValues></_>
        <_>
          <internalNodes>
            0 -1 1 -4097 -1 -1 -1073741825 -16777217 -1 -1 -1</internalNodes>
          <leafValues>
            -1.3010426069826053e-17 4.6259291589807372e-17</leafValues></_>
        <_>
          <internalNodes>
            0 -1 1 -4097 -1 -1 -1073741825 -16777217 -1 -1 -1</internalNodes>
          <leafValues>
            -1.3010426069826053e-17 4.6259291589807372e-17</leafValues></_>
        <_>
          <internalNodes>
            0 -1 1 -4097 -1 -1 -1073741825 -16777217 -1 -1 -1</internalNodes>
          <leafValues>
            -1.3010426069826053e-17 4.6259291589807372e-17</leafValues></_>
        <_>
          <internalNodes>
            0 -1 1 -4097 -1 -1 -1073741825 -16777217 -1 -1 -1</internalNodes>
          <leafValues>
            -1.3010426069826053e-17 4.6259291589807372e-17</leafValues></_>
        <_>
          <internalNodes>
            0 -1 1 -4097 -1 -1 -1073741825 -16777217 -1 -1 -1</internalNodes>
          <leafValues>
            -1.3010426069826053e-17 4.6259291589807372e-17</leafValues></_>
        <_>
          <internalNodes>
            0 -1 1 -4097 -1 -1 -1073741825 -16777217 -1 -1 -1</internalNodes>
          <leafValues>
            -1.3010426069826053e-17 4.6259291589807372e-17</leafValues></_>
        <_>
          <internalNodes>
            0 -1 1 -4097 -1 -1 -1073741825 -16777217 -1 -1 -1</internalNodes>
          <leafValues>
            -1.3010426069826053e-17 4.6259291589807372e-17</leafValues></_>
        <_>
          <internalNodes>
            0 -1 1 -4097 -1 -1 -1073741825 -16777217 -1 -1 -1</internalNodes>
          <leafValues>
            -1.3010426069826053e-17 4.6259291589807372e-17</leafValues></_>
        <_>
          <internalNodes>
            0 -1 1 -4097 -1 -1 -1073741825 -16777217 -1 -1 -1</internalNodes>
          <leafValues>
            -1.3010426069826053e-17 4.6259291589807372e-17</leafValues></_>
        <_>
          <internalNodes>
            0 -1 1 -4097 -1 -1 -1073741825 -16777217 -1 -1 -1</internalNodes>
          <leafValues>
            -1.3010426069826053e-17 4.6259291589807372e-17</leafValues></_>
        <_>
          <internalNodes>
            0 -1 1 -4097 -1 -1 -1073741825 -16777217 -1 -1 -1</internalNodes>
          <leafValues>
            -1.3010426069826053e-17 4.6259291589807372e-17</leafValues></_>
        <_>
          <internalNodes>
            0 -1 1 -4097 -1 -1 -1073741825 -16777217 -1 -1 -1</internalNodes>
          <leafValues>
            -1.3010426069826053e-17 4.6259291589807372e-17</leafValues></_>
        <_>
          <internalNodes>
            0 -1 1 -4097 -1 -1 -1073741825 -16777217 -1 -1 -1</internalNodes>
          <leafValues>
            -1.3010426069826053e-17 4.6259291589807372e-17</leafValues></_>
        <_>
          <internalNodes>
            0 -1 1 -4097 -1 -1 -1073741825 -16777217 -1 -1 -1</internalNodes>
          <leafValues>
            -1.3010426069826053e-17 4.6259291589807372e-17</leafValues></_>
        <_>
          <internalNodes>
            0 -1 1 -4097 -1 -1 -1073741825 -16777217 -1 -1 -1</internalNodes>
          <leafValues>
            -1.3010426069826053e-17 4.6259291589807372e-17</leafValues></_>
        <_>
          <internalNodes>
            0 -1 1 -4097 -1 -1 -1073741825 -16777217 -1 -1 -1</internalNodes>
          <leafValues>
            -1.3010426069826053e-17 4.6259291589807372e-17</leafValues></_>
        <_>
          <internalNodes>
            0 -1 1 -4097 -1 -1 -1073741825 -16777217 -1 -1 -1</internalNodes>
          <leafValues>
            -1.3010426069826053e-17 4.6259291589807372e-17</leafValues></_>
        <_>
          <internalNodes>
            0 -1 1 -4097 -1 -1 -1073741825 -16777217 -1 -1 -1</internalNodes>
          <leafValues>
            -1.3010426069826053e-17 4.6259291589807372e-17</leafValues></_>
        <_>
          <internalNodes>
            0 -1 1 -4097 -1 -1 -1073741825 -16777217 -1 -1 -1</internalNodes>
          <leafValues>
            -1.3010426069826053e-17 4.6259291589807372e-17</leafValues></_>
        <_>
          <internalNodes>
            0 -1 1 -4097 -1 -1 -1073741825 -16777217 -1 -1 -1</internalNodes>
          <leafValues>
            -1.3010426069826053e-17 4.6259291589807372e-17</leafValues></_>
        <_>
          <internalNodes>
            0 -1 1 -4097 -1 -1 -1073741825 -16777217 -1 -1 -1</internalNodes>
          <leafValues>
            -1.3010426069826053e-17 4.6259291589807372e-17</leafValues></_>
        <_>
          <internalNodes>
            0 -1 1 -4097 -1 -1 -1073741825 -16777217 -1 -1 -1</internalNodes>
          <leafValues>
            -1.3010426069826053e-17 4.6259291589807372e-17</leafValues></_>
        <_>
          <internalNodes>
            0 -1 1 -4097 -1 -1 -1073741825 -16777217 -1 -1 -1</internalNodes>
          <leafValues>
            -1.3010426069826053e-17 4.6259291589807372e-17</leafValues></_>
        <_>
          <internalNodes>
            0 -1 1 -4097 -1 -1 -1073741825 -16777217 -1 -1 -1</internalNodes>
          <leafValues>
            -1.3010426069826053e-17 4.6259291589807372e-17</leafValues></_>
        <_>
          <internalNodes>
            0 -1 1 -4097 -1 -1 -1073741825 -16777217 -1 -1 -1</internalNodes>
          <leafValues>
            -1.3010426069826053e-17 4.6259291589807372e-17</leafValues></_>
        <_>
          <internalNodes>
            0 -1 1 -4097 -1 -1 -1073741825 -16777217 -1 -1 -1</internalNodes>
          <leafValues>
            -1.3010426069826053e-17 4.6259291589807372e-17</leafValues></_>
        <_>
          <internalNodes>
            0 -1 1 -4097 -1 -1 -1073741825 -16777217 -1 -1 -1</internalNodes>
          <leafValues>
            -1.3010426069826053e-17 4.6259291589807372e-17</leafValues></_>
        <_>
          <internalNodes>
            0 -1 1 -4097 -1 -1 -1073741825 -16777217 -1 -1 -1</internalNodes>
          <leafValues>
            -1.3010426069826053e-17 4.6259291589807372e-17</leafValues></_>
        <_>
          <internalNodes>
            0 -1 1 -4097 -1 -1 -1073741825 -16777217 -1 -1 -1</internalNodes>
          <leafValues>
            -1.3010426069826053e-17 4.6259291589807372e-17</leafValues></_>
        <_>
          <internalNodes>
            0 -1 1 -4097 -1 -1 -1073741825 -16777217 -1 -1 -1</internalNodes>
          <leafValues>
            -1.3010426069826053e-17 4.6259291589807372e-17</leafValues></_>
        <_>
          <internalNodes>
            0 -1 1 -4097 -1 -1 -1073741825 -16777217 -1 -1 -1</internalNodes>
          <leafValues>
            -1.3010426069826053e-17 4.6259291589807372e-17</leafValues></_></weakClassifiers></_>
    <!-- stage 4 -->
    <_>
      <maxWeakCount>100</maxWeakCount>
      <stageThreshold>-1.3195286989212036e+00</stageThreshold>
      <weakClassifiers>
        <_>
          <internalNodes>
            0 -1 0 0 0 0 0 0 0 0 -2147483648</internalNodes>
          <leafValues>
            -8.6666667461395264e-01 -8.6666667461395264e-01</leafValues></_>
        <_>
          <internalNodes>
            0 -1 0 1 0 0 268435456 0 0 0 0</internalNodes>
          <leafValues>
            -4.2424872517585754e-01 -4.2424872517585754e-01</leafValues></_>
        <_>
          <internalNodes>
            0 -1 0 0 0 0 0 32768 0 0 0</internalNodes>
          <leafValues>
            -2.8605464845895767e-02 -2.8605464845895767e-02</leafValues></_>
        <_>
          <internalNodes>
            0 -1 0 0 0 0 0 0 0 0 -2147483648</internalNodes>
          <leafValues>
            -7.8061884778435342e-06 -7.8061884778435342e-06</leafValues></_>
        <_>
          <internalNodes>
            0 -1 4 0 0 0 0 0 0 0 268435456</internalNodes>
          <leafValues>
            -5.9847959921199845e-16 1.7997756063259374e-16</leafValues></_>
        <_>
          <internalNodes>
            0 -1 6 0 0 0 0 0 0 0 131072</internalNodes>
          <leafValues>
            -7.5894152073985310e-16 2.6020852139652106e-17</leafValues></_>
        <_>
          <internalNodes>
            0 -1 0 -1 -1 -1 -1 -1 -1 -1 2147483647</internalNodes>
          <leafValues>
            -2.3707888387342350e-16 7.6761513811973714e-16</leafValues></_>
        <_>
          <internalNodes>
            0 -1 0 0 0 0 0 0 0 0 -2147483648</internalNodes>
          <leafValues>
            -6.2016364266170854e-16 1.1275702593849246e-16</leafValues></_>
        <_>
          <internalNodes>
            0 -1 1 -4097 -1 -1 -1073741825 -1 -1 -1 -1</internalNodes>
          <leafValues>
            -3.4694469519536142e-17 2.2985086056692694e-16</leafValues></_>
        <_>
          <internalNodes>
            0 -1 5 0 268435456 0 0 0 0 0 0</internalNodes>
          <leafValues>
            -1.7636354897934545e-16 1.9515639104739080e-16</leafValues></_>
        <_>
          <internalNodes>
            0 -1 1 -4097 -1 -1 -1073741825 -16777217 -1 -1 -1</internalNodes>
          <leafValues>
            -1.3010426069826053e-17 4.6259291589807372e-17</leafValues></_>
        <_>
          <internalNodes>
            0 -1 1 -4097 -1 -1 -1073741825 -16777217 -1 -1 -1</internalNodes>
          <leafValues>
            -1.3010426069826053e-17 4.6259291589807372e-17</leafValues></_>
        <_>
          <internalNodes>
            0 -1 1 -4097 -1 -1 -1073741825 -16777217 -1 -1 -1</internalNodes>
          <leafValues>
            -1.3010426069826053e-17 4.6259291589807372e-17</leafValues></_>
        <_>
          <internalNodes>
            0 -1 1 -4097 -1 -1 -1073741825 -16777217 -1 -1 -1</internalNodes>
          <leafValues>
            -1.3010426069826053e-17 4.6259291589807372e-17</leafValues></_>
        <_>
          <internalNodes>
            0 -1 1 -4097 -1 -1 -1073741825 -16777217 -1 -1 -1</internalNodes>
          <leafValues>
            -1.3010426069826053e-17 4.6259291589807372e-17</leafValues></_>
        <_>
          <internalNodes>
            0 -1 1 -4097 -1 -1 -1073741825 -16777217 -1 -1 -1</internalNodes>
          <leafValues>
            -1.3010426069826053e-17 4.6259291589807372e-17</leafValues></_>
        <_>
          <internalNodes>
            0 -1 1 -4097 -1 -1 -1073741825 -16777217 -1 -1 -1</internalNodes>
          <leafValues>
            -1.3010426069826053e-17 4.6259291589807372e-17</leafValues></_>
        <_>
          <internalNodes>
            0 -1 1 -4097 -1 -1 -1073741825 -16777217 -1 -1 -1</internalNodes>
          <leafValues>
            -1.3010426069826053e-17 4.6259291589807372e-17</leafValues></_>
        <_>
          <internalNodes>
            0 -1 1 -4097 -1 -1 -1073741825 -16777217 -1 -1 -1</internalNodes>
          <leafValues>
            -1.3010426069826053e-17 4.6259291589807372e-17</leafValues></_>
        <_>
          <internalNodes>
            0 -1 1 -4097 -1 -1 -1073741825 -16777217 -1 -1 -1</internalNodes>
          <leafValues>
            -1.3010426069826053e-17 4.6259291589807372e-17</leafValues></_>
        <_>
          <internalNodes>
            0 -1 1 -4097 -1 -1 -1073741825 -16777217 -1 -1 -1</internalNodes>
          <leafValues>
            -1.3010426069826053e-17 4.6259291589807372e-17</leafValues></_>
        <_>
          <internalNodes>
            0 -1 1 -4097 -1 -1 -1073741825 -16777217 -1 -1 -1</internalNodes>
          <leafValues>
            -1.3010426069826053e-17 4.6259291589807372e-17</leafValues></_>
        <_>
          <internalNodes>
            0 -1 1 -4097 -1 -1 -1073741825 -16777217 -1 -1 -1</internalNodes>
          <leafValues>
            -1.3010426069826053e-17 4.6259291589807372e-17</leafValues></_>
        <_>
          <internalNodes>
            0 -1 1 -4097 -1 -1 -1073741825 -16777217 -1 -1 -1</internalNodes>
          <leafValues>
            -1.3010426069826053e-17 4.6259291589807372e-17</leafValues></_>
        <_>
          <internalNodes>
            0 -1 1 -4097 -1 -1 -1073741825 -16777217 -1 -1 -1</internalNodes>
          <leafValues>
            -1.3010426069826053e-17 4.6259291589807372e-17</leafValues></_>
        <_>
          <internalNodes>
            0 -1 1 -4097 -1 -1 -1073741825 -16777217 -1 -1 -1</internalNodes>
          <leafValues>
            -1.3010426069826053e-17 4.6259291589807372e-17</leafValues></_>
        <_>
          <internalNodes>
            0 -1 1 -4097 -1 -1 -1073741825 -16777217 -1 -1 -1</internalNodes>
          <leafValues>
            -1.3010426069826053e-17 4.6259291589807372e-17</leafValues></_>
        <_>
          <internalNodes>
            0 -1 1 -4097 -1 -1 -1073741825 -16777217 -1 -1 -1</internalNodes>
          <leafValues>
            -1.3010426069826053e-17 4.6259291589807372e-17</leafValues></_>
        <_>
          <internalNodes>
            0 -1 1 -4097 -1 -1 -1073741825 -16777217 -1 -1 -1</internalNodes>
          <leafValues>
            -1.3010426069826053e-17 4.6259291589807372e-17</leafValues></_>
        <_>
          <internalNodes>
            0 -1 1 -4097 -1 -1 -1073741825 -16777217 -1 -1 -1</internalNodes>
          <leafValues>
            -1.3010426069826053e-17 4.6259291589807372e-17</leafValues></_>
        <_>
          <internalNodes>
            0 -1 1 -4097 -1 -1 -1073741825 -16777217 -1 -1 -1</internalNodes>
          <leafValues>
            -1.3010426069826053e-17 4.6259291589807372e-17</leafValues></_>
        <_>
          <internalNodes>
            0 -1 1 -4097 -1 -1 -1073741825 -16777217 -1 -1 -1</internalNodes>
          <leafValues>
            -1.3010426069826053e-17 4.6259291589807372e-17</leafValues></_>
        <_>
          <internalNodes>
            0 -1 1 -4097 -1 -1 -1073741825 -16777217 -1 -1 -1</internalNodes>
          <leafValues>
            -1.3010426069826053e-17 4.6259291589807372e-17</leafValues></_>
        <_>
          <internalNodes>
            0 -1 1 -4097 -1 -1 -1073741825 -16777217 -1 -1 -1</internalNodes>
          <leafValues>
            -1.3010426069826053e-17 4.6259291589807372e-17</leafValues></_>
        <_>
          <internalNodes>
            0 -1 1 -4097 -1 -1 -1073741825 -16777217 -1 -1 -1</internalNodes>
          <leafValues>
            -1.3010426069826053e-17 4.6259291589807372e-17</leafValues></_>
        <_>
          <internalNodes>
            0 -1 1 -4097 -1 -1 -1073741825 -16777217 -1 -1 -1</internalNodes>
          <leafValues>
            -1.3010426069826053e-17 4.6259291589807372e-17</leafValues></_>
        <_>
          <internalNodes>
            0 -1 1 -4097 -1 -1 -1073741825 -16777217 -1 -1 -1</internalNodes>
          <leafValues>
            -1.3010426069826053e-17 4.6259291589807372e-17</leafValues></_>
        <_>
          <internalNodes>
            0 -1 1 -4097 -1 -1 -1073741825 -16777217 -1 -1 -1</internalNodes>
          <leafValues>
            -1.3010426069826053e-17 4.6259291589807372e-17</leafValues></_>
        <_>
          <internalNodes>
            0 -1 1 -4097 -1 -1 -1073741825 -16777217 -1 -1 -1</internalNodes>
          <leafValues>
            -1.3010426069826053e-17 4.6259291589807372e-17</leafValues></_>
        <_>
          <internalNodes>
            0 -1 1 -4097 -1 -1 -1073741825 -16777217 -1 -1 -1</internalNodes>
          <leafValues>
            -1.3010426069826053e-17 4.6259291589807372e-17</leafValues></_>
        <_>
          <internalNodes>
            0 -1 1 -4097 -1 -1 -1073741825 -16777217 -1 -1 -1</internalNodes>
          <leafValues>
            -1.3010426069826053e-17 4.6259291589807372e-17</leafValues></_>
        <_>
          <internalNodes>
            0 -1 1 -4097 -1 -1 -1073741825 -16777217 -1 -1 -1</internalNodes>
          <leafValues>
            -1.3010426069826053e-17 4.6259291589807372e-17</leafValues></_>
        <_>
          <internalNodes>
            0 -1 1 -4097 -1 -1 -1073741825 -16777217 -1 -1 -1</internalNodes>
          <leafValues>
            -1.3010426069826053e-17 4.6259291589807372e-17</leafValues></_>
        <_>
          <internalNodes>
            0 -1 1 -4097 -1 -1 -1073741825 -16777217 -1 -1 -1</internalNodes>
          <leafValues>
            -1.3010426069826053e-17 4.6259291589807372e-17</leafValues></_>
        <_>
          <internalNodes>
            0 -1 1 -4097 -1 -1 -1073741825 -16777217 -1 -1 -1</internalNodes>
          <leafValues>
            -1.3010426069826053e-17 4.6259291589807372e-17</leafValues></_>
        <_>
          <internalNodes>
            0 -1 1 -4097 -1 -1 -1073741825 -16777217 -1 -1 -1</internalNodes>
          <leafValues>
            -1.3010426069826053e-17 4.6259291589807372e-17</leafValues></_>
        <_>
          <internalNodes>
            0 -1 1 -4097 -1 -1 -1073741825 -16777217 -1 -1 -1</internalNodes>
          <leafValues>
            -1.3010426069826053e-17 4.6259291589807372e-17</leafValues></_>
        <_>
          <internalNodes>
            0 -1 1 -4097 -1 -1 -1073741825 -16777217 -1 -1 -1</internalNodes>
          <leafValues>
            -1.3010426069826053e-17 4.6259291589807372e-17</leafValues></_>
        <_>
          <internalNodes>
            0 -1 1 -4097 -1 -1 -1073741825 -16777217 -1 -1 -1</internalNodes>
          <leafValues>
            -1.3010426069826053e-17 4.6259291589807372e-17</leafValues></_>
        <_>
          <internalNodes>
            0 -1 1 -4097 -1 -1 -1073741825 -16777217 -1 -1 -1</internalNodes>
          <leafValues>
            -1.3010426069826053e-17 4.6259291589807372e-17</leafValues></_>
        <_>
          <internalNodes>
            0 -1 1 -4097 -1 -1 -1073741825 -16777217 -1 -1 -1</internalNodes>
          <leafValues>
            -1.3010426069826053e-17 4.6259291589807372e-17</leafValues></_>
        <_>
          <internalNodes>
            0 -1 1 -4097 -1 -1 -1073741825 -16777217 -1 -1 -1</internalNodes>
          <leafValues>
            -1.3010426069826053e-17 4.6259291589807372e-17</leafValues></_>
        <_>
          <internalNodes>
            0 -1 1 -4097 -1 -1 -1073741825 -16777217 -1 -1 -1</internalNodes>
          <leafValues>
            -1.3010426069826053e-17 4.6259291589807372e-17</leafValues></_>
        <_>
          <internalNodes>
            0 -1 1 -4097 -1 -1 -1073741825 -16777217 -1 -1 -1</internalNodes>
          <leafValues>
            -1.3010426069826053e-17 4.6259291589807372e-17</leafValues></_>
        <_>
          <internalNodes>
            0 -1 1 -4097 -1 -1 -1073741825 -16777217 -1 -1 -1</internalNodes>
          <leafValues>
            -1.3010426069826053e-17 4.6259291589807372e-17</leafValues></_>
        <_>
          <internalNodes>
            0 -1 1 -4097 -1 -1 -1073741825 -16777217 -1 -1 -1</internalNodes>
          <leafValues>
            -1.3010426069826053e-17 4.6259291589807372e-17</leafValues></_>
        <_>
          <internalNodes>
            0 -1 1 -4097 -1 -1 -1073741825 -16777217 -1 -1 -1</internalNodes>
          <leafValues>
            -1.3010426069826053e-17 4.6259291589807372e-17</leafValues></_>
        <_>
          <internalNodes>
            0 -1 1 -4097 -1 -1 -1073741825 -16777217 -1 -1 -1</internalNodes>
          <leafValues>
            -1.3010426069826053e-17 4.6259291589807372e-17</leafValues></_>
        <_>
          <internalNodes>
            0 -1 1 -4097 -1 -1 -1073741825 -16777217 -1 -1 -1</internalNodes>
          <leafValues>
            -1.3010426069826053e-17 4.6259291589807372e-17</leafValues></_>
        <_>
          <internalNodes>
            0 -1 1 -4097 -1 -1 -1073741825 -16777217 -1 -1 -1</internalNodes>
          <leafValues>
            -1.3010426069826053e-17 4.6259291589807372e-17</leafValues></_>
        <_>
          <internalNodes>
            0 -1 1 -4097 -1 -1 -1073741825 -16777217 -1 -1 -1</internalNodes>
          <leafValues>
            -1.3010426069826053e-17 4.6259291589807372e-17</leafValues></_>
        <_>
          <internalNodes>
            0 -1 1 -4097 -1 -1 -1073741825 -16777217 -1 -1 -1</internalNodes>
          <leafValues>
            -1.3010426069826053e-17 4.6259291589807372e-17</leafValues></_>
        <_>
          <internalNodes>
            0 -1 1 -4097 -1 -1 -1073741825 -16777217 -1 -1 -1</internalNodes>
          <leafValues>
            -1.3010426069826053e-17 4.6259291589807372e-17</leafValues></_>
        <_>
          <internalNodes>
            0 -1 1 -4097 -1 -1 -1073741825 -16777217 -1 -1 -1</internalNodes>
          <leafValues>
            -1.3010426069826053e-17 4.6259291589807372e-17</leafValues></_>
        <_>
          <internalNodes>
            0 -1 1 -4097 -1 -1 -1073741825 -16777217 -1 -1 -1</internalNodes>
          <leafValues>
            -1.3010426069826053e-17 4.6259291589807372e-17</leafValues></_>
        <_>
          <internalNodes>
            0 -1 1 -4097 -1 -1 -1073741825 -16777217 -1 -1 -1</internalNodes>
          <leafValues>
            -1.3010426069826053e-17 4.6259291589807372e-17</leafValues></_>
        <_>
          <internalNodes>
            0 -1 1 -4097 -1 -1 -1073741825 -16777217 -1 -1 -1</internalNodes>
          <leafValues>
            -1.3010426069826053e-17 4.6259291589807372e-17</leafValues></_>
        <_>
          <internalNodes>
            0 -1 1 -4097 -1 -1 -1073741825 -16777217 -1 -1 -1</internalNodes>
          <leafValues>
            -1.3010426069826053e-17 4.6259291589807372e-17</leafValues></_>
        <_>
          <internalNodes>
            0 -1 1 -4097 -1 -1 -1073741825 -16777217 -1 -1 -1</internalNodes>
          <leafValues>
            -1.3010426069826053e-17 4.6259291589807372e-17</leafValues></_>
        <_>
          <internalNodes>
            0 -1 1 -4097 -1 -1 -1073741825 -16777217 -1 -1 -1</internalNodes>
          <leafValues>
            -1.3010426069826053e-17 4.6259291589807372e-17</leafValues></_>
        <_>
          <internalNodes>
            0 -1 1 -4097 -1 -1 -1073741825 -16777217 -1 -1 -1</internalNodes>
          <leafValues>
            -1.3010426069826053e-17 4.6259291589807372e-17</leafValues></_>
        <_>
          <internalNodes>
            0 -1 1 -4097 -1 -1 -1073741825 -16777217 -1 -1 -1</internalNodes>
          <leafValues>
            -1.3010426069826053e-17 4.6259291589807372e-17</leafValues></_>
        <_>
          <internalNodes>
            0 -1 1 -4097 -1 -1 -1073741825 -16777217 -1 -1 -1</internalNodes>
          <leafValues>
            -1.3010426069826053e-17 4.6259291589807372e-17</leafValues></_>
        <_>
          <internalNodes>
            0 -1 1 -4097 -1 -1 -1073741825 -16777217 -1 -1 -1</internalNodes>
          <leafValues>
            -1.3010426069826053e-17 4.6259291589807372e-17</leafValues></_>
        <_>
          <internalNodes>
            0 -1 1 -4097 -1 -1 -1073741825 -16777217 -1 -1 -1</internalNodes>
          <leafValues>
            -1.3010426069826053e-17 4.6259291589807372e-17</leafValues></_>
        <_>
          <internalNodes>
            0 -1 1 -4097 -1 -1 -1073741825 -16777217 -1 -1 -1</internalNodes>
          <leafValues>
            -1.3010426069826053e-17 4.6259291589807372e-17</leafValues></_>
        <_>
          <internalNodes>
            0 -1 1 -4097 -1 -1 -1073741825 -16777217 -1 -1 -1</internalNodes>
          <leafValues>
            -1.3010426069826053e-17 4.6259291589807372e-17</leafValues></_>
        <_>
          <internalNodes>
            0 -1 1 -4097 -1 -1 -1073741825 -16777217 -1 -1 -1</internalNodes>
          <leafValues>
            -1.3010426069826053e-17 4.6259291589807372e-17</leafValues></_>
        <_>
          <internalNodes>
            0 -1 1 -4097 -1 -1 -1073741825 -16777217 -1 -1 -1</internalNodes>
          <leafValues>
            -1.3010426069826053e-17 4.6259291589807372e-17</leafValues></_>
        <_>
          <internalNodes>
            0 -1 1 -4097 -1 -1 -1073741825 -16777217 -1 -1 -1</internalNodes>
          <leafValues>
            -1.3010426069826053e-17 4.6259291589807372e-17</leafValues></_>
        <_>
          <internalNodes>
            0 -1 1 -4097 -1 -1 -1073741825 -16777217 -1 -1 -1</internalNodes>
          <leafValues>
            -1.3010426069826053e-17 4.6259291589807372e-17</leafValues></_>
        <_>
          <internalNodes>
            0 -1 1 -4097 -1 -1 -1073741825 -16777217 -1 -1 -1</internalNodes>
          <leafValues>
            -1.3010426069826053e-17 4.6259291589807372e-17</leafValues></_>
        <_>
          <internalNodes>
            0 -1 1 -4097 -1 -1 -1073741825 -16777217 -1 -1 -1</internalNodes>
          <leafValues>
            -1.3010426069826053e-17 4.6259291589807372e-17</leafValues></_>
        <_>
          <internalNodes>
            0 -1 1 -4097 -1 -1 -1073741825 -16777217 -1 -1 -1</internalNodes>
          <leafValues>
            -1.3010426069826053e-17 4.6259291589807372e-17</leafValues></_>
        <_>
          <internalNodes>
            0 -1 1 -4097 -1 -1 -1073741825 -16777217 -1 -1 -1</internalNodes>
          <leafValues>
            -1.3010426069826053e-17 4.6259291589807372e-17</leafValues></_>
        <_>
          <internalNodes>
            0 -1 1 -4097 -1 -1 -1073741825 -16777217 -1 -1 -1</internalNodes>
          <leafValues>
            -1.3010426069826053e-17 4.6259291589807372e-17</leafValues></_>
        <_>
          <internalNodes>
            0 -1 1 -4097 -1 -1 -1073741825 -16777217 -1 -1 -1</internalNodes>
          <leafValues>
            -1.3010426069826053e-17 4.6259291589807372e-17</leafValues></_>
        <_>
          <internalNodes>
            0 -1 1 -4097 -1 -1 -1073741825 -16777217 -1 -1 -1</internalNodes>
          <leafValues>
            -1.3010426069826053e-17 4.6259291589807372e-17</leafValues></_>
        <_>
          <internalNodes>
            0 -1 1 -4097 -1 -1 -1073741825 -16777217 -1 -1 -1</internalNodes>
          <leafValues>
            -1.3010426069826053e-17 4.6259291589807372e-17</leafValues></_>
        <_>
          <internalNodes>
            0 -1 1 -4097 -1 -1 -1073741825 -16777217 -1 -1 -1</internalNodes>
          <leafValues>
            -1.3010426069826053e-17 4.6259291589807372e-17</leafValues></_>
        <_>
          <internalNodes>
            0 -1 1 -4097 -1 -1 -1073741825 -16777217 -1 -1 -1</internalNodes>
          <leafValues>
            -1.3010426069826053e-17 4.6259291589807372e-17</leafValues></_>
        <_>
          <internalNodes>
            0 -1 1 -4097 -1 -1 -1073741825 -16777217 -1 -1 -1</internalNodes>
          <leafValues>
            -1.3010426069826053e-17 4.6259291589807372e-17</leafValues></_>
        <_>
          <internalNodes>
            0 -1 1 -4097 -1 -1 -1073741825 -16777217 -1 -1 -1</internalNodes>
          <leafValues>
            -1.3010426069826053e-17 4.6259291589807372e-17</leafValues></_>
        <_>
          <internalNodes>
            0 -1 1 -4097 -1 -1 -1073741825 -16777217 -1 -1 -1</internalNodes>
          <leafValues>
            -1.3010426069826053e-17 4.6259291589807372e-17</leafValues></_>
        <_>
          <internalNodes>
            0 -1 1 -4097 -1 -1 -1073741825 -16777217 -1 -1 -1</internalNodes>
          <leafValues>
            -1.3010426069826053e-17 4.6259291589807372e-17</leafValues></_>
        <_>
          <internalNodes>
            0 -1 1 -4097 -1 -1 -1073741825 -16777217 -1 -1 -1</internalNodes>
          <leafValues>
            -1.3010426069826053e-17 4.6259291589807372e-17</leafValues></_>
        <_>
          <internalNodes>
            0 -1 1 -4097 -1 -1 -1073741825 -16777217 -1 -1 -1</internalNodes>
          <leafValues>
            -1.3010426069826053e-17 4.6259291589807372e-17</leafValues></_>
        <_>
          <internalNodes>
            0 -1 1 -4097 -1 -1 -1073741825 -16777217 -1 -1 -1</internalNodes>
          <leafValues>
            -1.3010426069826053e-17 4.6259291589807372e-17</leafValues></_>
        <_>
          <internalNodes>
            0 -1 1 -4097 -1 -1 -1073741825 -16777217 -1 -1 -1</internalNodes>
          <leafValues>
            -1.3010426069826053e-17 4.6259291589807372e-17</leafValues></_>
        <_>
          <internalNodes>
            0 -1 1 -4097 -1 -1 -1073741825 -16777217 -1 -1 -1</internalNodes>
          <leafValues>
            -1.3010426069826053e-17 4.6259291589807372e-17</leafValues></_></weakClassifiers></_></stages>
  <features>
    <_>
      <rect>
        0 0 1 1</rect></_>
    <_>
      <rect>
        0 0 1 2</rect></_>
    <_>
      <rect>
        0 0 4 9</rect></_>
    <_>
      <rect>
        0 0 4 18</rect></_>
    <_>
      <rect>
        0 4 1 6</rect></_>
    <_>
      <rect>
        0 14 10 2</rect></_>
    <_>
      <rect>
        1 15 1 14</rect></_></features></cascade>
</opencv_storage>
