<?xml version="1.0"?>
<opencv_storage>
<cascade>
  <stageType>BOOST</stageType>
  <featureType>LBP</featureType>
  <height>60</height>
  <width>60</width>
  <stageParams>
    <boostType>GAB</boostType>
    <minHitRate>9.9900001287460327e-01</minHitRate>
    <maxFalseAlarm>2.0000000298023224e-01</maxFalseAlarm>
    <weightTrimRate>9.4999998807907104e-01</weightTrimRate>
    <maxDepth>1</maxDepth>
    <maxWeakCount>100</maxWeakCount></stageParams>
  <featureParams>
    <maxCatCount>256</maxCatCount>
    <featSize>1</featSize></featureParams>
  <stageNum>5</stageNum>
  <stages>
    <!-- stage 0 -->
    <_>
      <maxWeakCount>1</maxWeakCount>
      <stageThreshold>-7.8062556418956319e-17</stageThreshold>
      <weakClassifiers>
        <_>
          <internalNodes>
            0 -1 8 34 16 0 -2147483648 136 -2013265920 2184 -2004350840</internalNodes>
          <leafValues>
            -1. -7.8062556418956319e-17</leafValues></_></weakClassifiers></_>
    <!-- stage 1 -->
    <_>
      <maxWeakCount>1</maxWeakCount>
      <stageThreshold>-7.8062556418956319e-17</stageThreshold>
      <weakClassifiers>
        <_>
          <internalNodes>
            0 -1 3 -788414325 1359020160 1073741824 4100 128 0 8
            -1987870199</internalNodes>
          <leafValues>
            -1. -7.8062556418956319e-17</leafValues></_></weakClassifiers></_>
    <!-- stage 2 -->
    <_>
      <maxWeakCount>100</maxWeakCount>
      <stageThreshold>-1.3195286989212036e+00</stageThreshold>
      <weakClassifiers>
        <_>
          <internalNodes>
            0 -1 0 0 0 0 0 0 2097152 0 -2147483648</internalNodes>
          <leafValues>
            -8.6666667461395264e-01 -8.6666667461395264e-01</leafValues></_>
        <_>
          <internalNodes>
            0 -1 0 0 0 0 268435456 0 2097152 0 0</internalNodes>
          <leafValues>
            -4.2424872517585754e-01 -4.2424872517585754e-01</leafValues></_>
        <_>
          <internalNodes>
            0 -1 0 0 0 0 268435456 0 0 0 -2147483648</internalNodes>
          <leafValues>
            -2.8605464845895767e-02 -2.8605464845895767e-02</leafValues></_>
        <_>
          <internalNodes>
            0 -1 0 0 0 0 0 0 2097152 0 0</internalNodes>
          <leafValues>
            -7.8061884778435342e-06 -7.8061884778435342e-06</leafValues></_>
        <_>
          <internalNodes>
            0 -1 2 0 0 0 0 0 0 128 -2147483648</internalNodes>
          <leafValues>
            -4.5391929190074479e-16 -4.7488055154865094e-16</leafValues></_>
        <_>
          <internalNodes>
            0 -1 7 0 0 0 0 0 0 0 -2147483648</internalNodes>
          <leafValues>
            -5.3017486234541167e-16 3.9031278209478160e-16</leafValues></_>
        <_>
          <internalNodes>
            0 -1 4 0 0 0 0 0 0 0 32768</internalNodes>
          <leafValues>
            -2.6020852139652106e-17 1.4636729328554310e-16</leafValues></_>
        <_>
          <internalNodes>
            0 -1 5 0 0 0 0 0 0 128 0</internalNodes>
          <leafValues>
            -3.5128150388530344e-16 4.7704895589362195e-16</leafValues></_>
        <_>
          <internalNodes>
            0 -1 1 0 0 0 268435456 0 0 0 0</internalNodes>
          <leafValues>
            -1.1275702593849246e-16 -6.2883726004159257e-17</leafValues></_>
        <_>
          <internalNodes>
            0 -1 1 -1 -1 -1 -1 -1 -1 -3 -8388737</internalNodes>
          <leafValues>
            1.3660947373317356e-16 1.1275702593849246e-16</leafValues></_>
        <_>
          <internalNodes>
            0 -1 6 0 0 0 0 0 0 0 128</internalNodes>
          <leafValues>
            -9.3241386833753381e-17 -3.1803264829148947e-17</leafValues></_>
        <_>
          <internalNodes>
            0 -1 1 -1 -1 -1 -1 -1 -1 -3 -8454273</internalNodes>
          <leafValues>
            9.5409791178724390e-17 -9.3241386833753381e-17</leafValues></_>
        <_>
          <internalNodes>
            0 -1 1 0 0 0 268435456 0 0 0 0</internalNodes>
          <leafValues>
            -1.1275702593849246e-16 -4.5536491244391186e-17</leafValues></_>
        <_>
          <internalNodes>
            0 -1 1 -1 -1 -1 -1 -1 -1 -3 -8454273</internalNodes>
          <leafValues>
            3.4694469519536142e-17 -4.5536491244391186e-17</leafValues></_>
        <_>
          <internalNodes>
            0 -1 1 -1 -1 -1 -1 -1 -1 -3 -8454273</internalNodes>
          <leafValues>
            3.4694469519536142e-17 -4.5536491244391186e-17</leafValues></_>
        <_>
          <internalNodes>
            0 -1 1 -1 -1 -1 -1 -1 -1 -3 -8454273</internalNodes>
          <leafValues>
            3.4694469519536142e-17 -4.5536491244391186e-17</leafValues></_>
        <_>
          <internalNodes>
            0 -1 1 -1 -1 -1 -1 -1 -1 -3 -8454273</internalNodes>
          <leafValues>
            3.4694469519536142e-17 -4.5536491244391186e-17</leafValues></_>
        <_>
          <internalNodes>
            0 -1 1 -1 -1 -1 -1 -1 -1 -3 -8454273</internalNodes>
          <leafValues>
            3.4694469519536142e-17 -4.5536491244391186e-17</leafValues></_>
        <_>
          <internalNodes>
            0 -1 1 -1 -1 -1 -1 -1 -1 -3 -8454273</internalNodes>
          <leafValues>
            3.4694469519536142e-17 -4.5536491244391186e-17</leafValues></_>
        <_>
          <internalNodes>
            0 -1 1 -1 -1 -1 -1 -1 -1 -3 -8454273</internalNodes>
          <leafValues>
            3.4694469519536142e-17 -4.5536491244391186e-17</leafValues></_>
        <_>
          <internalNodes>
            0 -1 1 -1 -1 -1 -1 -1 -1 -3 -8454273</internalNodes>
          <leafValues>
            3.4694469519536142e-17 -4.5536491244391186e-17</leafValues></_>
        <_>
          <internalNodes>
            0 -1 1 -1 -1 -1 -1 -1 -1 -3 -8454273</internalNodes>
          <leafValues>
            3.4694469519536142e-17 -4.5536491244391186e-17</leafValues></_>
        <_>
          <internalNodes>
            0 -1 1 -1 -1 -1 -1 -1 -1 -3 -8454273</internalNodes>
          <leafValues>
            3.4694469519536142e-17 -4.5536491244391186e-17</leafValues></_>
        <_>
          <internalNodes>
            0 -1 1 -1 -1 -1 -1 -1 -1 -3 -8454273</internalNodes>
          <leafValues>
            3.4694469519536142e-17 -4.5536491244391186e-17</leafValues></_>
        <_>
          <internalNodes>
            0 -1 1 -1 -1 -1 -1 -1 -1 -3 -8454273</internalNodes>
          <leafValues>
            3.4694469519536142e-17 -4.5536491244391186e-17</leafValues></_>
        <_>
          <internalNodes>
            0 -1 1 -1 -1 -1 -1 -1 -1 -3 -8454273</internalNodes>
          <leafValues>
            3.4694469519536142e-17 -4.5536491244391186e-17</leafValues></_>
        <_>
          <internalNodes>
            0 -1 1 -1 -1 -1 -1 -1 -1 -3 -8454273</internalNodes>
          <leafValues>
            3.4694469519536142e-17 -4.5536491244391186e-17</leafValues></_>
        <_>
          <internalNodes>
            0 -1 1 -1 -1 -1 -1 -1 -1 -3 -8454273</internalNodes>
          <leafValues>
            3.4694469519536142e-17 -4.5536491244391186e-17</leafValues></_>
        <_>
          <internalNodes>
            0 -1 1 -1 -1 -1 -1 -1 -1 -3 -8454273</internalNodes>
          <leafValues>
            3.4694469519536142e-17 -4.5536491244391186e-17</leafValues></_>
        <_>
          <internalNodes>
            0 -1 1 -1 -1 -1 -1 -1 -1 -3 -8454273</internalNodes>
          <leafValues>
            3.4694469519536142e-17 -4.5536491244391186e-17</leafValues></_>
        <_>
          <internalNodes>
            0 -1 1 -1 -1 -1 -1 -1 -1 -3 -8454273</internalNodes>
          <leafValues>
            3.4694469519536142e-17 -4.5536491244391186e-17</leafValues></_>
        <_>
          <internalNodes>
            0 -1 1 -1 -1 -1 -1 -1 -1 -3 -8454273</internalNodes>
          <leafValues>
            3.4694469519536142e-17 -4.5536491244391186e-17</leafValues></_>
        <_>
          <internalNodes>
            0 -1 1 -1 -1 -1 -1 -1 -1 -3 -8454273</internalNodes>
          <leafValues>
            3.4694469519536142e-17 -4.5536491244391186e-17</leafValues></_>
        <_>
          <internalNodes>
            0 -1 1 -1 -1 -1 -1 -1 -1 -3 -8454273</internalNodes>
          <leafValues>
            3.4694469519536142e-17 -4.5536491244391186e-17</leafValues></_>
        <_>
          <internalNodes>
            0 -1 1 -1 -1 -1 -1 -1 -1 -3 -8454273</internalNodes>
          <leafValues>
            3.4694469519536142e-17 -4.5536491244391186e-17</leafValues></_>
        <_>
          <internalNodes>
            0 -1 1 -1 -1 -1 -1 -1 -1 -3 -8454273</internalNodes>
          <leafValues>
            3.4694469519536142e-17 -4.5536491244391186e-17</leafValues></_>
        <_>
          <internalNodes>
            0 -1 1 -1 -1 -1 -1 -1 -1 -3 -8454273</internalNodes>
          <leafValues>
            3.4694469519536142e-17 -4.5536491244391186e-17</leafValues></_>
        <_>
          <internalNodes>
            0 -1 1 -1 -1 -1 -1 -1 -1 -3 -8454273</internalNodes>
          <leafValues>
            3.4694469519536142e-17 -4.5536491244391186e-17</leafValues></_>
        <_>
          <internalNodes>
            0 -1 1 -1 -1 -1 -1 -1 -1 -3 -8454273</internalNodes>
          <leafValues>
            3.4694469519536142e-17 -4.5536491244391186e-17</leafValues></_>
        <_>
          <internalNodes>
            0 -1 1 -1 -1 -1 -1 -1 -1 -3 -8454273</internalNodes>
          <leafValues>
            3.4694469519536142e-17 -4.5536491244391186e-17</leafValues></_>
        <_>
          <internalNodes>
            0 -1 1 -1 -1 -1 -1 -1 -1 -3 -8454273</internalNodes>
          <leafValues>
            3.4694469519536142e-17 -4.5536491244391186e-17</leafValues></_>
        <_>
          <internalNodes>
            0 -1 1 -1 -1 -1 -1 -1 -1 -3 -8454273</internalNodes>
          <leafValues>
            3.4694469519536142e-17 -4.5536491244391186e-17</leafValues></_>
        <_>
          <internalNodes>
            0 -1 1 -1 -1 -1 -1 -1 -1 -3 -8454273</internalNodes>
          <leafValues>
            3.4694469519536142e-17 -4.5536491244391186e-17</leafValues></_>
        <_>
          <internalNodes>
            0 -1 1 -1 -1 -1 -1 -1 -1 -3 -8454273</internalNodes>
          <leafValues>
            3.4694469519536142e-17 -4.5536491244391186e-17</leafValues></_>
        <_>
          <internalNodes>
            0 -1 1 -1 -1 -1 -1 -1 -1 -3 -8454273</internalNodes>
          <leafValues>
            3.4694469519536142e-17 -4.5536491244391186e-17</leafValues></_>
        <_>
          <internalNodes>
            0 -1 1 -1 -1 -1 -1 -1 -1 -3 -8454273</internalNodes>
          <leafValues>
            3.4694469519536142e-17 -4.5536491244391186e-17</leafValues></_>
        <_>
          <internalNodes>
            0 -1 1 -1 -1 -1 -1 -1 -1 -3 -8454273</internalNodes>
          <leafValues>
            3.4694469519536142e-17 -4.5536491244391186e-17</leafValues></_>
        <_>
          <internalNodes>
            0 -1 1 -1 -1 -1 -1 -1 -1 -3 -8454273</internalNodes>
          <leafValues>
            3.4694469519536142e-17 -4.5536491244391186e-17</leafValues></_>
        <_>
          <internalNodes>
            0 -1 1 -1 -1 -1 -1 -1 -1 -3 -8454273</internalNodes>
          <leafValues>
            3.4694469519536142e-17 -4.5536491244391186e-17</leafValues></_>
        <_>
          <internalNodes>
            0 -1 1 -1 -1 -1 -1 -1 -1 -3 -8454273</internalNodes>
          <leafValues>
            3.4694469519536142e-17 -4.5536491244391186e-17</leafValues></_>
        <_>
          <internalNodes>
            0 -1 1 -1 -1 -1 -1 -1 -1 -3 -8454273</internalNodes>
          <leafValues>
            3.4694469519536142e-17 -4.5536491244391186e-17</leafValues></_>
        <_>
          <internalNodes>
            0 -1 1 -1 -1 -1 -1 -1 -1 -3 -8454273</internalNodes>
          <leafValues>
            3.4694469519536142e-17 -4.5536491244391186e-17</leafValues></_>
        <_>
          <internalNodes>
            0 -1 1 -1 -1 -1 -1 -1 -1 -3 -8454273</internalNodes>
          <leafValues>
            3.4694469519536142e-17 -4.5536491244391186e-17</leafValues></_>
        <_>
          <internalNodes>
            0 -1 1 -1 -1 -1 -1 -1 -1 -3 -8454273</internalNodes>
          <leafValues>
            3.4694469519536142e-17 -4.5536491244391186e-17</leafValues></_>
        <_>
          <internalNodes>
            0 -1 1 -1 -1 -1 -1 -1 -1 -3 -8454273</internalNodes>
          <leafValues>
            3.4694469519536142e-17 -4.5536491244391186e-17</leafValues></_>
        <_>
          <internalNodes>
            0 -1 1 -1 -1 -1 -1 -1 -1 -3 -8454273</internalNodes>
          <leafValues>
            3.4694469519536142e-17 -4.5536491244391186e-17</leafValues></_>
        <_>
          <internalNodes>
            0 -1 1 -1 -1 -1 -1 -1 -1 -3 -8454273</internalNodes>
          <leafValues>
            3.4694469519536142e-17 -4.5536491244391186e-17</leafValues></_>
        <_>
          <internalNodes>
            0 -1 1 -1 -1 -1 -1 -1 -1 -3 -8454273</internalNodes>
          <leafValues>
            3.4694469519536142e-17 -4.5536491244391186e-17</leafValues></_>
        <_>
          <internalNodes>
            0 -1 1 -1 -1 -1 -1 -1 -1 -3 -8454273</internalNodes>
          <leafValues>
            3.4694469519536142e-17 -4.5536491244391186e-17</leafValues></_>
        <_>
          <internalNodes>
            0 -1 1 -1 -1 -1 -1 -1 -1 -3 -8454273</internalNodes>
          <leafValues>
            3.4694469519536142e-17 -4.5536491244391186e-17</leafValues></_>
        <_>
          <internalNodes>
            0 -1 1 -1 -1 -1 -1 -1 -1 -3 -8454273</internalNodes>
          <leafValues>
            3.4694469519536142e-17 -4.5536491244391186e-17</leafValues></_>
        <_>
          <internalNodes>
            0 -1 1 -1 -1 -1 -1 -1 -1 -3 -8454273</internalNodes>
          <leafValues>
            3.4694469519536142e-17 -4.5536491244391186e-17</leafValues></_>
        <_>
          <internalNodes>
            0 -1 1 -1 -1 -1 -1 -1 -1 -3 -8454273</internalNodes>
          <leafValues>
            3.4694469519536142e-17 -4.5536491244391186e-17</leafValues></_>
        <_>
          <internalNodes>
            0 -1 1 -1 -1 -1 -1 -1 -1 -3 -8454273</internalNodes>
          <leafValues>
            3.4694469519536142e-17 -4.5536491244391186e-17</leafValues></_>
        <_>
          <internalNodes>
            0 -1 1 -1 -1 -1 -1 -1 -1 -3 -8454273</internalNodes>
          <leafValues>
            3.4694469519536142e-17 -4.5536491244391186e-17</leafValues></_>
        <_>
          <internalNodes>
            0 -1 1 -1 -1 -1 -1 -1 -1 -3 -8454273</internalNodes>
          <leafValues>
            3.4694469519536142e-17 -4.5536491244391186e-17</leafValues></_>
        <_>
          <internalNodes>
            0 -1 1 -1 -1 -1 -1 -1 -1 -3 -8454273</internalNodes>
          <leafValues>
            3.4694469519536142e-17 -4.5536491244391186e-17</leafValues></_>
        <_>
          <internalNodes>
            0 -1 1 -1 -1 -1 -1 -1 -1 -3 -8454273</internalNodes>
          <leafValues>
            3.4694469519536142e-17 -4.5536491244391186e-17</leafValues></_>
        <_>
          <internalNodes>
            0 -1 1 -1 -1 -1 -1 -1 -1 -3 -8454273</internalNodes>
          <leafValues>
            3.4694469519536142e-17 -4.5536491244391186e-17</leafValues></_>
        <_>
          <internalNodes>
            0 -1 1 -1 -1 -1 -1 -1 -1 -3 -8454273</internalNodes>
          <leafValues>
            3.4694469519536142e-17 -4.5536491244391186e-17</leafValues></_>
        <_>
          <internalNodes>
            0 -1 1 -1 -1 -1 -1 -1 -1 -3 -8454273</internalNodes>
          <leafValues>
            3.4694469519536142e-17 -4.5536491244391186e-17</leafValues></_>
        <_>
          <internalNodes>
            0 -1 1 -1 -1 -1 -1 -1 -1 -3 -8454273</internalNodes>
          <leafValues>
            3.4694469519536142e-17 -4.5536491244391186e-17</leafValues></_>
        <_>
          <internalNodes>
            0 -1 1 -1 -1 -1 -1 -1 -1 -3 -8454273</internalNodes>
          <leafValues>
            3.4694469519536142e-17 -4.5536491244391186e-17</leafValues></_>
        <_>
          <internalNodes>
            0 -1 1 -1 -1 -1 -1 -1 -1 -3 -8454273</internalNodes>
          <leafValues>
            3.4694469519536142e-17 -4.5536491244391186e-17</leafValues></_>
        <_>
          <internalNodes>
            0 -1 1 -1 -1 -1 -1 -1 -1 -3 -8454273</internalNodes>
          <leafValues>
            3.4694469519536142e-17 -4.5536491244391186e-17</leafValues></_>
        <_>
          <internalNodes>
            0 -1 1 -1 -1 -1 -1 -1 -1 -3 -8454273</internalNodes>
          <leafValues>
            3.4694469519536142e-17 -4.5536491244391186e-17</leafValues></_>
        <_>
          <internalNodes>
            0 -1 1 -1 -1 -1 -1 -1 -1 -3 -8454273</internalNodes>
          <leafValues>
            3.4694469519536142e-17 -4.5536491244391186e-17</leafValues></_>
        <_>
          <internalNodes>
            0 -1 1 -1 -1 -1 -1 -1 -1 -3 -8454273</internalNodes>
          <leafValues>
            3.4694469519536142e-17 -4.5536491244391186e-17</leafValues></_>
        <_>
          <internalNodes>
            0 -1 1 -1 -1 -1 -1 -1 -1 -3 -8454273</internalNodes>
          <leafValues>
            3.4694469519536142e-17 -4.5536491244391186e-17</leafValues></_>
        <_>
          <internalNodes>
            0 -1 1 -1 -1 -1 -1 -1 -1 -3 -8454273</internalNodes>
          <leafValues>
            3.4694469519536142e-17 -4.5536491244391186e-17</leafValues></_>
        <_>
          <internalNodes>
            0 -1 1 -1 -1 -1 -1 -1 -1 -3 -8454273</internalNodes>
          <leafValues>
            3.4694469519536142e-17 -4.5536491244391186e-17</leafValues></_>
        <_>
          <internalNodes>
            0 -1 1 -1 -1 -1 -1 -1 -1 -3 -8454273</internalNodes>
          <leafValues>
            3.4694469519536142e-17 -4.5536491244391186e-17</leafValues></_>
        <_>
          <internalNodes>
            0 -1 1 -1 -1 -1 -1 -1 -1 -3 -8454273</internalNodes>
          <leafValues>
            3.4694469519536142e-17 -4.5536491244391186e-17</leafValues></_>
        <_>
          <internalNodes>
            0 -1 1 -1 -1 -1 -1 -1 -1 -3 -8454273</internalNodes>
          <leafValues>
            3.4694469519536142e-17 -4.5536491244391186e-17</leafValues></_>
        <_>
          <internalNodes>
            0 -1 1 -1 -1 -1 -1 -1 -1 -3 -8454273</internalNodes>
          <leafValues>
            3.4694469519536142e-17 -4.5536491244391186e-17</leafValues></_>
        <_>
          <internalNodes>
            0 -1 1 -1 -1 -1 -1 -1 -1 -3 -8454273</internalNodes>
          <leafValues>
            3.4694469519536142e-17 -4.5536491244391186e-17</leafValues></_>
        <_>
          <internalNodes>
            0 -1 1 -1 -1 -1 -1 -1 -1 -3 -8454273</internalNodes>
          <leafValues>
            3.4694469519536142e-17 -4.5536491244391186e-17</leafValues></_>
        <_>
          <internalNodes>
            0 -1 1 -1 -1 -1 -1 -1 -1 -3 -8454273</internalNodes>
          <leafValues>
            3.4694469519536142e-17 -4.5536491244391186e-17</leafValues></_>
        <_>
          <internalNodes>
            0 -1 1 -1 -1 -1 -1 -1 -1 -3 -8454273</internalNodes>
          <leafValues>
            3.4694469519536142e-17 -4.5536491244391186e-17</leafValues></_>
        <_>
          <internalNodes>
            0 -1 1 -1 -1 -1 -1 -1 -1 -3 -8454273</internalNodes>
          <leafValues>
            3.4694469519536142e-17 -4.5536491244391186e-17</leafValues></_>
        <_>
          <internalNodes>
            0 -1 1 -1 -1 -1 -1 -1 -1 -3 -8454273</internalNodes>
          <leafValues>
            3.4694469519536142e-17 -4.5536491244391186e-17</leafValues></_>
        <_>
          <internalNodes>
            0 -1 1 -1 -1 -1 -1 -1 -1 -3 -8454273</internalNodes>
          <leafValues>
            3.4694469519536142e-17 -4.5536491244391186e-17</leafValues></_>
        <_>
          <internalNodes>
            0 -1 1 -1 -1 -1 -1 -1 -1 -3 -8454273</internalNodes>
          <leafValues>
            3.4694469519536142e-17 -4.5536491244391186e-17</leafValues></_>
        <_>
          <internalNodes>
            0 -1 1 -1 -1 -1 -1 -1 -1 -3 -8454273</internalNodes>
          <leafValues>
            3.4694469519536142e-17 -4.5536491244391186e-17</leafValues></_>
        <_>
          <internalNodes>
            0 -1 1 -1 -1 -1 -1 -1 -1 -3 -8454273</internalNodes>
          <leafValues>
            3.4694469519536142e-17 -4.5536491244391186e-17</leafValues></_>
        <_>
          <internalNodes>
            0 -1 1 -1 -1 -1 -1 -1 -1 -3 -8454273</internalNodes>
          <leafValues>
            3.4694469519536142e-17 -4.5536491244391186e-17</leafValues></_>
        <_>
          <internalNodes>
            0 -1 1 -1 -1 -1 -1 -1 -1 -3 -8454273</internalNodes>
          <leafValues>
            3.4694469519536142e-17 -4.5536491244391186e-17</leafValues></_>
        <_>
          <internalNodes>
            0 -1 1 -1 -1 -1 -1 -1 -1 -3 -8454273</internalNodes>
          <leafValues>
            3.4694469519536142e-17 -4.5536491244391186e-17</leafValues></_>
        <_>
          <internalNodes>
            0 -1 1 -1 -1 -1 -1 -1 -1 -3 -8454273</internalNodes>
          <leafValues>
            3.4694469519536142e-17 -4.5536491244391186e-17</leafValues></_>
        <_>
          <internalNodes>
            0 -1 1 -1 -1 -1 -1 -1 -1 -3 -8454273</internalNodes>
          <leafValues>
            3.4694469519536142e-17 -4.5536491244391186e-17</leafValues></_></weakClassifiers></_>
    <!-- stage 3 -->
    <_>
      <maxWeakCount>100</maxWeakCount>
      <stageThreshold>-1.3195286989212036e+00</stageThreshold>
      <weakClassifiers>
        <_>
          <internalNodes>
            0 -1 0 0 0 0 0 0 2097152 0 -2147483648</internalNodes>
          <leafValues>
            -8.6666667461395264e-01 -8.6666667461395264e-01</leafValues></_>
        <_>
          <internalNodes>
            0 -1 0 0 0 0 268435456 0 2097152 0 0</internalNodes>
          <leafValues>
            -4.2424872517585754e-01 -4.2424872517585754e-01</leafValues></_>
        <_>
          <internalNodes>
            0 -1 0 0 0 0 268435456 0 0 0 -2147483648</internalNodes>
          <leafValues>
            -2.8605464845895767e-02 -2.8605464845895767e-02</leafValues></_>
        <_>
          <internalNodes>
            0 -1 0 0 0 0 0 0 2097152 0 0</internalNodes>
          <leafValues>
            -7.8061884778435342e-06 -7.8061884778435342e-06</leafValues></_>
        <_>
          <internalNodes>
            0 -1 2 0 0 0 0 0 0 128 -2147483648</internalNodes>
          <leafValues>
            -4.5391929190074479e-16 -4.7488055154865094e-16</leafValues></_>
        <_>
          <internalNodes>
            0 -1 7 0 0 0 0 0 0 0 -2147483648</internalNodes>
          <leafValues>
            -5.3017486234541167e-16 3.9031278209478160e-16</leafValues></_>
        <_>
          <internalNodes>
            0 -1 4 0 0 0 0 0 0 0 32768</internalNodes>
          <leafValues>
            -2.6020852139652106e-17 1.4636729328554310e-16</leafValues></_>
        <_>
          <internalNodes>
            0 -1 5 0 0 0 0 0 0 128 0</internalNodes>
          <leafValues>
            -3.5128150388530344e-16 4.7704895589362195e-16</leafValues></_>
        <_>
          <internalNodes>
            0 -1 1 0 0 0 268435456 0 0 0 0</internalNodes>
          <leafValues>
            -1.1275702593849246e-16 -6.2883726004159257e-17</leafValues></_>
        <_>
          <internalNodes>
            0 -1 1 -1 -1 -1 -1 -1 -1 -3 -8388737</internalNodes>
          <leafValues>
            1.3660947373317356e-16 1.1275702593849246e-16</leafValues></_>
        <_>
          <internalNodes>
            0 -1 6 0 0 0 0 0 0 0 128</internalNodes>
          <leafValues>
            -9.3241386833753381e-17 -3.1803264829148947e-17</leafValues></_>
        <_>
          <internalNodes>
            0 -1 1 -1 -1 -1 -1 -1 -1 -3 -8454273</internalNodes>
          <leafValues>
            9.5409791178724390e-17 -9.3241386833753381e-17</leafValues></_>
        <_>
          <internalNodes>
            0 -1 1 0 0 0 268435456 0 0 0 0</internalNodes>
          <leafValues>
            -1.1275702593849246e-16 -4.5536491244391186e-17</leafValues></_>
        <_>
          <internalNodes>
            0 -1 1 -1 -1 -1 -1 -1 -1 -3 -8454273</internalNodes>
          <leafValues>
            3.4694469519536142e-17 -4.5536491244391186e-17</leafValues></_>
        <_>
          <internalNodes>
            0 -1 1 -1 -1 -1 -1 -1 -1 -3 -8454273</internalNodes>
          <leafValues>
            3.4694469519536142e-17 -4.5536491244391186e-17</leafValues></_>
        <_>
          <internalNodes>
            0 -1 1 -1 -1 -1 -1 -1 -1 -3 -8454273</internalNodes>
          <leafValues>
            3.4694469519536142e-17 -4.5536491244391186e-17</leafValues></_>
        <_>
          <internalNodes>
            0 -1 1 -1 -1 -1 -1 -1 -1 -3 -8454273</internalNodes>
          <leafValues>
            3.4694469519536142e-17 -4.5536491244391186e-17</leafValues></_>
        <_>
          <internalNodes>
            0 -1 1 -1 -1 -1 -1 -1 -1 -3 -8454273</internalNodes>
          <leafValues>
            3.4694469519536142e-17 -4.5536491244391186e-17</leafValues></_>
        <_>
          <internalNodes>
            0 -1 1 -1 -1 -1 -1 -1 -1 -3 -8454273</internalNodes>
          <leafValues>
            3.4694469519536142e-17 -4.5536491244391186e-17</leafValues></_>
        <_>
          <internalNodes>
            0 -1 1 -1 -1 -1 -1 -1 -1 -3 -8454273</internalNodes>
          <leafValues>
            3.4694469519536142e-17 -4.5536491244391186e-17</leafValues></_>
        <_>
          <internalNodes>
            0 -1 1 -1 -1 -1 -1 -1 -1 -3 -8454273</internalNodes>
          <leafValues>
            3.4694469519536142e-17 -4.5536491244391186e-17</leafValues></_>
        <_>
          <internalNodes>
            0 -1 1 -1 -1 -1 -1 -1 -1 -3 -8454273</internalNodes>
          <leafValues>
            3.4694469519536142e-17 -4.5536491244391186e-17</leafValues></_>
        <_>
          <internalNodes>
            0 -1 1 -1 -1 -1 -1 -1 -1 -3 -8454273</internalNodes>
          <leafValues>
            3.4694469519536142e-17 -4.5536491244391186e-17</leafValues></_>
        <_>
          <internalNodes>
            0 -1 1 -1 -1 -1 -1 -1 -1 -3 -8454273</internalNodes>
          <leafValues>
            3.4694469519536142e-17 -4.5536491244391186e-17</leafValues></_>
        <_>
          <internalNodes>
            0 -1 1 -1 -1 -1 -1 -1 -1 -3 -8454273</internalNodes>
          <leafValues>
            3.4694469519536142e-17 -4.5536491244391186e-17</leafValues></_>
        <_>
          <internalNodes>
            0 -1 1 -1 -1 -1 -1 -1 -1 -3 -8454273</internalNodes>
          <leafValues>
            3.4694469519536142e-17 -4.5536491244391186e-17</leafValues></_>
        <_>
          <internalNodes>
            0 -1 1 -1 -1 -1 -1 -1 -1 -3 -8454273</internalNodes>
          <leafValues>
            3.4694469519536142e-17 -4.5536491244391186e-17</leafValues></_>
        <_>
          <internalNodes>
            0 -1 1 -1 -1 -1 -1 -1 -1 -3 -8454273</internalNodes>
          <leafValues>
            3.4694469519536142e-17 -4.5536491244391186e-17</leafValues></_>
        <_>
          <internalNodes>
            0 -1 1 -1 -1 -1 -1 -1 -1 -3 -8454273</internalNodes>
          <leafValues>
            3.4694469519536142e-17 -4.5536491244391186e-17</leafValues></_>
        <_>
          <internalNodes>
            0 -1 1 -1 -1 -1 -1 -1 -1 -3 -8454273</internalNodes>
          <leafValues>
            3.4694469519536142e-17 -4.5536491244391186e-17</leafValues></_>
        <_>
          <internalNodes>
            0 -1 1 -1 -1 -1 -1 -1 -1 -3 -8454273</internalNodes>
          <leafValues>
            3.4694469519536142e-17 -4.5536491244391186e-17</leafValues></_>
        <_>
          <internalNodes>
            0 -1 1 -1 -1 -1 -1 -1 -1 -3 -8454273</internalNodes>
          <leafValues>
            3.4694469519536142e-17 -4.5536491244391186e-17</leafValues></_>
        <_>
          <internalNodes>
            0 -1 1 -1 -1 -1 -1 -1 -1 -3 -8454273</internalNodes>
          <leafValues>
            3.4694469519536142e-17 -4.5536491244391186e-17</leafValues></_>
        <_>
          <internalNodes>
            0 -1 1 -1 -1 -1 -1 -1 -1 -3 -8454273</internalNodes>
          <leafValues>
            3.4694469519536142e-17 -4.5536491244391186e-17</leafValues></_>
        <_>
          <internalNodes>
            0 -1 1 -1 -1 -1 -1 -1 -1 -3 -8454273</internalNodes>
          <leafValues>
            3.4694469519536142e-17 -4.5536491244391186e-17</leafValues></_>
        <_>
          <internalNodes>
            0 -1 1 -1 -1 -1 -1 -1 -1 -3 -8454273</internalNodes>
          <leafValues>
            3.4694469519536142e-17 -4.5536491244391186e-17</leafValues></_>
        <_>
          <internalNodes>
            0 -1 1 -1 -1 -1 -1 -1 -1 -3 -8454273</internalNodes>
          <leafValues>
            3.4694469519536142e-17 -4.5536491244391186e-17</leafValues></_>
        <_>
          <internalNodes>
            0 -1 1 -1 -1 -1 -1 -1 -1 -3 -8454273</internalNodes>
          <leafValues>
            3.4694469519536142e-17 -4.5536491244391186e-17</leafValues></_>
        <_>
          <internalNodes>
            0 -1 1 -1 -1 -1 -1 -1 -1 -3 -8454273</internalNodes>
          <leafValues>
            3.4694469519536142e-17 -4.5536491244391186e-17</leafValues></_>
        <_>
          <internalNodes>
            0 -1 1 -1 -1 -1 -1 -1 -1 -3 -8454273</internalNodes>
          <leafValues>
            3.4694469519536142e-17 -4.5536491244391186e-17</leafValues></_>
        <_>
          <internalNodes>
            0 -1 1 -1 -1 -1 -1 -1 -1 -3 -8454273</internalNodes>
          <leafValues>
            3.4694469519536142e-17 -4.5536491244391186e-17</leafValues></_>
        <_>
          <internalNodes>
            0 -1 1 -1 -1 -1 -1 -1 -1 -3 -8454273</internalNodes>
          <leafValues>
            3.4694469519536142e-17 -4.5536491244391186e-17</leafValues></_>
        <_>
          <internalNodes>
            0 -1 1 -1 -1 -1 -1 -1 -1 -3 -8454273</internalNodes>
          <leafValues>
            3.4694469519536142e-17 -4.5536491244391186e-17</leafValues></_>
        <_>
          <internalNodes>
            0 -1 1 -1 -1 -1 -1 -1 -1 -3 -8454273</internalNodes>
          <leafValues>
            3.4694469519536142e-17 -4.5536491244391186e-17</leafValues></_>
        <_>
          <internalNodes>
            0 -1 1 -1 -1 -1 -1 -1 -1 -3 -8454273</internalNodes>
          <leafValues>
            3.4694469519536142e-17 -4.5536491244391186e-17</leafValues></_>
        <_>
          <internalNodes>
            0 -1 1 -1 -1 -1 -1 -1 -1 -3 -8454273</internalNodes>
          <leafValues>
            3.4694469519536142e-17 -4.5536491244391186e-17</leafValues></_>
        <_>
          <internalNodes>
            0 -1 1 -1 -1 -1 -1 -1 -1 -3 -8454273</internalNodes>
          <leafValues>
            3.4694469519536142e-17 -4.5536491244391186e-17</leafValues></_>
        <_>
          <internalNodes>
            0 -1 1 -1 -1 -1 -1 -1 -1 -3 -8454273</internalNodes>
          <leafValues>
            3.4694469519536142e-17 -4.5536491244391186e-17</leafValues></_>
        <_>
          <internalNodes>
            0 -1 1 -1 -1 -1 -1 -1 -1 -3 -8454273</internalNodes>
          <leafValues>
            3.4694469519536142e-17 -4.5536491244391186e-17</leafValues></_>
        <_>
          <internalNodes>
            0 -1 1 -1 -1 -1 -1 -1 -1 -3 -8454273</internalNodes>
          <leafValues>
            3.4694469519536142e-17 -4.5536491244391186e-17</leafValues></_>
        <_>
          <internalNodes>
            0 -1 1 -1 -1 -1 -1 -1 -1 -3 -8454273</internalNodes>
          <leafValues>
            3.4694469519536142e-17 -4.5536491244391186e-17</leafValues></_>
        <_>
          <internalNodes>
            0 -1 1 -1 -1 -1 -1 -1 -1 -3 -8454273</internalNodes>
          <leafValues>
            3.4694469519536142e-17 -4.5536491244391186e-17</leafValues></_>
        <_>
          <internalNodes>
            0 -1 1 -1 -1 -1 -1 -1 -1 -3 -8454273</internalNodes>
          <leafValues>
            3.4694469519536142e-17 -4.5536491244391186e-17</leafValues></_>
        <_>
          <internalNodes>
            0 -1 1 -1 -1 -1 -1 -1 -1 -3 -8454273</internalNodes>
          <leafValues>
            3.4694469519536142e-17 -4.5536491244391186e-17</leafValues></_>
        <_>
          <internalNodes>
            0 -1 1 -1 -1 -1 -1 -1 -1 -3 -8454273</internalNodes>
          <leafValues>
            3.4694469519536142e-17 -4.5536491244391186e-17</leafValues></_>
        <_>
          <internalNodes>
            0 -1 1 -1 -1 -1 -1 -1 -1 -3 -8454273</internalNodes>
          <leafValues>
            3.4694469519536142e-17 -4.5536491244391186e-17</leafValues></_>
        <_>
          <internalNodes>
            0 -1 1 -1 -1 -1 -1 -1 -1 -3 -8454273</internalNodes>
          <leafValues>
            3.4694469519536142e-17 -4.5536491244391186e-17</leafValues></_>
        <_>
          <internalNodes>
            0 -1 1 -1 -1 -1 -1 -1 -1 -3 -8454273</internalNodes>
          <leafValues>
            3.4694469519536142e-17 -4.5536491244391186e-17</leafValues></_>
        <_>
          <internalNodes>
            0 -1 1 -1 -1 -1 -1 -1 -1 -3 -8454273</internalNodes>
          <leafValues>
            3.4694469519536142e-17 -4.5536491244391186e-17</leafValues></_>
        <_>
          <internalNodes>
            0 -1 1 -1 -1 -1 -1 -1 -1 -3 -8454273</internalNodes>
          <leafValues>
            3.4694469519536142e-17 -4.5536491244391186e-17</leafValues></_>
        <_>
          <internalNodes>
            0 -1 1 -1 -1 -1 -1 -1 -1 -3 -8454273</internalNodes>
          <leafValues>
            3.4694469519536142e-17 -4.5536491244391186e-17</leafValues></_>
        <_>
          <internalNodes>
            0 -1 1 -1 -1 -1 -1 -1 -1 -3 -8454273</internalNodes>
          <leafValues>
            3.4694469519536142e-17 -4.5536491244391186e-17</leafValues></_>
        <_>
          <internalNodes>
            0 -1 1 -1 -1 -1 -1 -1 -1 -3 -8454273</internalNodes>
          <leafValues>
            3.4694469519536142e-17 -4.5536491244391186e-17</leafValues></_>
        <_>
          <internalNodes>
            0 -1 1 -1 -1 -1 -1 -1 -1 -3 -8454273</internalNodes>
          <leafValues>
            3.4694469519536142e-17 -4.5536491244391186e-17</leafValues></_>
        <_>
          <internalNodes>
            0 -1 1 -1 -1 -1 -1 -1 -1 -3 -8454273</internalNodes>
          <leafValues>
            3.4694469519536142e-17 -4.5536491244391186e-17</leafValues></_>
        <_>
          <internalNodes>
            0 -1 1 -1 -1 -1 -1 -1 -1 -3 -8454273</internalNodes>
          <leafValues>
            3.4694469519536142e-17 -4.5536491244391186e-17</leafValues></_>
        <_>
          <internalNodes>
            0 -1 1 -1 -1 -1 -1 -1 -1 -3 -8454273</internalNodes>
          <leafValues>
            3.4694469519536142e-17 -4.5536491244391186e-17</leafValues></_>
        <_>
          <internalNodes>
            0 -1 1 -1 -1 -1 -1 -1 -1 -3 -8454273</internalNodes>
          <leafValues>
            3.4694469519536142e-17 -4.5536491244391186e-17</leafValues></_>
        <_>
          <internalNodes>
            0 -1 1 -1 -1 -1 -1 -1 -1 -3 -8454273</internalNodes>
          <leafValues>
            3.4694469519536142e-17 -4.5536491244391186e-17</leafValues></_>
        <_>
          <internalNodes>
            0 -1 1 -1 -1 -1 -1 -1 -1 -3 -8454273</internalNodes>
          <leafValues>
            3.4694469519536142e-17 -4.5536491244391186e-17</leafValues></_>
        <_>
          <internalNodes>
            0 -1 1 -1 -1 -1 -1 -1 -1 -3 -8454273</internalNodes>
          <leafValues>
            3.4694469519536142e-17 -4.5536491244391186e-17</leafValues></_>
        <_>
          <internalNodes>
            0 -1 1 -1 -1 -1 -1 -1 -1 -3 -8454273</internalNodes>
          <leafValues>
            3.4694469519536142e-17 -4.5536491244391186e-17</leafValues></_>
        <_>
          <internalNodes>
            0 -1 1 -1 -1 -1 -1 -1 -1 -3 -8454273</internalNodes>
          <leafValues>
            3.4694469519536142e-17 -4.5536491244391186e-17</leafValues></_>
        <_>
          <internalNodes>
            0 -1 1 -1 -1 -1 -1 -1 -1 -3 -8454273</internalNodes>
          <leafValues>
            3.4694469519536142e-17 -4.5536491244391186e-17</leafValues></_>
        <_>
          <internalNodes>
            0 -1 1 -1 -1 -1 -1 -1 -1 -3 -8454273</internalNodes>
          <leafValues>
            3.4694469519536142e-17 -4.5536491244391186e-17</leafValues></_>
        <_>
          <internalNodes>
            0 -1 1 -1 -1 -1 -1 -1 -1 -3 -8454273</internalNodes>
          <leafValues>
            3.4694469519536142e-17 -4.5536491244391186e-17</leafValues></_>
        <_>
          <internalNodes>
            0 -1 1 -1 -1 -1 -1 -1 -1 -3 -8454273</internalNodes>
          <leafValues>
            3.4694469519536142e-17 -4.5536491244391186e-17</leafValues></_>
        <_>
          <internalNodes>
            0 -1 1 -1 -1 -1 -1 -1 -1 -3 -8454273</internalNodes>
          <leafValues>
            3.4694469519536142e-17 -4.5536491244391186e-17</leafValues></_>
        <_>
          <internalNodes>
            0 -1 1 -1 -1 -1 -1 -1 -1 -3 -8454273</internalNodes>
          <leafValues>
            3.4694469519536142e-17 -4.5536491244391186e-17</leafValues></_>
        <_>
          <internalNodes>
            0 -1 1 -1 -1 -1 -1 -1 -1 -3 -8454273</internalNodes>
          <leafValues>
            3.4694469519536142e-17 -4.5536491244391186e-17</leafValues></_>
        <_>
          <internalNodes>
            0 -1 1 -1 -1 -1 -1 -1 -1 -3 -8454273</internalNodes>
          <leafValues>
            3.4694469519536142e-17 -4.5536491244391186e-17</leafValues></_>
        <_>
          <internalNodes>
            0 -1 1 -1 -1 -1 -1 -1 -1 -3 -8454273</internalNodes>
          <leafValues>
            3.4694469519536142e-17 -4.5536491244391186e-17</leafValues></_>
        <_>
          <internalNodes>
            0 -1 1 -1 -1 -1 -1 -1 -1 -3 -8454273</internalNodes>
          <leafValues>
            3.4694469519536142e-17 -4.5536491244391186e-17</leafValues></_>
        <_>
          <internalNodes>
            0 -1 1 -1 -1 -1 -1 -1 -1 -3 -8454273</internalNodes>
          <leafValues>
            3.4694469519536142e-17 -4.5536491244391186e-17</leafValues></_>
        <_>
          <internalNodes>
            0 -1 1 -1 -1 -1 -1 -1 -1 -3 -8454273</internalNodes>
          <leafValues>
            3.4694469519536142e-17 -4.5536491244391186e-17</leafValues></_>
        <_>
          <internalNodes>
            0 -1 1 -1 -1 -1 -1 -1 -1 -3 -8454273</internalNodes>
          <leafValues>
            3.4694469519536142e-17 -4.5536491244391186e-17</leafValues></_>
        <_>
          <internalNodes>
            0 -1 1 -1 -1 -1 -1 -1 -1 -3 -8454273</internalNodes>
          <leafValues>
            3.4694469519536142e-17 -4.5536491244391186e-17</leafValues></_>
        <_>
          <internalNodes>
            0 -1 1 -1 -1 -1 -1 -1 -1 -3 -8454273</internalNodes>
          <leafValues>
            3.4694469519536142e-17 -4.5536491244391186e-17</leafValues></_>
        <_>
          <internalNodes>
            0 -1 1 -1 -1 -1 -1 -1 -1 -3 -8454273</internalNodes>
          <leafValues>
            3.4694469519536142e-17 -4.5536491244391186e-17</leafValues></_>
        <_>
          <internalNodes>
            0 -1 1 -1 -1 -1 -1 -1 -1 -3 -8454273</internalNodes>
          <leafValues>
            3.4694469519536142e-17 -4.5536491244391186e-17</leafValues></_>
        <_>
          <internalNodes>
            0 -1 1 -1 -1 -1 -1 -1 -1 -3 -8454273</internalNodes>
          <leafValues>
            3.4694469519536142e-17 -4.5536491244391186e-17</leafValues></_>
        <_>
          <internalNodes>
            0 -1 1 -1 -1 -1 -1 -1 -1 -3 -8454273</internalNodes>
          <leafValues>
            3.4694469519536142e-17 -4.5536491244391186e-17</leafValues></_>
        <_>
          <internalNodes>
            0 -1 1 -1 -1 -1 -1 -1 -1 -3 -8454273</internalNodes>
          <leafValues>
            3.4694469519536142e-17 -4.5536491244391186e-17</leafValues></_>
        <_>
          <internalNodes>
            0 -1 1 -1 -1 -1 -1 -1 -1 -3 -8454273</internalNodes>
          <leafValues>
            3.4694469519536142e-17 -4.5536491244391186e-17</leafValues></_>
        <_>
          <internalNodes>
            0 -1 1 -1 -1 -1 -1 -1 -1 -3 -8454273</internalNodes>
          <leafValues>
            3.4694469519536142e-17 -4.5536491244391186e-17</leafValues></_>
        <_>
          <internalNodes>
            0 -1 1 -1 -1 -1 -1 -1 -1 -3 -8454273</internalNodes>
          <leafValues>
            3.4694469519536142e-17 -4.5536491244391186e-17</leafValues></_>
        <_>
          <internalNodes>
            0 -1 1 -1 -1 -1 -1 -1 -1 -3 -8454273</internalNodes>
          <leafValues>
            3.4694469519536142e-17 -4.5536491244391186e-17</leafValues></_>
        <_>
          <internalNodes>
            0 -1 1 -1 -1 -1 -1 -1 -1 -3 -8454273</internalNodes>
          <leafValues>
            3.4694469519536142e-17 -4.5536491244391186e-17</leafValues></_>
        <_>
          <internalNodes>
            0 -1 1 -1 -1 -1 -1 -1 -1 -3 -8454273</internalNodes>
          <leafValues>
            3.4694469519536142e-17 -4.5536491244391186e-17</leafValues></_>
        <_>
          <internalNodes>
            0 -1 1 -1 -1 -1 -1 -1 -1 -3 -8454273</internalNodes>
          <leafValues>
            3.4694469519536142e-17 -4.5536491244391186e-17</leafValues></_></weakClassifiers></_>
    <!-- stage 4 -->
    <_>
      <maxWeakCount>100</maxWeakCount>
      <stageThreshold>-1.3195286989212036e+00</stageThreshold>
      <weakClassifiers>
        <_>
          <internalNodes>
            0 -1 0 0 0 0 0 0 2097152 0 -2147483648</internalNodes>
          <leafValues>
            -8.6666667461395264e-01 -8.6666667461395264e-01</leafValues></_>
        <_>
          <internalNodes>
            0 -1 0 0 0 0 268435456 0 2097152 0 0</internalNodes>
          <leafValues>
            -4.2424872517585754e-01 -4.2424872517585754e-01</leafValues></_>
        <_>
          <internalNodes>
            0 -1 0 0 0 0 268435456 0 0 0 -2147483648</internalNodes>
          <leafValues>
            -2.8605464845895767e-02 -2.8605464845895767e-02</leafValues></_>
        <_>
          <internalNodes>
            0 -1 0 0 0 0 0 0 2097152 0 0</internalNodes>
          <leafValues>
            -7.8061884778435342e-06 -7.8061884778435342e-06</leafValues></_>
        <_>
          <internalNodes>
            0 -1 2 0 0 0 0 0 0 128 -2147483648</internalNodes>
          <leafValues>
            -4.5391929190074479e-16 -4.7488055154865094e-16</leafValues></_>
        <_>
          <internalNodes>
            0 -1 7 0 0 0 0 0 0 0 -2147483648</internalNodes>
          <leafValues>
            -5.3017486234541167e-16 3.9031278209478160e-16</leafValues></_>
        <_>
          <internalNodes>
            0 -1 4 0 0 0 0 0 0 0 32768</internalNodes>
          <leafValues>
            -2.6020852139652106e-17 1.4636729328554310e-16</leafValues></_>
        <_>
          <internalNodes>
            0 -1 5 0 0 0 0 0 0 128 0</internalNodes>
          <leafValues>
            -3.5128150388530344e-16 4.7704895589362195e-16</leafValues></_>
        <_>
          <internalNodes>
            0 -1 1 0 0 0 268435456 0 0 0 0</internalNodes>
          <leafValues>
            -1.1275702593849246e-16 -6.2883726004159257e-17</leafValues></_>
        <_>
          <internalNodes>
            0 -1 1 -1 -1 -1 -1 -1 -1 -3 -8388737</internalNodes>
          <leafValues>
            1.3660947373317356e-16 1.1275702593849246e-16</leafValues></_>
        <_>
          <internalNodes>
            0 -1 6 0 0 0 0 0 0 0 128</internalNodes>
          <leafValues>
            -9.3241386833753381e-17 -3.1803264829148947e-17</leafValues></_>
        <_>
          <internalNodes>
            0 -1 1 -1 -1 -1 -1 -1 -1 -3 -8454273</internalNodes>
          <leafValues>
            9.5409791178724390e-17 -9.3241386833753381e-17</leafValues></_>
        <_>
          <internalNodes>
            0 -1 1 0 0 0 268435456 0 0 0 0</internalNodes>
          <leafValues>
            -1.1275702593849246e-16 -4.5536491244391186e-17</leafValues></_>
        <_>
          <internalNodes>
            0 -1 1 -1 -1 -1 -1 -1 -1 -3 -8454273</internalNodes>
          <leafValues>
            3.4694469519536142e-17 -4.5536491244391186e-17</leafValues></_>
        <_>
          <internalNodes>
            0 -1 1 -1 -1 -1 -1 -1 -1 -3 -8454273</internalNodes>
          <leafValues>
            3.4694469519536142e-17 -4.5536491244391186e-17</leafValues></_>
        <_>
          <internalNodes>
            0 -1 1 -1 -1 -1 -1 -1 -1 -3 -8454273</internalNodes>
          <leafValues>
            3.4694469519536142e-17 -4.5536491244391186e-17</leafValues></_>
        <_>
          <internalNodes>
            0 -1 1 -1 -1 -1 -1 -1 -1 -3 -8454273</internalNodes>
          <leafValues>
            3.4694469519536142e-17 -4.5536491244391186e-17</leafValues></_>
        <_>
          <internalNodes>
            0 -1 1 -1 -1 -1 -1 -1 -1 -3 -8454273</internalNodes>
          <leafValues>
            3.4694469519536142e-17 -4.5536491244391186e-17</leafValues></_>
        <_>
          <internalNodes>
            0 -1 1 -1 -1 -1 -1 -1 -1 -3 -8454273</internalNodes>
          <leafValues>
            3.4694469519536142e-17 -4.5536491244391186e-17</leafValues></_>
        <_>
          <internalNodes>
            0 -1 1 -1 -1 -1 -1 -1 -1 -3 -8454273</internalNodes>
          <leafValues>
            3.4694469519536142e-17 -4.5536491244391186e-17</leafValues></_>
        <_>
          <internalNodes>
            0 -1 1 -1 -1 -1 -1 -1 -1 -3 -8454273</internalNodes>
          <leafValues>
            3.4694469519536142e-17 -4.5536491244391186e-17</leafValues></_>
        <_>
          <internalNodes>
            0 -1 1 -1 -1 -1 -1 -1 -1 -3 -8454273</internalNodes>
          <leafValues>
            3.4694469519536142e-17 -4.5536491244391186e-17</leafValues></_>
        <_>
          <internalNodes>
            0 -1 1 -1 -1 -1 -1 -1 -1 -3 -8454273</internalNodes>
          <leafValues>
            3.4694469519536142e-17 -4.5536491244391186e-17</leafValues></_>
        <_>
          <internalNodes>
            0 -1 1 -1 -1 -1 -1 -1 -1 -3 -8454273</internalNodes>
          <leafValues>
            3.4694469519536142e-17 -4.5536491244391186e-17</leafValues></_>
        <_>
          <internalNodes>
            0 -1 1 -1 -1 -1 -1 -1 -1 -3 -8454273</internalNodes>
          <leafValues>
            3.4694469519536142e-17 -4.5536491244391186e-17</leafValues></_>
        <_>
          <internalNodes>
            0 -1 1 -1 -1 -1 -1 -1 -1 -3 -8454273</internalNodes>
          <leafValues>
            3.4694469519536142e-17 -4.5536491244391186e-17</leafValues></_>
        <_>
          <internalNodes>
            0 -1 1 -1 -1 -1 -1 -1 -1 -3 -8454273</internalNodes>
          <leafValues>
            3.4694469519536142e-17 -4.5536491244391186e-17</leafValues></_>
        <_>
          <internalNodes>
            0 -1 1 -1 -1 -1 -1 -1 -1 -3 -8454273</internalNodes>
          <leafValues>
            3.4694469519536142e-17 -4.5536491244391186e-17</leafValues></_>
        <_>
          <internalNodes>
            0 -1 1 -1 -1 -1 -1 -1 -1 -3 -8454273</internalNodes>
          <leafValues>
            3.4694469519536142e-17 -4.5536491244391186e-17</leafValues></_>
        <_>
          <internalNodes>
            0 -1 1 -1 -1 -1 -1 -1 -1 -3 -8454273</internalNodes>
          <leafValues>
            3.4694469519536142e-17 -4.5536491244391186e-17</leafValues></_>
        <_>
          <internalNodes>
            0 -1 1 -1 -1 -1 -1 -1 -1 -3 -8454273</internalNodes>
          <leafValues>
            3.4694469519536142e-17 -4.5536491244391186e-17</leafValues></_>
        <_>
          <internalNodes>
            0 -1 1 -1 -1 -1 -1 -1 -1 -3 -8454273</internalNodes>
          <leafValues>
            3.4694469519536142e-17 -4.5536491244391186e-17</leafValues></_>
        <_>
          <internalNodes>
            0 -1 1 -1 -1 -1 -1 -1 -1 -3 -8454273</internalNodes>
          <leafValues>
            3.4694469519536142e-17 -4.5536491244391186e-17</leafValues></_>
        <_>
          <internalNodes>
            0 -1 1 -1 -1 -1 -1 -1 -1 -3 -8454273</internalNodes>
          <leafValues>
            3.4694469519536142e-17 -4.5536491244391186e-17</leafValues></_>
        <_>
          <internalNodes>
            0 -1 1 -1 -1 -1 -1 -1 -1 -3 -8454273</internalNodes>
          <leafValues>
            3.4694469519536142e-17 -4.5536491244391186e-17</leafValues></_>
        <_>
          <internalNodes>
            0 -1 1 -1 -1 -1 -1 -1 -1 -3 -8454273</internalNodes>
          <leafValues>
            3.4694469519536142e-17 -4.5536491244391186e-17</leafValues></_>
        <_>
          <internalNodes>
            0 -1 1 -1 -1 -1 -1 -1 -1 -3 -8454273</internalNodes>
          <leafValues>
            3.4694469519536142e-17 -4.5536491244391186e-17</leafValues></_>
        <_>
          <internalNodes>
            0 -1 1 -1 -1 -1 -1 -1 -1 -3 -8454273</internalNodes>
          <leafValues>
            3.4694469519536142e-17 -4.5536491244391186e-17</leafValues></_>
        <_>
          <internalNodes>
            0 -1 1 -1 -1 -1 -1 -1 -1 -3 -8454273</internalNodes>
          <leafValues>
            3.4694469519536142e-17 -4.5536491244391186e-17</leafValues></_>
        <_>
          <internalNodes>
            0 -1 1 -1 -1 -1 -1 -1 -1 -3 -8454273</internalNodes>
          <leafValues>
            3.4694469519536142e-17 -4.5536491244391186e-17</leafValues></_>
        <_>
          <internalNodes>
            0 -1 1 -1 -1 -1 -1 -1 -1 -3 -8454273</internalNodes>
          <leafValues>
            3.4694469519536142e-17 -4.5536491244391186e-17</leafValues></_>
        <_>
          <internalNodes>
            0 -1 1 -1 -1 -1 -1 -1 -1 -3 -8454273</internalNodes>
          <leafValues>
            3.4694469519536142e-17 -4.5536491244391186e-17</leafValues></_>
        <_>
          <internalNodes>
            0 -1 1 -1 -1 -1 -1 -1 -1 -3 -8454273</internalNodes>
          <leafValues>
            3.4694469519536142e-17 -4.5536491244391186e-17</leafValues></_>
        <_>
          <internalNodes>
            0 -1 1 -1 -1 -1 -1 -1 -1 -3 -8454273</internalNodes>
          <leafValues>
            3.4694469519536142e-17 -4.5536491244391186e-17</leafValues></_>
        <_>
          <internalNodes>
            0 -1 1 -1 -1 -1 -1 -1 -1 -3 -8454273</internalNodes>
          <leafValues>
            3.4694469519536142e-17 -4.5536491244391186e-17</leafValues></_>
        <_>
          <internalNodes>
            0 -1 1 -1 -1 -1 -1 -1 -1 -3 -8454273</internalNodes>
          <leafValues>
            3.4694469519536142e-17 -4.5536491244391186e-17</leafValues></_>
        <_>
          <internalNodes>
            0 -1 1 -1 -1 -1 -1 -1 -1 -3 -8454273</internalNodes>
          <leafValues>
            3.4694469519536142e-17 -4.5536491244391186e-17</leafValues></_>
        <_>
          <internalNodes>
            0 -1 1 -1 -1 -1 -1 -1 -1 -3 -8454273</internalNodes>
          <leafValues>
            3.4694469519536142e-17 -4.5536491244391186e-17</leafValues></_>
        <_>
          <internalNodes>
            0 -1 1 -1 -1 -1 -1 -1 -1 -3 -8454273</internalNodes>
          <leafValues>
            3.4694469519536142e-17 -4.5536491244391186e-17</leafValues></_>
        <_>
          <internalNodes>
            0 -1 1 -1 -1 -1 -1 -1 -1 -3 -8454273</internalNodes>
          <leafValues>
            3.4694469519536142e-17 -4.5536491244391186e-17</leafValues></_>
        <_>
          <internalNodes>
            0 -1 1 -1 -1 -1 -1 -1 -1 -3 -8454273</internalNodes>
          <leafValues>
            3.4694469519536142e-17 -4.5536491244391186e-17</leafValues></_>
        <_>
          <internalNodes>
            0 -1 1 -1 -1 -1 -1 -1 -1 -3 -8454273</internalNodes>
          <leafValues>
            3.4694469519536142e-17 -4.5536491244391186e-17</leafValues></_>
        <_>
          <internalNodes>
            0 -1 1 -1 -1 -1 -1 -1 -1 -3 -8454273</internalNodes>
          <leafValues>
            3.4694469519536142e-17 -4.5536491244391186e-17</leafValues></_>
        <_>
          <internalNodes>
            0 -1 1 -1 -1 -1 -1 -1 -1 -3 -8454273</internalNodes>
          <leafValues>
            3.4694469519536142e-17 -4.5536491244391186e-17</leafValues></_>
        <_>
          <internalNodes>
            0 -1 1 -1 -1 -1 -1 -1 -1 -3 -8454273</internalNodes>
          <leafValues>
            3.4694469519536142e-17 -4.5536491244391186e-17</leafValues></_>
        <_>
          <internalNodes>
            0 -1 1 -1 -1 -1 -1 -1 -1 -3 -8454273</internalNodes>
          <leafValues>
            3.4694469519536142e-17 -4.5536491244391186e-17</leafValues></_>
        <_>
          <internalNodes>
            0 -1 1 -1 -1 -1 -1 -1 -1 -3 -8454273</internalNodes>
          <leafValues>
            3.4694469519536142e-17 -4.5536491244391186e-17</leafValues></_>
        <_>
          <internalNodes>
            0 -1 1 -1 -1 -1 -1 -1 -1 -3 -8454273</internalNodes>
          <leafValues>
            3.4694469519536142e-17 -4.5536491244391186e-17</leafValues></_>
        <_>
          <internalNodes>
            0 -1 1 -1 -1 -1 -1 -1 -1 -3 -8454273</internalNodes>
          <leafValues>
            3.4694469519536142e-17 -4.5536491244391186e-17</leafValues></_>
        <_>
          <internalNodes>
            0 -1 1 -1 -1 -1 -1 -1 -1 -3 -8454273</internalNodes>
          <leafValues>
            3.4694469519536142e-17 -4.5536491244391186e-17</leafValues></_>
        <_>
          <internalNodes>
            0 -1 1 -1 -1 -1 -1 -1 -1 -3 -8454273</internalNodes>
          <leafValues>
            3.4694469519536142e-17 -4.5536491244391186e-17</leafValues></_>
        <_>
          <internalNodes>
            0 -1 1 -1 -1 -1 -1 -1 -1 -3 -8454273</internalNodes>
          <leafValues>
            3.4694469519536142e-17 -4.5536491244391186e-17</leafValues></_>
        <_>
          <internalNodes>
            0 -1 1 -1 -1 -1 -1 -1 -1 -3 -8454273</internalNodes>
          <leafValues>
            3.4694469519536142e-17 -4.5536491244391186e-17</leafValues></_>
        <_>
          <internalNodes>
            0 -1 1 -1 -1 -1 -1 -1 -1 -3 -8454273</internalNodes>
          <leafValues>
            3.4694469519536142e-17 -4.5536491244391186e-17</leafValues></_>
        <_>
          <internalNodes>
            0 -1 1 -1 -1 -1 -1 -1 -1 -3 -8454273</internalNodes>
          <leafValues>
            3.4694469519536142e-17 -4.5536491244391186e-17</leafValues></_>
        <_>
          <internalNodes>
            0 -1 1 -1 -1 -1 -1 -1 -1 -3 -8454273</internalNodes>
          <leafValues>
            3.4694469519536142e-17 -4.5536491244391186e-17</leafValues></_>
        <_>
          <internalNodes>
            0 -1 1 -1 -1 -1 -1 -1 -1 -3 -8454273</internalNodes>
          <leafValues>
            3.4694469519536142e-17 -4.5536491244391186e-17</leafValues></_>
        <_>
          <internalNodes>
            0 -1 1 -1 -1 -1 -1 -1 -1 -3 -8454273</internalNodes>
          <leafValues>
            3.4694469519536142e-17 -4.5536491244391186e-17</leafValues></_>
        <_>
          <internalNodes>
            0 -1 1 -1 -1 -1 -1 -1 -1 -3 -8454273</internalNodes>
          <leafValues>
            3.4694469519536142e-17 -4.5536491244391186e-17</leafValues></_>
        <_>
          <internalNodes>
            0 -1 1 -1 -1 -1 -1 -1 -1 -3 -8454273</internalNodes>
          <leafValues>
            3.4694469519536142e-17 -4.5536491244391186e-17</leafValues></_>
        <_>
          <internalNodes>
            0 -1 1 -1 -1 -1 -1 -1 -1 -3 -8454273</internalNodes>
          <leafValues>
            3.4694469519536142e-17 -4.5536491244391186e-17</leafValues></_>
        <_>
          <internalNodes>
            0 -1 1 -1 -1 -1 -1 -1 -1 -3 -8454273</internalNodes>
          <leafValues>
            3.4694469519536142e-17 -4.5536491244391186e-17</leafValues></_>
        <_>
          <internalNodes>
            0 -1 1 -1 -1 -1 -1 -1 -1 -3 -8454273</internalNodes>
          <leafValues>
            3.4694469519536142e-17 -4.5536491244391186e-17</leafValues></_>
        <_>
          <internalNodes>
            0 -1 1 -1 -1 -1 -1 -1 -1 -3 -8454273</internalNodes>
          <leafValues>
            3.4694469519536142e-17 -4.5536491244391186e-17</leafValues></_>
        <_>
          <internalNodes>
            0 -1 1 -1 -1 -1 -1 -1 -1 -3 -8454273</internalNodes>
          <leafValues>
            3.4694469519536142e-17 -4.5536491244391186e-17</leafValues></_>
        <_>
          <internalNodes>
            0 -1 1 -1 -1 -1 -1 -1 -1 -3 -8454273</internalNodes>
          <leafValues>
            3.4694469519536142e-17 -4.5536491244391186e-17</leafValues></_>
        <_>
          <internalNodes>
            0 -1 1 -1 -1 -1 -1 -1 -1 -3 -8454273</internalNodes>
          <leafValues>
            3.4694469519536142e-17 -4.5536491244391186e-17</leafValues></_>
        <_>
          <internalNodes>
            0 -1 1 -1 -1 -1 -1 -1 -1 -3 -8454273</internalNodes>
          <leafValues>
            3.4694469519536142e-17 -4.5536491244391186e-17</leafValues></_>
        <_>
          <internalNodes>
            0 -1 1 -1 -1 -1 -1 -1 -1 -3 -8454273</internalNodes>
          <leafValues>
            3.4694469519536142e-17 -4.5536491244391186e-17</leafValues></_>
        <_>
          <internalNodes>
            0 -1 1 -1 -1 -1 -1 -1 -1 -3 -8454273</internalNodes>
          <leafValues>
            3.4694469519536142e-17 -4.5536491244391186e-17</leafValues></_>
        <_>
          <internalNodes>
            0 -1 1 -1 -1 -1 -1 -1 -1 -3 -8454273</internalNodes>
          <leafValues>
            3.4694469519536142e-17 -4.5536491244391186e-17</leafValues></_>
        <_>
          <internalNodes>
            0 -1 1 -1 -1 -1 -1 -1 -1 -3 -8454273</internalNodes>
          <leafValues>
            3.4694469519536142e-17 -4.5536491244391186e-17</leafValues></_>
        <_>
          <internalNodes>
            0 -1 1 -1 -1 -1 -1 -1 -1 -3 -8454273</internalNodes>
          <leafValues>
            3.4694469519536142e-17 -4.5536491244391186e-17</leafValues></_>
        <_>
          <internalNodes>
            0 -1 1 -1 -1 -1 -1 -1 -1 -3 -8454273</internalNodes>
          <leafValues>
            3.4694469519536142e-17 -4.5536491244391186e-17</leafValues></_>
        <_>
          <internalNodes>
            0 -1 1 -1 -1 -1 -1 -1 -1 -3 -8454273</internalNodes>
          <leafValues>
            3.4694469519536142e-17 -4.5536491244391186e-17</leafValues></_>
        <_>
          <internalNodes>
            0 -1 1 -1 -1 -1 -1 -1 -1 -3 -8454273</internalNodes>
          <leafValues>
            3.4694469519536142e-17 -4.5536491244391186e-17</leafValues></_>
        <_>
          <internalNodes>
            0 -1 1 -1 -1 -1 -1 -1 -1 -3 -8454273</internalNodes>
          <leafValues>
            3.4694469519536142e-17 -4.5536491244391186e-17</leafValues></_>
        <_>
          <internalNodes>
            0 -1 1 -1 -1 -1 -1 -1 -1 -3 -8454273</internalNodes>
          <leafValues>
            3.4694469519536142e-17 -4.5536491244391186e-17</leafValues></_>
        <_>
          <internalNodes>
            0 -1 1 -1 -1 -1 -1 -1 -1 -3 -8454273</internalNodes>
          <leafValues>
            3.4694469519536142e-17 -4.5536491244391186e-17</leafValues></_>
        <_>
          <internalNodes>
            0 -1 1 -1 -1 -1 -1 -1 -1 -3 -8454273</internalNodes>
          <leafValues>
            3.4694469519536142e-17 -4.5536491244391186e-17</leafValues></_>
        <_>
          <internalNodes>
            0 -1 1 -1 -1 -1 -1 -1 -1 -3 -8454273</internalNodes>
          <leafValues>
            3.4694469519536142e-17 -4.5536491244391186e-17</leafValues></_>
        <_>
          <internalNodes>
            0 -1 1 -1 -1 -1 -1 -1 -1 -3 -8454273</internalNodes>
          <leafValues>
            3.4694469519536142e-17 -4.5536491244391186e-17</leafValues></_>
        <_>
          <internalNodes>
            0 -1 1 -1 -1 -1 -1 -1 -1 -3 -8454273</internalNodes>
          <leafValues>
            3.4694469519536142e-17 -4.5536491244391186e-17</leafValues></_>
        <_>
          <internalNodes>
            0 -1 1 -1 -1 -1 -1 -1 -1 -3 -8454273</internalNodes>
          <leafValues>
            3.4694469519536142e-17 -4.5536491244391186e-17</leafValues></_>
        <_>
          <internalNodes>
            0 -1 1 -1 -1 -1 -1 -1 -1 -3 -8454273</internalNodes>
          <leafValues>
            3.4694469519536142e-17 -4.5536491244391186e-17</leafValues></_>
        <_>
          <internalNodes>
            0 -1 1 -1 -1 -1 -1 -1 -1 -3 -8454273</internalNodes>
          <leafValues>
            3.4694469519536142e-17 -4.5536491244391186e-17</leafValues></_>
        <_>
          <internalNodes>
            0 -1 1 -1 -1 -1 -1 -1 -1 -3 -8454273</internalNodes>
          <leafValues>
            3.4694469519536142e-17 -4.5536491244391186e-17</leafValues></_>
        <_>
          <internalNodes>
            0 -1 1 -1 -1 -1 -1 -1 -1 -3 -8454273</internalNodes>
          <leafValues>
            3.4694469519536142e-17 -4.5536491244391186e-17</leafValues></_>
        <_>
          <internalNodes>
            0 -1 1 -1 -1 -1 -1 -1 -1 -3 -8454273</internalNodes>
          <leafValues>
            3.4694469519536142e-17 -4.5536491244391186e-17</leafValues></_>
        <_>
          <internalNodes>
            0 -1 1 -1 -1 -1 -1 -1 -1 -3 -8454273</internalNodes>
          <leafValues>
            3.4694469519536142e-17 -4.5536491244391186e-17</leafValues></_></weakClassifiers></_></stages>
  <features>
    <_>
      <rect>
        0 0 1 1</rect></_>
    <_>
      <rect>
        0 0 3 5</rect></_>
    <_>
      <rect>
        0 0 3 19</rect></_>
    <_>
      <rect>
        0 0 5 13</rect></_>
    <_>
      <rect>
        0 0 8 17</rect></_>
    <_>
      <rect>
        0 0 10 1</rect></_>
    <_>
      <rect>
        0 0 15 14</rect></_>
    <_>
      <rect>
        0 12 1 2</rect></_>
    <_>
      <rect>
        0 18 11 8</rect></_></features></cascade>
</opencv_storage>
